// Neural Network File Format by Kyle Julian, Stanford 2016
6,6,3,32,
6,32,32,32,32,32,3,
0,
-2.0,-2.0,0.5,-1.5,-1.5,-1.5,
2.0,2.0,4.5,1.5,1.5,1.5,
0.0,0.0,2.5,0.0,0.0,0.0,0.0,
4.0,4.0,4.0,3.0,3.0,3.0,1.0,
-1.18824e-04,-9.97348e-01,5.19348e-02,2.09202e-03,6.46695e-05,7.72041e-04,-4.54427e-03,-2.14700e-01,-3.37594e-03,2.10888e-04,1.78828e-04,4.77356e-05,3.83120e-05,1.42716e-04,1.91595e-04,1.01484e-05,6.59057e-06,1.66598e-02,-1.49879e-04,-4.07184e-06,-3.47409e-01,8.51474e-01,5.73655e-06,2.46782e-01,-4.89370e-05,-6.60736e-01,4.44062e-03,3.56842e-05,-1.40809e-01,8.73286e-01,-6.14263e-04,-2.65948e-04,
-8.41843e-05,-5.32843e-02,-1.52358e-01,-1.11498e+00,1.95651e-04,-4.93559e-04,2.61342e-03,1.26604e+00,-5.24462e-02,1.97126e-04,-6.57002e-05,1.27485e-04,-1.89633e-04,-4.60327e-05,5.50404e-05,1.53684e-04,-9.56103e-05,5.43593e-01,1.28190e-04,1.73344e-04,-3.58740e-02,5.14354e-01,8.67709e-05,-1.37936e-01,-4.00602e-05,-4.21766e-01,-1.68121e-03,-9.58523e-05,2.90302e-03,-2.90172e-01,7.21268e-01,-7.72175e-05,
1.54846e-05,2.61828e-01,3.49607e-01,2.27701e-01,8.74839e-05,-1.11443e-03,-1.42724e-03,3.33389e-02,-1.19645e-01,1.39961e-04,7.15731e-05,6.47559e-05,-1.05982e-04,7.58590e-05,9.69173e-05,-1.75281e-04,1.43931e-04,5.19108e-01,-1.60000e-04,-3.10651e-05,4.09700e-01,-1.51058e-01,9.83351e-05,-4.66050e-01,-7.24941e-05,-2.73478e-01,-2.09662e-03,-2.91114e-04,-6.04014e-01,3.67433e-01,-2.69391e-01,-6.31236e-05,
-1.04114e-04,-3.81745e-01,2.00638e-03,1.17567e-02,1.74275e-04,-2.72755e-03,1.64268e-03,-7.14671e-02,7.56123e-04,-1.69129e-04,-1.19809e-04,1.36129e-05,-4.71212e-05,2.49075e-05,-1.85787e-04,-2.51367e-04,-1.20143e-05,-6.29952e-03,3.65073e-05,2.71452e-04,-1.01519e-01,3.17254e-01,6.48187e-05,7.63742e-02,2.19016e-04,-2.57693e-01,-4.05223e-01,-4.58632e-05,-2.25231e-02,3.40652e-01,2.67352e-03,-5.18832e-05,
-2.01040e-04,3.68765e-04,1.67984e-04,-4.28009e-01,-3.33519e-05,4.56848e-01,-4.45171e-01,4.86123e-01,3.04880e-02,5.35342e-05,5.74219e-05,2.07505e-04,2.31426e-04,-1.86237e-04,-1.41437e-04,-2.17669e-05,-1.21536e-04,1.89965e-01,5.02956e-05,-1.52241e-04,-4.01695e-02,1.79254e-01,-1.08870e-04,-3.18753e-02,-1.09119e-04,-1.68950e-01,-4.03075e-04,-8.17661e-05,1.77793e-03,-1.13536e-01,2.59136e-01,-2.08678e-05,
7.73171e-05,1.32087e-01,3.55016e-02,9.97349e-02,-5.79093e-05,-9.01920e-04,-5.95066e-03,2.14958e-02,-4.44737e-03,7.49511e-05,5.34465e-05,3.27773e-06,-1.33944e-04,1.83376e-04,-6.72527e-05,-9.15102e-05,1.45382e-05,2.21386e-01,-2.78958e-04,-1.26748e-04,1.95227e-01,-6.89100e-02,1.03114e-04,-1.80807e-01,2.10351e-04,-1.47115e-01,1.64662e-03,2.08280e-04,-2.33222e-01,1.55063e-01,-1.24317e-01,1.89350e-04,
-2.81479e-02,
-6.86381e-01,
-8.89333e-01,
-3.78205e-01,
-2.72768e-01,
-5.49601e-02,
6.17615e-02,
3.90571e-01,
3.03031e-01,
-4.84968e-01,
-3.74145e-01,
-1.18654e-02,
-2.95342e-02,
-2.84525e-01,
-2.85811e-01,
-3.52618e-03,
-1.82168e-03,
-1.04117e+00,
-7.72263e-03,
-1.34454e-02,
-9.12147e-01,
6.77210e-01,
-2.37880e-03,
1.15553e+00,
-2.77266e-02,
6.04778e-01,
5.58396e-01,
-1.90692e-03,
1.54129e+00,
-4.90156e-01,
3.16360e-01,
-5.37407e-03,
-3.23686e-04,-1.26973e-04,5.02219e-05,-2.30132e-05,-1.38841e-04,2.27768e-05,-7.34264e-05,-1.60341e-05,1.64454e-05,1.35383e-04,-1.06542e-04,9.33635e-05,4.67101e-05,1.34619e-04,-5.37721e-05,5.89603e-05,1.60461e-04,-6.28457e-05,-5.60146e-06,-3.36049e-05,4.97732e-05,1.04782e-04,-1.48217e-04,-1.24633e-04,-2.52332e-04,-4.28241e-05,1.32688e-04,-1.61875e-04,1.26649e-04,-2.69141e-04,3.84381e-05,-7.14295e-05,
1.69365e-04,1.94012e-04,1.60811e-01,1.22347e-03,-4.12284e-06,2.67908e-04,-1.43481e-05,3.43089e-01,-5.16735e-02,3.02534e-02,-7.77153e-05,3.76477e-05,-3.61612e-01,-9.54995e-02,5.85448e-05,-1.26797e-05,-1.28636e-02,1.16391e-01,-9.05278e-05,-3.26834e-05,-1.52663e-05,4.81773e-01,-1.35687e-03,-2.00196e-04,-9.89808e-05,-3.06168e-05,1.16033e-01,-3.77026e-04,-2.35858e-04,2.34453e-04,3.74414e-04,2.22954e-04,
9.32268e-05,2.16674e-04,-1.39185e-02,8.07441e-04,-8.85358e-05,6.50867e-05,-6.35451e-05,-5.79618e-03,-5.13401e-04,2.27967e-03,-1.05780e-05,1.01728e-04,5.10153e-02,9.50713e-03,5.71495e-05,3.36288e-05,2.91939e-03,2.43773e-01,-1.43222e-04,-2.26280e-04,-3.13998e-04,-5.13255e-03,1.70896e-01,-8.21224e-05,-5.08114e-05,2.49133e-05,2.68448e-04,1.20454e-05,-2.36492e-04,-3.35676e-06,7.13765e-05,1.04715e-04,
-1.30101e-05,6.72299e-05,1.23701e-02,-1.56751e-03,-2.07377e-04,9.59049e-05,-1.17940e-04,5.43727e-02,-2.53788e-01,1.64037e-01,-5.92644e-05,1.51590e-04,-2.58112e-03,1.46636e-02,-1.28122e-04,-1.27818e-04,1.84777e-02,2.17079e-01,-4.65992e-05,-1.48149e-04,-9.58479e-05,-1.23395e-01,8.20857e-03,-1.19560e-04,1.35963e-04,1.46123e-05,6.92501e-01,1.63649e-04,-2.01767e-04,5.27281e-05,3.49961e-04,6.41269e-05,
-6.83957e-05,-9.59904e-05,-2.61065e-04,-3.42045e-04,2.77914e-04,-1.29218e-04,4.28027e-05,-2.07079e-04,3.76030e-04,1.29971e-04,-7.78448e-05,-4.13230e-05,-1.67388e-04,-6.46204e-05,9.36174e-05,-1.67629e-04,1.14412e-04,9.43064e-05,-3.49113e-04,1.24021e-04,-1.30068e-04,-3.85521e-05,1.74922e-04,3.26111e-05,-1.36455e-05,7.15090e-05,-6.38015e-05,2.08432e-05,-4.47889e-04,6.31217e-05,9.81359e-07,1.03750e-04,
-5.12779e-05,1.03802e-05,2.28282e-02,-4.85181e-01,-6.24217e-05,8.14635e-05,4.99131e-09,-2.32151e-02,-1.26204e-02,2.83269e-02,5.91753e-06,-8.79156e-05,2.09838e-02,3.67114e-02,-8.72078e-05,2.73728e-05,8.78151e-03,3.69970e-02,2.28740e-04,-2.00806e-03,-2.42218e-05,6.23279e-04,1.82371e-02,-1.28122e-04,1.22010e-04,-1.06188e-04,-4.11687e-02,-1.54876e-04,-4.39579e-05,-2.84173e-04,-2.72859e-04,-1.87150e-04,
-2.55366e-04,-2.60862e-04,7.67295e-03,4.98624e-01,7.24964e-05,-1.28847e-04,3.71627e-05,1.29334e-02,3.79903e-02,-2.90113e-02,-1.23415e-04,6.59975e-06,5.14875e-03,-5.02734e-02,-7.80165e-06,2.30076e-05,-8.08930e-02,-5.88807e-02,-1.16573e-04,1.63960e-03,4.24902e-05,7.64665e-03,-3.04915e-03,3.13557e-05,4.34086e-04,1.24233e-04,4.63893e-03,1.43626e-04,5.19883e-05,-2.36121e-05,1.76198e-04,2.10113e-04,
-1.97574e-04,4.67021e-05,-4.01938e-01,9.81547e-04,-2.21309e-04,7.07535e-05,4.16591e-05,3.00428e-01,1.08011e-01,-3.49369e-03,4.76705e-04,-1.43472e-04,-1.96136e-01,1.18994e-01,7.45296e-05,-5.84820e-05,-7.62886e-01,-3.02833e-03,3.46739e-05,2.11521e-04,4.63958e-05,2.50668e-01,-1.11174e-01,1.28113e-04,3.88875e-05,-8.72668e-05,1.34047e-03,1.88605e-04,1.30791e-04,1.21801e-04,-2.04159e-04,-1.41216e-04,
6.34153e-05,2.60445e-05,1.80063e-03,4.96339e-04,8.96877e-05,-3.04258e-04,5.92958e-05,7.16680e-03,-4.05577e-03,7.24452e-02,6.25697e-05,7.09291e-05,-9.13329e-03,-1.07775e-03,-1.52448e-05,1.24076e-04,4.44317e-03,3.12328e-03,-1.01429e-04,1.10350e-03,-4.24331e-05,8.71933e-04,4.19214e-03,-7.67109e-05,2.03031e-04,1.08606e-04,-2.39897e-03,-6.79996e-05,1.92358e-04,-3.13136e-05,-7.64865e-05,2.43219e-05,
-1.17746e-04,-1.25656e-04,-2.76452e-04,4.87462e-05,9.71145e-05,1.28255e-04,-7.42614e-05,5.19881e-05,-1.03864e-04,7.86261e-05,-5.05518e-05,1.36608e-04,-8.01742e-05,-5.74961e-05,5.03480e-05,-3.64822e-05,5.60310e-05,-7.47402e-05,1.23735e-04,6.30461e-05,-5.73075e-05,-1.93071e-04,-1.09453e-04,-5.24330e-05,1.85761e-04,-1.89691e-04,-1.22786e-04,4.08679e-05,-2.27110e-04,3.21430e-05,-1.23236e-04,-1.83956e-05,
1.86709e-04,-3.23490e-05,-3.23376e-05,5.66984e-05,-2.60811e-05,8.72362e-05,4.29006e-05,6.53183e-05,-1.48591e-04,9.22495e-05,-8.43864e-06,2.00611e-04,-4.97938e-05,1.22007e-04,-6.27546e-05,1.23379e-05,-5.73568e-05,6.37121e-05,-1.72783e-04,6.04785e-05,-2.24208e-05,8.09648e-05,8.11642e-05,-4.43504e-05,-1.02637e-04,-5.83513e-05,-3.17907e-05,1.56472e-04,-1.06043e-04,1.49022e-04,-1.47741e-04,-1.66729e-04,
2.96781e-04,-2.69416e-05,1.48967e-04,-1.16570e-04,-7.35790e-05,2.19443e-04,2.95295e-04,1.88359e-04,-1.60983e-04,-7.41930e-06,1.59933e-04,-1.92183e-04,2.08187e-04,-1.28122e-04,-1.14452e-04,-2.18546e-04,-2.18657e-05,1.06050e-04,-8.63606e-05,1.17395e-06,-2.74200e-04,-3.41467e-05,-3.52998e-05,9.97233e-05,-1.69123e-06,3.00150e-05,1.85620e-04,-9.92586e-05,-7.70817e-05,-3.46083e-04,6.51063e-05,-5.87630e-05,
-2.15302e-04,-5.74262e-05,5.23247e-05,-1.69892e-04,-5.37545e-05,-2.15824e-04,-1.63406e-04,1.72588e-04,-1.52027e-04,6.09889e-05,1.24218e-04,1.93791e-04,6.81013e-05,1.87926e-04,4.84857e-05,3.61413e-04,-6.85709e-05,-1.28011e-04,1.18599e-04,-8.70807e-05,-1.32243e-04,-6.18196e-05,1.13807e-04,-2.72859e-04,9.52457e-05,2.14506e-05,5.97144e-05,-1.86606e-04,-1.19448e-04,5.97848e-05,6.32220e-05,-5.41592e-05,
-7.37949e-05,4.54240e-05,-4.42399e-05,-1.63876e-04,5.60556e-05,1.23186e-04,-1.21208e-04,2.19055e-04,7.76584e-05,1.05683e-05,-1.01216e-04,3.44866e-05,1.62460e-05,1.10613e-04,2.53513e-04,6.91381e-05,6.20473e-06,1.41262e-04,4.69466e-05,7.21448e-05,-1.26094e-04,-2.31263e-04,6.55132e-05,1.88928e-05,6.68294e-05,-1.17174e-04,5.94043e-05,-6.25001e-05,-1.69914e-04,-1.26945e-04,1.59128e-04,-2.34177e-04,
-5.44228e-05,4.16515e-05,1.09442e-04,1.17060e-05,2.00587e-04,-1.41290e-04,-5.39946e-05,-1.29088e-04,1.18173e-04,8.70933e-05,2.96796e-06,-1.33456e-04,-6.20823e-05,5.71460e-05,-5.44366e-05,-8.25232e-05,5.56870e-05,-9.15008e-05,5.09087e-05,2.16090e-04,2.38282e-04,-2.69780e-05,5.16103e-05,2.21498e-05,-8.52957e-05,1.41545e-04,2.12761e-05,2.59557e-04,1.12833e-04,3.58943e-05,4.11729e-05,1.75151e-04,
-2.00364e-04,1.64435e-04,-6.29413e-05,7.01886e-05,1.89205e-04,-8.51739e-05,1.57720e-05,-1.47431e-04,7.05840e-05,-7.76082e-05,-2.71223e-05,-2.80338e-04,-1.56655e-04,1.37717e-05,3.83203e-05,-1.24853e-04,-1.95837e-04,8.31183e-05,-9.20018e-06,3.37323e-04,-2.15335e-04,1.91313e-04,5.88726e-06,1.81382e-04,-2.17326e-04,-5.90017e-05,-1.29153e-04,1.95985e-04,5.02029e-05,-4.85297e-05,-4.11827e-05,-4.98739e-05,
-1.03253e-05,-2.00839e-04,1.70281e-04,5.75356e-05,-1.03674e-04,4.88616e-05,1.21639e-04,2.50579e-05,-6.45675e-05,2.27244e-05,-1.89224e-04,2.46420e-04,-1.43650e-04,-5.91684e-05,-2.66110e-04,1.70222e-04,6.07848e-05,1.92648e-05,1.38570e-05,8.01290e-05,-1.03135e-04,-8.96802e-05,1.01373e-04,-4.21944e-05,2.03705e-04,1.10791e-04,-4.94853e-05,1.37335e-04,-1.84976e-04,-1.71899e-04,-4.28871e-04,-3.89235e-06,
-5.74176e-05,-1.38902e-04,-7.98025e-03,-3.28144e-04,-1.31269e-04,2.10685e-04,-1.37043e-04,9.11037e-02,-4.99509e-02,-9.66618e-02,1.73773e-04,-1.71072e-05,-2.35704e-02,4.74715e-01,-1.69014e-05,8.91709e-05,-8.52985e-04,3.64859e-01,4.12046e-05,-8.34145e-04,4.14054e-04,3.14645e-01,1.41490e-02,9.56491e-05,-1.23912e-04,1.22973e-04,-7.46117e-03,4.51134e-05,7.10001e-05,-1.43184e-04,1.13018e-04,-1.65369e-04,
-2.68905e-04,6.33370e-05,-1.78604e-04,-1.32162e-04,-2.19228e-04,-6.91024e-05,2.05967e-04,1.28103e-04,6.40322e-05,-5.88613e-05,-2.41492e-04,1.39605e-04,1.24440e-04,8.44281e-05,-7.50719e-05,8.54688e-05,5.83565e-05,-7.05931e-05,1.69073e-04,1.40022e-04,7.52849e-05,7.40664e-05,-1.29474e-04,2.90375e-05,6.26706e-05,-9.01024e-06,-8.03338e-05,5.29814e-06,3.18044e-05,-4.99752e-05,1.27517e-04,8.18945e-08,
2.25209e-05,6.10117e-05,-2.65679e-04,-1.55829e-04,-9.30627e-05,-1.45921e-04,-2.91549e-04,-2.70382e-04,-9.56271e-05,-9.33473e-05,7.23157e-05,-8.60182e-05,-1.86984e-04,2.14616e-05,-9.92773e-06,-4.57970e-05,-6.48862e-05,-3.23745e-04,1.71727e-05,2.24910e-04,-6.67136e-05,-5.30008e-04,-1.30680e-04,9.73685e-05,-2.54708e-05,2.02685e-04,-2.48798e-04,-1.06911e-04,-8.28066e-05,-1.57535e-04,-1.91483e-04,-1.39318e-04,
-5.98875e-05,-8.74662e-05,-2.74392e-03,1.61994e-03,2.16233e-04,-1.60260e-04,-1.01081e-04,2.70004e-02,-7.81195e-02,1.82439e-03,4.64945e-05,-4.72937e-11,-1.18448e-01,-1.56412e-03,-2.70171e-05,-2.65294e-05,-5.30035e-03,5.90208e-01,4.36764e-05,-1.63049e-03,-1.66821e-04,1.56352e-02,2.28086e-03,1.36490e-04,1.72197e-04,-1.35471e-04,-3.86606e-03,-1.34022e-04,-5.74670e-05,2.14853e-05,1.80328e-05,-3.49671e-05,
7.92773e-05,1.99752e-04,-3.65450e-01,-3.05145e-04,1.80969e-04,-1.69197e-04,8.75232e-05,7.36598e-02,3.96920e-01,-3.10974e-03,1.39112e-04,7.26050e-07,2.57080e-01,3.42205e-01,-6.48262e-05,5.15667e-05,9.98979e-03,-1.40721e-01,1.29275e-04,6.68035e-04,1.51940e-04,9.04908e-04,4.60008e-01,-2.36775e-04,-4.01443e-05,-3.42778e-04,7.74202e-02,-5.92982e-05,-1.29068e-04,1.22766e-05,-5.87212e-05,3.98519e-04,
-9.12660e-05,3.74212e-05,2.82226e-05,-7.89833e-05,-3.57220e-05,6.91924e-05,-2.77933e-04,2.43072e-05,-3.91260e-05,-2.06056e-04,-9.45772e-05,-1.96159e-04,9.65342e-06,4.86404e-05,5.20544e-05,1.79256e-04,3.76054e-04,6.16596e-05,1.09574e-04,1.71099e-04,1.74234e-04,1.49295e-04,5.86023e-05,-7.31830e-05,-1.53714e-04,-2.75131e-04,-3.87707e-05,8.34273e-05,7.32886e-05,-1.35277e-05,1.61763e-04,5.17657e-05,
1.22612e-04,-1.30836e-04,2.99497e-03,-1.56970e-03,-8.64323e-05,2.77776e-05,1.95920e-04,-1.35546e-03,-2.64831e-03,7.12152e-01,-4.06211e-05,-8.64123e-05,8.90269e-03,5.33581e-03,6.00874e-05,1.97193e-04,3.05711e-03,2.13125e-04,-1.13150e-05,2.83383e-03,1.28986e-04,-4.18022e-03,-6.48407e-05,3.03441e-04,8.04126e-06,-4.85272e-05,7.85696e-02,-3.87306e-05,-3.28272e-04,-1.09052e-04,8.84862e-05,-1.11034e-04,
6.36514e-05,4.62546e-06,8.65745e-05,1.34367e-04,1.32073e-05,-7.06551e-06,-1.62925e-04,2.45849e-05,2.37319e-05,2.06261e-04,1.64771e-04,-2.42864e-07,-4.76389e-05,8.46158e-05,-1.50075e-05,1.12208e-05,-1.13691e-04,5.92493e-05,1.87433e-04,1.45052e-04,8.51060e-05,-6.27852e-05,7.98070e-05,1.77478e-04,-7.97180e-05,-8.86961e-05,-7.73046e-05,-2.27779e-04,-1.09425e-06,5.15925e-05,-7.99896e-05,3.06956e-06,
-9.05801e-05,-9.09677e-06,7.89235e-03,2.13221e-04,-1.49014e-04,-1.71437e-04,2.66321e-05,3.85510e-01,-3.56272e-03,4.37033e-01,-1.63170e-05,-1.49988e-05,-1.00687e-02,-4.20616e-02,-3.53406e-05,-6.62457e-05,-3.58753e-01,-8.13409e-04,5.57387e-05,2.75616e-03,4.42597e-07,-9.13845e-04,5.00393e-03,2.76684e-04,1.05370e-04,1.70890e-04,-2.65885e-03,2.16523e-04,1.24642e-04,5.87479e-05,1.17574e-04,-1.32821e-04,
-2.20967e-04,-2.36463e-06,-5.61275e-03,2.88024e-04,-2.24924e-05,-5.91662e-05,-1.31644e-04,3.05686e-02,-4.43121e-03,4.46816e-02,-6.71924e-06,1.17633e-04,-3.37465e-03,-3.31000e-02,4.07022e-05,-8.58460e-06,8.35404e-03,2.25705e-02,5.35264e-05,6.65414e-01,-8.18653e-05,6.16094e-02,1.86770e-01,-2.16156e-04,-3.95660e-04,-3.72737e-06,-5.20274e-02,-5.24977e-04,5.67557e-05,2.13337e-04,1.71791e-04,6.30219e-05,
6.22051e-06,1.20673e-04,2.35279e-04,-2.05927e-04,1.48808e-04,3.71322e-05,4.80684e-05,8.36993e-05,-3.17259e-05,4.35603e-05,-2.84951e-06,-1.83959e-04,1.65964e-04,-1.19224e-04,4.76700e-05,-1.23350e-04,1.01991e-05,-6.37290e-05,-3.07142e-05,-1.02593e-04,-8.70941e-05,-2.34589e-05,-2.45940e-04,1.25219e-04,-5.84114e-05,-1.62210e-04,7.45011e-06,1.53078e-04,-6.25737e-05,-3.92900e-05,-7.76971e-05,1.40403e-04,
-3.70990e-05,1.18916e-04,3.31543e-04,3.53694e-04,7.39318e-05,-2.35581e-04,2.72698e-04,8.87688e-03,4.72344e-01,7.51186e-01,4.20725e-05,-1.10151e-04,7.40381e-03,-1.26755e-02,-4.10690e-05,-1.24772e-04,-2.33398e-02,1.23116e-02,-3.00354e-05,2.84796e-03,3.11392e-06,7.66307e-04,3.65585e-03,-8.88350e-05,9.90366e-05,-2.41655e-04,-2.71350e-03,1.02699e-04,-1.12362e-04,4.49014e-05,1.28645e-04,-3.00604e-05,
1.30831e-04,-9.91360e-05,-3.77405e-03,1.75717e-03,-1.62789e-05,9.19591e-05,-1.03790e-04,8.52718e-02,-1.12460e-01,2.38124e-03,-1.07164e-04,-1.35030e-04,5.40358e-01,2.91295e-01,-1.13939e-04,-5.24127e-05,1.60989e-02,4.56720e-01,1.45120e-05,2.88938e-03,1.24246e-05,2.42821e-03,5.97506e-01,-1.51275e-04,4.82499e-05,3.89966e-05,5.87456e-02,2.78582e-05,1.90347e-04,-6.56571e-05,-7.17769e-05,1.35778e-04,
5.05646e-05,2.41249e-04,-5.06669e-05,-5.65483e-04,4.01022e-05,-7.08286e-05,9.02830e-05,6.63431e-01,3.15793e-03,-1.25729e-02,-2.06121e-04,-7.81220e-05,-1.64079e-02,-5.85448e-03,-3.58567e-05,-1.94996e-05,1.27607e-04,7.72212e-04,1.18116e-04,3.76814e-04,-1.62654e-05,2.69135e-03,5.84464e-03,-1.83484e-04,4.09664e-05,-4.05588e-05,-1.28805e-04,-1.71883e-04,8.78063e-05,8.59908e-05,-1.51257e-04,1.22046e-04,
5.51712e-05,7.12341e-05,-9.35368e-05,2.86241e-04,1.39798e-05,-4.17267e-04,-1.74779e-04,-7.59341e-05,-5.98170e-05,8.70081e-05,-2.37572e-06,-3.81266e-05,1.37026e-04,-7.14166e-06,2.89636e-05,-1.29427e-04,1.59370e-04,-1.36181e-04,1.99313e-04,-8.92118e-05,1.44320e-04,6.21499e-06,-4.00682e-04,-1.22487e-04,-1.07282e-04,6.62189e-05,1.00602e-04,-1.73254e-04,-1.26139e-04,1.51491e-04,-6.31583e-05,-1.90548e-04,
-1.86861e-01,
-9.36179e-02,
3.87019e-01,
2.93449e-01,
-1.27637e-02,
-8.89341e-02,
-1.28525e-01,
-5.61770e-01,
4.30299e-02,
-1.50111e-01,
-6.14818e-02,
-2.28922e-03,
1.23191e-01,
-1.30479e-01,
-9.73727e-02,
-1.18223e-02,
4.66152e-01,
-4.81954e-01,
-4.55024e-03,
-1.01053e-02,
-1.79037e-01,
-1.04195e-01,
-6.98864e-01,
-1.17940e-01,
-2.47654e-03,
-3.87447e-02,
-3.88823e-01,
-3.00670e-03,
-6.40564e-02,
-6.20126e-02,
-8.92064e-03,
-3.93487e-02,
-6.82729e-05,1.27233e-04,-1.43880e-04,-1.52136e-04,-1.90845e-04,9.78057e-05,2.85109e-04,2.27880e-04,-3.43159e-05,-5.76752e-05,-1.34451e-04,-5.15080e-05,3.46978e-05,-1.79856e-05,-1.35095e-05,4.53244e-05,8.86563e-05,-1.66621e-04,1.23367e-04,2.14039e-05,-6.12944e-05,-5.94363e-05,-8.33519e-05,-8.49370e-05,-5.17241e-05,8.17392e-05,-6.34907e-05,-4.88978e-05,3.83854e-05,3.89722e-05,-1.13388e-04,1.28968e-04,
-2.68881e-04,5.63108e-05,6.39336e-05,3.03888e-04,-1.25346e-04,7.54256e-06,-1.28143e-04,7.94117e-05,-2.32570e-05,2.54492e-04,-9.66818e-05,-2.44510e-05,-2.03330e-04,2.98386e-04,-1.49776e-05,1.70404e-04,1.14073e-04,-1.57094e-05,6.70272e-05,-2.57567e-05,3.36622e-05,1.24146e-04,8.25868e-05,6.67548e-05,1.13052e-04,6.29189e-05,-2.25867e-04,-1.73300e-04,5.97733e-05,-8.96026e-05,1.60769e-06,-1.76179e-04,
6.94960e-05,-3.75301e-04,4.55019e-05,5.77100e-05,-4.44227e-01,2.58431e-04,1.21582e-04,-3.85119e-04,2.52299e-05,-5.04059e-03,-4.89950e-02,1.86717e-04,-1.09391e-04,-3.14596e-01,-9.26882e-05,-3.33174e-03,-3.11740e-04,9.62838e-05,-1.28123e-04,2.39420e-04,-3.27801e-03,-1.55487e-04,-1.53338e-04,-1.63178e-05,-1.38730e-03,1.54378e-05,-1.23834e-04,5.55828e-05,5.12167e-04,8.15507e-04,7.66005e-04,8.10419e-05,
4.08731e-04,3.45548e-02,1.04797e-04,-2.17331e-05,-1.16560e-03,6.45035e-05,5.94958e-05,1.53891e-04,1.00366e-04,3.89687e-03,1.10941e-01,7.27718e-05,-1.98934e-04,-3.76980e-02,-1.74506e-04,1.69690e-03,1.09732e-04,-1.77657e-04,1.56109e-05,6.84771e-06,8.05172e-01,-5.48354e-03,1.17259e-04,-1.26036e-04,3.54180e-04,-5.93805e-06,-1.37559e-04,-1.71123e-04,7.35351e-05,-9.24724e-02,1.24296e-03,-1.62418e-04,
1.57107e-04,-9.78222e-05,1.86163e-04,-1.92346e-04,1.85120e-04,-5.71611e-05,-4.92398e-04,2.25247e-04,1.59100e-04,8.46824e-05,1.32866e-05,1.50566e-04,2.83843e-05,8.43256e-05,-6.29034e-05,2.25412e-04,2.23473e-06,-4.29548e-04,1.42345e-04,1.89717e-04,-1.79844e-05,1.65266e-04,9.75603e-05,4.55827e-05,8.58118e-05,1.18539e-04,1.27366e-04,-1.15623e-04,-2.08903e-04,-7.02836e-05,-1.16387e-04,4.05126e-05,
-3.33068e-04,-1.44665e-04,-1.31788e-04,-1.77127e-04,-2.00799e-04,-3.60330e-05,6.50284e-05,-1.80433e-04,1.07123e-04,5.57649e-05,7.74088e-05,8.74687e-06,3.31636e-05,1.28520e-04,-3.65893e-05,6.50284e-05,-1.75575e-04,1.57042e-04,1.42887e-04,5.60724e-05,3.44852e-05,-2.12875e-04,2.35245e-04,-3.13520e-04,-5.11021e-05,6.31270e-06,5.70613e-05,-2.02471e-05,1.26975e-04,-5.57088e-05,2.61934e-10,3.84385e-04,
-6.34002e-05,-5.04425e-05,-3.03923e-04,1.03904e-05,-1.63819e-04,2.76807e-04,-2.19947e-04,2.36521e-04,1.70420e-04,-9.78840e-05,-9.38677e-05,-1.03633e-04,6.16164e-05,9.17142e-05,-6.08581e-05,-9.05203e-05,1.25012e-04,1.52883e-04,-2.07283e-04,-8.27080e-05,1.56867e-04,-6.00507e-06,9.70906e-05,1.36320e-04,8.44479e-05,2.70095e-05,1.28128e-04,-2.00405e-04,2.75154e-04,-7.50401e-05,3.59265e-06,-1.59512e-04,
-1.09922e-04,7.95030e-01,-4.85916e-05,1.67824e-04,-1.88338e-01,-3.56630e-05,1.44557e-04,-5.98021e-05,-1.62385e-04,3.02472e-03,9.43671e-03,6.84753e-05,-1.41872e-04,-3.79951e-03,5.27305e-05,-6.08230e-05,-1.67030e-04,-1.81737e-04,-5.84210e-05,-1.05577e-04,-1.00325e-03,4.44876e-03,-2.68387e-05,9.51357e-05,5.49416e-03,-2.46094e-06,1.08358e-04,-9.31353e-05,7.56251e-05,2.50818e-01,-2.61403e-02,8.87797e-05,
2.88118e-04,6.87907e-03,3.04647e-04,5.97891e-05,-4.28680e-03,-6.07253e-06,-1.22836e-04,3.61624e-04,-3.29613e-04,2.97329e-01,4.14670e-01,2.14950e-05,-5.92325e-05,1.60321e-01,-4.13986e-05,-2.35746e-03,-8.29762e-05,-5.35693e-05,-1.69894e-05,8.53479e-05,4.68291e-03,-3.43357e-03,-2.24973e-06,-3.25168e-04,1.17630e-03,-2.35594e-05,1.25032e-04,-6.05974e-05,4.55192e-04,2.73567e-01,-2.06468e-01,1.91641e-04,
-2.78199e-05,7.10868e-01,-1.08918e-04,-7.20847e-05,-2.10689e-01,-2.23010e-04,2.81716e-04,-8.37883e-05,-1.51007e-05,2.58033e-01,9.00740e-02,1.72231e-04,-3.39578e-04,-2.28338e-02,-4.12242e-05,1.12540e-01,-7.59651e-05,-1.84248e-04,2.59783e-05,1.82109e-04,6.74111e-04,-7.32100e-02,-4.86744e-05,-6.40371e-05,2.83353e-03,-1.07180e-05,-9.94639e-05,1.52445e-04,-1.74154e-04,1.31902e-01,-5.75576e-02,6.68210e-05,
-1.55605e-04,6.53045e-05,-1.07645e-04,-8.91194e-06,-1.67652e-05,1.03788e-04,-1.14103e-05,-8.27859e-05,1.26628e-04,-1.33913e-04,-6.52349e-05,-1.08175e-04,1.08970e-04,-1.11285e-04,5.64991e-05,-1.69312e-04,-9.46615e-05,1.03996e-04,-2.09763e-04,1.03506e-04,-1.16907e-05,9.69511e-06,-4.07193e-05,2.53594e-04,-4.82781e-05,-1.94015e-04,-1.30652e-04,8.16034e-05,6.17079e-05,-9.38140e-05,1.67414e-04,-5.57308e-05,
-3.24274e-04,1.15863e-04,3.10047e-05,1.61924e-04,1.29574e-04,-1.30691e-06,6.06150e-05,9.18113e-05,2.06031e-04,2.89265e-04,1.80084e-04,-4.94395e-05,-2.51657e-04,-3.02657e-04,-1.43234e-06,7.49851e-05,-1.48807e-04,-6.05813e-05,-1.59952e-04,1.04132e-04,2.39066e-04,-1.67813e-05,5.87046e-05,-1.36215e-05,-5.16159e-05,-2.64069e-05,1.54886e-04,-5.09841e-05,-2.09324e-04,1.34574e-04,5.36368e-05,-3.34203e-04,
-2.22350e-04,4.22716e-02,6.65128e-05,1.20123e-04,-2.73465e-01,1.72846e-05,2.73173e-04,-3.06092e-05,-1.63442e-04,4.81113e-02,1.49733e-02,-8.19939e-05,-7.35096e-05,5.54260e-01,-1.29904e-04,2.35155e-01,-1.56453e-04,4.02974e-06,1.73237e-04,1.20050e-04,-5.88626e-04,-2.23063e-01,2.45188e-04,4.25159e-04,4.75833e-03,-9.42370e-06,1.30512e-04,-1.41942e-05,1.98087e-04,-2.42746e-03,-1.93216e-02,1.47803e-05,
1.50343e-04,8.89758e-02,-7.35962e-05,-1.01687e-04,1.98760e-03,-5.77508e-05,-1.07416e-04,1.65521e-05,9.18202e-05,7.43169e-04,4.31107e-01,1.02600e-04,-5.81170e-05,6.48474e-03,-1.23574e-04,-6.70281e-03,-2.72043e-05,6.71326e-05,3.70770e-05,4.70449e-05,-1.53857e-03,-4.57939e-01,-8.75548e-05,-3.88085e-05,-3.40732e-04,-7.78786e-06,-5.11524e-06,-3.84534e-09,-2.20996e-04,2.07205e-01,5.53179e-02,-4.05312e-05,
1.34135e-04,2.51551e-04,-2.48738e-04,-1.76197e-04,-6.20604e-04,1.27895e-04,-7.28164e-05,-2.04677e-05,-1.17465e-04,-1.47223e-04,-1.95485e-04,2.66307e-04,2.26964e-04,-1.42969e-04,7.93682e-05,1.21378e-04,2.66561e-05,2.90009e-06,1.94957e-04,1.26830e-05,-4.55185e-05,1.29523e-04,3.40983e-05,1.26449e-04,-5.48621e-05,-5.29453e-05,3.69525e-04,2.84375e-04,4.36645e-05,2.49666e-05,5.64773e-05,1.99623e-06,
5.13175e-05,-1.14438e-04,-2.82959e-04,2.24083e-04,8.70654e-05,-2.18014e-04,3.08360e-06,-3.96751e-06,-2.28719e-04,-2.37488e-05,1.60419e-04,-1.23368e-04,1.66290e-04,8.79310e-06,2.44507e-04,8.18613e-05,-1.41369e-04,-1.03744e-04,-8.56955e-05,-5.41276e-05,-1.33132e-04,6.16700e-05,-9.85474e-05,-3.50253e-05,2.92688e-05,1.01517e-04,1.36621e-07,1.84123e-04,-1.20403e-04,2.84741e-04,1.21780e-04,-1.14780e-06,
-1.37367e-04,1.12853e-02,4.13189e-05,1.32044e-04,-6.22529e-01,1.02909e-04,2.12246e-04,9.73581e-05,-1.92561e-04,6.79085e-02,-3.19066e-01,-6.06822e-05,1.45777e-04,2.35747e-03,5.74064e-05,5.01581e-02,-4.53533e-05,2.94279e-04,8.75329e-06,6.71026e-05,-1.32505e-03,-1.46751e-01,-4.17734e-05,1.25153e-04,-2.52144e-03,-5.14812e-07,-8.16003e-06,1.38721e-04,2.89672e-04,1.21345e-02,-1.73918e-02,8.53518e-05,
-3.12783e-05,7.19717e-01,-1.79495e-04,-9.34193e-05,-2.38916e-01,-1.80753e-04,1.20601e-04,-6.71927e-05,-6.27448e-05,1.92857e-03,9.32279e-04,-5.85599e-05,-1.93621e-04,-5.68555e-03,7.64669e-05,9.49399e-03,-2.32675e-05,-3.85534e-05,-7.11232e-05,1.39161e-04,4.09951e-04,-1.05612e-01,-1.40032e-05,-8.82334e-05,2.23824e-03,-1.64691e-05,-4.45596e-04,1.48809e-04,-2.93298e-05,1.01861e-01,1.21044e-01,2.01262e-04,
4.26184e-05,-2.70657e-05,-6.64040e-07,1.59490e-05,-8.14886e-05,1.15408e-04,1.78913e-04,8.06726e-05,4.19787e-05,7.60925e-05,-4.04790e-05,4.68416e-05,-8.79080e-05,1.02206e-05,9.80693e-05,-2.26778e-05,-3.36976e-04,-1.48051e-04,-1.68597e-05,1.33578e-04,2.40174e-04,-7.14513e-05,-1.12119e-05,-3.06932e-05,-2.09899e-05,1.96741e-04,5.16437e-05,2.60167e-05,-1.35009e-04,1.46249e-04,2.29285e-05,-2.42768e-04,
1.17600e-04,3.16190e-03,3.23495e-05,-2.30341e-04,8.09685e-04,1.16693e-04,-2.08446e-04,1.90791e-04,7.75473e-05,-2.30920e-03,1.56509e-03,9.59583e-05,-1.28390e-04,-1.82163e-02,8.88659e-05,-5.44235e-02,-4.77188e-05,-1.16134e-04,3.00577e-05,5.07965e-05,5.14955e-05,-1.27267e-02,6.10660e-05,-3.09952e-04,7.44858e-01,1.86893e-05,-8.17208e-05,2.03949e-04,-5.15065e-06,-5.35020e-02,3.67101e-03,-7.17497e-05,
2.57619e-04,1.90046e-04,1.61016e-04,-2.07296e-04,5.60034e-05,-1.47226e-04,-3.83990e-05,-7.91107e-05,-8.54996e-05,-1.38721e-04,-6.82011e-05,-1.29991e-04,-9.59049e-05,3.85132e-05,-1.68445e-04,8.71567e-05,1.56631e-04,-5.82740e-05,-4.36099e-05,1.03667e-04,1.45151e-04,6.00552e-06,-1.04794e-04,1.64324e-05,-8.66582e-05,-1.57933e-04,-2.26733e-04,2.36597e-04,-3.42133e-04,-2.72423e-04,-1.43092e-04,1.37305e-04,
9.52188e-05,2.85544e-01,-1.23830e-04,5.22555e-05,4.83243e-04,1.01961e-05,1.69488e-04,-4.43153e-04,-6.35520e-05,-4.59882e-03,2.74373e-01,-2.14112e-06,1.22775e-04,-9.78035e-02,3.25362e-04,-4.03698e-01,1.32518e-04,-7.89820e-05,-2.35426e-04,2.73020e-05,-3.55905e-04,8.70688e-02,-1.02689e-05,-2.43625e-04,-8.17056e-04,-6.72648e-05,1.89027e-04,-1.42334e-04,-3.32197e-04,4.08144e-03,3.92521e-04,1.23870e-04,
-2.81491e-05,1.55898e-01,-1.22827e-04,1.12811e-04,-9.08274e-03,-6.30292e-05,3.36799e-05,-4.65612e-05,-1.62508e-04,5.14417e-01,6.27550e-03,8.50636e-05,-1.37771e-04,2.12267e-03,-5.40846e-05,1.01707e-02,-2.51488e-04,1.28585e-04,1.70319e-05,1.82301e-04,-1.38698e-03,7.84111e-01,5.31357e-05,6.69802e-05,-6.50052e-03,-1.46791e-05,5.74705e-05,1.33421e-04,-5.61923e-05,5.88362e-02,-1.82938e-02,-1.29807e-04,
3.54181e-04,3.59416e-05,-3.98129e-05,-2.37739e-04,-2.70527e-05,-1.00822e-04,2.01972e-04,-4.38530e-04,6.51032e-05,1.23145e-04,9.18767e-05,4.17127e-05,1.57349e-04,6.89687e-05,-3.80832e-05,-9.33748e-05,7.54541e-05,8.89622e-05,-1.07133e-04,-1.10454e-04,2.70694e-04,-1.11343e-04,4.65431e-05,-6.03945e-04,1.77566e-04,-9.15774e-07,-2.38240e-04,-1.49429e-04,4.17301e-05,1.12723e-04,8.57357e-05,-1.48477e-04,
9.74890e-05,1.75252e-04,4.14016e-05,4.01607e-06,7.17628e-05,1.10284e-04,-3.59717e-04,1.82458e-04,-1.06353e-04,-1.28827e-05,1.26598e-05,9.05790e-05,4.03763e-05,-6.37826e-05,4.52452e-05,-2.54321e-04,-9.24740e-05,-1.55122e-04,7.46958e-05,-1.44534e-04,-1.48897e-04,-9.82329e-05,-5.45586e-05,1.94968e-04,-2.77883e-04,-1.74177e-04,-3.19048e-05,5.77237e-06,-4.37270e-04,1.35088e-04,-1.33420e-04,1.14792e-04,
8.34257e-06,-8.61671e-06,2.03653e-05,-2.68692e-04,-1.37063e-04,-4.30714e-05,2.10891e-04,-7.03973e-05,-7.71516e-05,-2.20317e-04,-1.57424e-04,1.94743e-04,-3.03197e-04,1.81304e-04,-1.78597e-05,1.06562e-04,1.36554e-04,-8.78934e-05,-2.21130e-04,4.22630e-05,1.74416e-04,1.48593e-05,1.62171e-05,-7.65602e-06,-5.81987e-05,3.46162e-05,-1.67018e-04,-5.15712e-05,1.81911e-04,9.24642e-05,-1.15892e-04,1.49919e-04,
-2.86828e-04,3.04283e-01,8.24495e-05,5.67183e-05,3.08514e-05,7.14144e-05,-2.58919e-04,1.17050e-04,1.41143e-04,-2.28868e-02,2.40006e-01,1.22394e-04,9.37961e-05,-2.12695e-01,-1.41455e-04,-7.20048e-03,4.79501e-05,-9.70562e-05,1.87745e-04,-2.05255e-04,3.54214e-04,-1.86025e-01,4.54584e-05,4.27616e-05,-1.40614e-03,9.35351e-06,-1.39633e-05,-1.80795e-04,1.29582e-04,6.24122e-04,-2.76679e-02,3.53326e-05,
1.23897e-04,1.55834e-05,1.39683e-04,1.42088e-05,1.10966e-04,-1.41785e-04,2.20919e-04,-3.21698e-04,-8.56241e-05,-1.43881e-04,2.68788e-04,-8.56022e-05,-6.03277e-05,1.70055e-05,-1.72474e-04,-1.38559e-04,2.21429e-05,5.26747e-05,-2.40554e-04,-1.10090e-04,4.90488e-05,-2.05117e-05,1.29907e-05,4.96322e-05,-5.81504e-05,8.07730e-05,1.26309e-04,-1.62857e-04,-7.66722e-05,4.92296e-05,-1.81513e-04,2.19858e-04,
-1.86297e-04,-3.16017e-04,9.60246e-05,6.86637e-06,-1.56305e-04,8.77838e-05,-9.34417e-05,7.84265e-05,-8.46692e-05,1.62682e-05,3.53937e-05,-9.68909e-06,1.18385e-04,-2.37649e-04,7.61077e-05,-2.06814e-05,1.26246e-04,-4.91846e-05,-2.08554e-04,5.66820e-05,1.69193e-04,-2.74722e-06,1.65172e-04,-1.05224e-04,3.07382e-05,1.18204e-04,3.30355e-05,5.08346e-05,-1.48399e-04,-9.44920e-05,-3.24722e-05,-4.78583e-05,
-5.62558e-06,-2.60827e-05,-1.24824e-04,3.95473e-05,-4.40716e-05,2.10548e-07,-1.90096e-04,1.59752e-05,-1.17909e-04,3.34918e-05,5.26685e-05,1.07801e-05,4.28402e-05,-5.75843e-05,1.08368e-04,-2.73794e-04,-6.00940e-05,-7.50279e-05,-6.32558e-05,1.86244e-04,-1.36995e-04,1.29735e-04,6.04610e-05,9.92098e-05,-1.52660e-04,-4.50670e-05,9.30173e-05,1.79713e-04,1.16913e-04,-6.98916e-05,1.40029e-05,2.24239e-04,
-9.10900e-05,1.67540e-04,-1.40984e-05,3.89624e-04,1.38266e-04,2.29236e-04,6.59517e-06,3.03465e-05,4.01454e-04,-3.69507e-05,8.09400e-05,-1.29520e-05,1.16722e-04,2.86512e-04,-1.83814e-04,1.71513e-04,-1.79545e-05,5.74387e-05,1.09688e-04,1.46808e-04,5.19802e-05,2.85714e-04,7.01438e-05,-5.90990e-05,-1.40338e-04,4.30685e-05,1.13215e-04,-1.32744e-04,-9.59049e-05,3.84552e-05,-2.06211e-05,1.92567e-04,
9.63495e-06,-2.51926e-04,-7.08833e-06,-3.16172e-05,7.84635e-05,-1.20933e-04,1.60349e-04,-2.03942e-04,-1.02492e-04,-1.01293e-04,-2.92816e-05,4.84109e-05,9.93892e-05,1.12393e-04,-1.38680e-05,-8.20432e-05,-5.28262e-05,-6.25263e-05,-3.82370e-05,-1.91998e-04,3.06522e-05,-3.27541e-04,-1.46162e-06,1.29666e-04,-2.35279e-04,5.55790e-05,-2.93416e-04,-8.54073e-05,9.30814e-05,1.07386e-04,2.84481e-04,2.80346e-04,
-1.22813e-01,
-4.95370e-01,
-1.20315e-01,
-1.06155e-01,
2.75953e-01,
-3.97295e-02,
-1.69235e-01,
-1.21557e-01,
-9.87867e-03,
-2.79653e-01,
-5.94996e-02,
-2.77753e-02,
-4.74663e-02,
1.07593e-01,
-3.63035e-03,
8.70697e-02,
-6.29358e-02,
-1.95460e-03,
-1.05194e-01,
-2.12689e-02,
-1.69518e-03,
2.11886e-01,
-1.53044e-02,
-1.76519e-01,
-7.18949e-03,
-6.33204e-04,
-1.51124e-01,
-6.41285e-02,
-1.64212e-01,
-2.10338e-01,
1.00335e-01,
-1.40075e-03,
-3.95221e-05,1.33792e-04,-5.99910e-05,1.19940e-04,-1.42211e-05,7.82083e-05,1.66071e-05,-2.02475e-04,-1.25327e-05,-7.43335e-05,-6.52320e-05,-4.82481e-05,5.92077e-07,1.91090e-04,-1.06244e-04,-1.49072e-04,-5.51813e-05,-5.46711e-05,2.25443e-04,1.56770e-04,1.15919e-04,1.04088e-05,-3.62397e-05,-1.64209e-05,1.16449e-05,1.68974e-04,-3.33068e-04,-6.82033e-06,-1.12496e-04,-5.20292e-04,-5.86652e-05,2.88630e-04,
-9.35167e-05,-1.99431e-01,-5.07959e-01,1.01970e-04,-1.43342e-04,-1.34125e-05,-3.44518e-01,-3.68307e-05,1.77468e-04,-3.03994e-05,-1.86721e-04,-6.24922e-01,-1.81057e-04,-1.22853e-05,-1.24353e-04,1.69360e-04,-1.78043e-04,1.98700e-05,1.89739e-04,-1.03796e-04,3.10496e-04,-3.24302e-05,-5.82710e-01,-5.42490e-05,2.68765e-04,-5.07294e-01,4.34822e-05,-1.18260e-05,-2.23597e-05,3.97534e-06,-4.49203e-05,-6.13994e-05,
-1.36387e-04,-2.46501e-06,1.74075e-04,-2.78417e-04,1.58387e-05,-9.94589e-05,9.30950e-05,3.84467e-06,1.08613e-04,1.26180e-04,3.29112e-04,-1.47126e-04,-2.39038e-05,-2.92533e-05,7.17067e-05,4.49716e-04,6.98414e-05,-1.35632e-05,8.79896e-07,1.08492e-04,-1.14982e-04,2.51887e-04,-1.73410e-04,-1.00174e-04,-1.09249e-04,-7.98101e-05,-1.44900e-04,1.35696e-04,-1.30210e-05,2.40582e-04,1.70313e-06,-3.65093e-05,
-6.36680e-05,-2.01425e-04,-1.27192e-04,3.61353e-06,-1.62938e-04,-1.02773e-04,4.77026e-05,6.17454e-05,-6.07108e-05,1.13437e-04,2.19558e-05,2.60820e-04,-4.15466e-05,7.11788e-05,1.67064e-04,-9.21814e-05,-6.27327e-04,1.00465e-04,1.35155e-04,-1.27726e-04,-1.24932e-05,1.63017e-04,1.25225e-04,1.40225e-04,-2.41953e-04,1.17616e-04,-4.82952e-05,1.17440e-04,-2.27470e-04,-1.09466e-04,-5.91656e-05,2.06085e-04,
1.03318e-04,2.13948e-03,-6.03975e-01,1.49371e-04,-1.74058e-05,-1.56455e-04,1.18363e-03,-3.30602e-04,3.59371e-05,-4.85753e-05,1.70234e-04,1.56727e-02,-1.17467e-04,7.36840e-05,-8.29971e-05,7.49071e-05,-8.42485e-05,-7.60170e-05,-1.72371e-04,1.30658e-05,-1.37440e-04,1.27083e-04,3.72900e-03,-6.56886e-05,4.47277e-02,5.82332e-01,1.89810e-04,3.72482e-05,9.60823e-05,-1.03557e-04,-6.64359e-03,-1.31096e-06,
-6.79987e-06,-3.41563e-05,-1.30525e-05,5.92032e-05,1.64358e-04,8.50669e-05,-6.80872e-05,2.32932e-04,1.16328e-04,9.10031e-05,4.80696e-04,1.68614e-05,2.39913e-05,-2.56631e-04,-6.35462e-05,6.13242e-05,4.08566e-05,2.33946e-05,-1.12833e-04,1.55398e-04,7.82544e-05,-4.86652e-07,-4.24666e-04,4.01763e-05,-3.08004e-04,-1.15814e-04,4.04524e-05,7.11710e-05,-2.41975e-04,2.90672e-04,1.68492e-04,-6.55407e-05,
1.86503e-04,-3.42045e-04,-8.26975e-05,-1.30595e-04,-1.24728e-05,-4.02906e-10,9.19339e-05,-5.67673e-06,1.54070e-04,-2.24359e-04,-4.35847e-05,-2.02540e-04,6.21569e-05,-8.33432e-05,6.58972e-05,-1.58426e-04,-1.01925e-04,-1.73426e-04,1.75707e-04,3.58064e-04,2.19293e-04,-4.47084e-04,1.00207e-04,1.52314e-04,-2.35412e-04,-4.20546e-05,-5.81832e-05,4.11551e-05,1.24751e-04,-2.37145e-04,2.72719e-04,6.08119e-05,
1.57901e-04,-1.54466e-04,-1.22962e-05,-2.30005e-04,-3.08016e-04,-1.56310e-05,6.57872e-05,-1.84709e-05,1.55343e-04,-2.56214e-05,9.48885e-05,1.05260e-04,1.07069e-04,9.06423e-05,2.66190e-05,-1.02071e-04,1.31115e-04,-1.95477e-04,6.40160e-06,4.24476e-05,-1.86111e-04,-1.16117e-04,8.21183e-05,-2.25601e-05,3.38594e-04,1.23844e-05,-2.10526e-04,1.53575e-05,-1.51281e-04,-7.79426e-05,-7.43573e-05,-2.71932e-04,
2.99509e-05,-1.67090e-04,-7.67556e-05,-2.99644e-04,-1.96502e-04,-5.51758e-05,-5.32804e-05,1.60275e-04,1.15321e-04,-5.20246e-05,7.89868e-05,1.70395e-04,-2.89420e-05,3.64148e-05,1.68097e-04,-1.53817e-04,-1.18684e-04,-4.76960e-05,4.23746e-04,-1.24515e-04,3.64777e-05,7.25703e-05,5.12104e-05,6.65795e-05,-4.70196e-05,-1.08804e-04,6.78395e-05,-1.79217e-04,-1.19582e-04,-1.21586e-04,4.65204e-05,-3.98330e-05,
1.47462e-04,-1.57914e-01,-2.31638e-01,7.07356e-05,-7.47612e-05,-6.01686e-05,9.61888e-03,-4.42575e-05,1.58250e-04,9.13233e-05,-2.48434e-04,-3.97430e-03,-1.23874e-04,-1.21143e-04,7.75640e-05,-5.72857e-06,1.60427e-04,-1.34000e-04,-2.40158e-04,-1.52242e-04,9.49720e-05,-1.64983e-04,-3.99079e-01,4.75449e-06,-6.69649e-04,-1.41123e-01,-4.09306e-05,1.02707e-05,-6.25146e-05,2.30030e-06,-5.60128e-03,1.13766e-04,
2.06157e-04,-5.23760e-02,-3.69720e-01,2.13677e-04,7.95561e-05,1.39492e-04,-8.44174e-01,-3.48571e-05,6.70659e-05,-2.18802e-04,1.00343e-04,-1.30814e-01,1.82947e-04,5.41109e-05,-1.18691e-04,-1.41007e-04,-2.23144e-05,9.62914e-05,6.46797e-05,6.06977e-05,1.36311e-04,7.23847e-06,-2.97600e-02,-2.56636e-04,1.25095e-02,1.90754e-02,2.44388e-04,-5.64546e-05,-6.23456e-05,3.46924e-05,-4.02781e-04,2.86727e-04,
7.74153e-05,7.06796e-05,9.53587e-05,-1.43262e-04,-6.28335e-05,-6.74853e-05,-8.02771e-05,-5.36661e-05,2.64393e-05,-1.40022e-04,1.35804e-04,-1.68843e-04,-6.67597e-05,-1.56024e-06,-6.10414e-05,-4.07412e-05,-1.16087e-04,2.07282e-05,-1.18536e-04,1.12336e-04,-1.96592e-04,-3.11753e-04,-1.10626e-04,-2.62905e-05,-1.24162e-04,1.28859e-04,1.14303e-05,7.55692e-05,-1.83779e-04,-2.56851e-04,-1.43385e-04,1.01875e-04,
2.00928e-04,2.64189e-05,-4.55719e-05,1.28835e-04,2.21610e-04,1.98468e-05,5.86464e-05,-3.42593e-04,1.54105e-04,5.28598e-08,1.79557e-05,-4.30747e-05,1.28708e-04,-7.20790e-05,5.81356e-05,8.12733e-05,1.42763e-04,-5.83636e-05,-2.24246e-04,-4.24275e-06,-1.41340e-04,6.16035e-05,2.86590e-05,1.01156e-04,2.56518e-04,-1.74184e-04,6.89505e-05,-9.75309e-06,1.37751e-04,-1.26577e-04,-5.56083e-05,2.04434e-04,
-6.70520e-07,-1.02786e-03,-2.58554e-02,1.53072e-04,-8.00309e-05,-1.50965e-05,-1.67120e-03,-2.00639e-04,-2.83361e-05,9.39911e-05,2.29434e-04,-7.13270e-01,1.80324e-04,-8.47651e-06,-7.26138e-05,-1.16471e-04,-9.43487e-05,2.29330e-04,1.44288e-04,2.44673e-04,2.94993e-05,-1.79217e-04,2.37092e-01,-1.19386e-04,1.20686e-04,4.97743e-02,1.79728e-05,-3.82648e-05,-3.81258e-05,-4.57330e-06,6.49973e-03,-9.26459e-06,
6.55072e-05,2.36985e-05,1.32261e-04,-7.14182e-05,-1.24366e-04,7.41161e-05,1.58036e-04,-8.93210e-05,-2.62869e-04,-3.90157e-05,5.08719e-05,1.39730e-04,5.40921e-05,3.12352e-05,4.79494e-05,9.96961e-05,4.78636e-05,-1.79473e-04,-8.44909e-06,6.33020e-05,-7.60314e-05,-4.33258e-05,8.11499e-05,-3.73886e-05,-2.29110e-05,1.57369e-04,-1.07489e-05,-2.32438e-04,-2.10053e-05,-1.82380e-04,-1.79285e-04,-9.98233e-05,
-3.79968e-05,5.21100e-03,-1.14343e-02,1.08372e-04,-2.00471e-04,-8.75774e-05,-1.19627e-02,1.94990e-05,-2.84358e-05,-6.21170e-07,2.15681e-04,-2.65106e-01,7.54589e-05,-2.50642e-06,4.98553e-05,1.24972e-04,-2.10858e-04,-6.12319e-05,-2.49974e-04,-1.45767e-04,1.47397e-04,-1.32359e-04,4.45620e-03,1.21447e-04,-3.83937e-03,-3.53133e-01,4.41250e-04,6.43044e-05,-2.76883e-04,8.20212e-05,1.05501e-03,1.85552e-04,
-2.36506e-04,1.68143e-04,-1.01619e-04,-2.81256e-05,7.08790e-05,-1.28664e-04,-3.49222e-04,1.86212e-04,9.89408e-05,-1.18823e-04,1.83441e-04,5.76130e-05,1.34628e-04,-8.11269e-10,2.17558e-05,2.03158e-05,8.97978e-05,-1.54046e-04,2.06019e-05,-1.19191e-04,2.76733e-05,-7.64131e-06,-1.66321e-04,7.54612e-05,6.26784e-05,2.26087e-05,9.86077e-05,-3.62644e-05,-5.20486e-05,1.45790e-04,-1.20681e-04,1.29729e-04,
-2.61163e-04,1.36693e-04,-6.21413e-05,6.32326e-05,-7.32125e-05,-4.46912e-05,4.04539e-05,-1.11532e-06,1.81329e-04,-1.99572e-07,-1.63247e-06,-3.97788e-05,-4.95062e-05,2.03560e-04,-1.25642e-04,-5.97732e-05,1.86685e-04,1.77233e-04,8.10800e-05,1.18901e-04,-1.72443e-04,2.64998e-05,-1.41250e-04,2.66670e-05,-1.01765e-04,1.12394e-05,4.61583e-05,1.92848e-04,4.90688e-05,-1.01906e-05,1.99636e-04,5.63542e-05,
1.73676e-04,2.42981e-04,6.35210e-05,1.51965e-04,1.99327e-04,-1.21169e-04,1.05375e-05,1.32891e-04,2.57225e-05,-8.40512e-05,1.53840e-04,-5.86591e-06,-1.03381e-04,-1.84322e-04,-7.45416e-05,-1.75477e-04,1.96391e-06,-1.13845e-04,2.79153e-05,1.26150e-04,-2.32971e-04,-4.02370e-06,5.97475e-05,-1.14768e-04,6.81998e-05,-1.29902e-04,8.40208e-05,1.66994e-04,-1.02737e-04,-2.91983e-04,-4.41737e-05,-4.35250e-04,
6.56028e-05,9.61203e-05,-5.66028e-05,-5.08893e-05,-3.14753e-05,1.01112e-04,-1.34746e-04,-1.15564e-04,-9.86724e-05,-2.53008e-04,-4.97730e-05,-8.58075e-05,1.00566e-04,-2.24600e-05,-1.50514e-04,1.63007e-04,1.21807e-05,3.14742e-06,9.31669e-05,-1.33470e-05,-7.87077e-05,8.27479e-06,1.72992e-04,-2.47534e-05,-2.47614e-04,-5.39839e-05,8.62028e-05,6.43623e-05,-6.91221e-05,-4.73958e-05,2.83834e-05,1.62238e-05,
-1.05129e-04,2.74135e-03,5.69946e-02,-2.72788e-05,-5.06372e-05,-9.82802e-05,7.64774e-02,2.70084e-04,4.41664e-05,6.11695e-05,7.09462e-05,2.60156e-03,-1.18802e-06,-7.95929e-05,2.46557e-05,7.93316e-05,1.99226e-04,-6.84609e-05,1.08139e-04,-4.18688e-05,1.37836e-04,-1.06116e-04,-7.24650e-03,-1.11685e-04,6.22176e-01,2.61392e-03,-3.65291e-05,-4.94538e-05,-9.31051e-05,7.22707e-05,-8.78140e-04,-4.95097e-04,
9.81101e-06,2.98285e-02,-5.69747e-03,3.39431e-04,-9.32281e-05,-1.18927e-04,-3.89339e-02,1.61467e-04,2.19640e-04,-9.60724e-05,-6.10245e-05,4.85062e-01,1.20444e-04,-3.73622e-06,1.30804e-05,5.23551e-05,-1.52894e-04,-1.33396e-04,1.61817e-04,6.91216e-11,-4.60543e-05,-3.28222e-05,-5.55858e-01,-5.36537e-06,-1.16492e-03,1.90423e-03,-2.70058e-04,-8.48583e-05,7.68685e-06,-1.65113e-04,-2.33880e-03,-1.75344e-05,
3.66644e-05,6.52689e-05,1.27702e-04,-2.49230e-05,4.17166e-05,4.32074e-05,-1.10255e-04,-1.32236e-04,-2.09220e-05,-1.26267e-04,6.42493e-06,-4.33363e-05,1.08907e-04,2.22273e-04,1.76412e-05,-5.51185e-05,5.80233e-05,-1.07865e-04,-1.17370e-04,-1.20743e-04,8.83985e-05,9.68446e-05,1.57304e-04,-4.08020e-05,-6.59065e-05,1.43985e-04,8.08443e-05,3.29178e-05,1.64157e-04,-1.05958e-04,2.18743e-04,-1.61642e-04,
2.52502e-04,2.21519e-05,-3.62143e-04,-1.27161e-04,-2.57017e-05,-9.04148e-05,9.90673e-05,-1.28902e-04,-4.07481e-05,-2.11197e-06,-1.33098e-04,-8.23067e-06,-6.09803e-04,2.72211e-04,-9.58149e-05,-1.63591e-04,-2.34756e-04,-1.07003e-04,-2.39715e-04,5.71840e-05,2.14725e-04,1.34300e-04,-2.39236e-04,-2.00253e-04,-1.70229e-04,-6.44665e-05,-1.18101e-04,6.11944e-05,-7.07356e-05,-1.52045e-05,4.68564e-05,5.92614e-05,
3.25469e-05,6.37107e-03,-6.34545e-04,3.18472e-04,1.80187e-04,1.28160e-04,3.34334e-03,-7.14352e-05,-1.53155e-04,4.45577e-05,1.23674e-05,2.78908e-03,1.45409e-04,-1.07988e-04,1.01742e-04,1.49218e-04,-1.13324e-04,-1.85896e-04,1.21188e-04,2.27499e-04,-7.61908e-05,-5.15753e-05,7.22118e-02,-4.48947e-05,-5.01037e-04,-1.63781e-02,1.95433e-04,-5.15177e-05,-1.75619e-04,-2.47895e-04,6.19292e-01,8.73264e-06,
-9.41402e-05,1.73927e-05,1.08606e-05,-1.04078e-04,7.35054e-05,-9.26228e-05,4.98553e-06,-1.54047e-04,1.44864e-04,9.98978e-05,-9.93809e-05,1.53145e-05,-1.29224e-04,-2.07764e-04,-2.35597e-04,-7.97426e-06,1.45390e-04,-1.12244e-04,1.77507e-04,-1.79155e-04,-1.06145e-04,1.98077e-04,-6.84364e-06,-1.78605e-04,3.99894e-05,-2.58891e-06,-1.96528e-05,4.36127e-04,3.99152e-05,-1.55897e-04,2.11005e-06,-2.51965e-04,
-1.49651e-06,-9.42115e-05,1.70498e-05,-1.32017e-05,-3.55069e-05,-1.63859e-04,-1.52114e-04,1.66297e-04,-2.65027e-04,-1.90941e-04,-2.12677e-04,1.95616e-04,8.97070e-05,3.32437e-05,-2.02826e-04,-1.44928e-04,5.65103e-05,1.86276e-04,-7.80678e-05,-5.52183e-05,2.43248e-05,1.85233e-04,-1.24953e-04,2.42075e-04,-1.40773e-04,1.51122e-04,-1.16403e-04,1.09226e-04,-2.35280e-04,1.22195e-04,-9.58808e-06,-1.92951e-04,
8.19060e-05,3.57777e-05,3.29616e-04,-7.36145e-05,-9.39933e-05,9.46552e-05,-6.59099e-05,7.52039e-05,6.87638e-05,-8.75946e-05,-1.20631e-04,1.80220e-04,3.82514e-05,-2.46611e-04,2.52981e-05,-4.28337e-05,1.29568e-04,-9.84489e-05,3.77024e-05,-1.10309e-04,-1.32523e-04,-6.51042e-05,-1.05094e-04,-1.60648e-04,1.00108e-04,1.26627e-04,3.22861e-05,5.53040e-05,1.40296e-04,-1.57287e-04,1.26128e-04,1.40680e-04,
2.76256e-04,-1.12926e-05,-3.45352e-04,1.17673e-04,4.32185e-04,1.00052e-04,-1.85618e-04,-8.68541e-05,9.99171e-05,1.56471e-04,-1.21666e-04,1.24641e-04,-8.66742e-05,-3.56595e-04,1.27279e-04,-1.37608e-04,6.50609e-05,-2.10473e-04,3.31874e-04,3.55740e-05,4.75680e-04,2.59901e-04,-9.95758e-07,1.44710e-04,1.44352e-05,2.35226e-04,3.85632e-05,-2.77146e-04,1.68821e-04,-3.34354e-05,1.40930e-04,1.74261e-04,
2.94543e-04,-3.60368e-02,-3.41024e-03,-2.64207e-06,5.14216e-05,5.16041e-05,-6.02943e-05,-5.04122e-05,-8.59405e-05,1.49972e-05,-2.04775e-04,5.60863e-03,-1.75310e-04,5.68020e-05,-9.89275e-05,-1.75221e-04,1.81277e-04,-1.16812e-04,-3.30111e-04,3.78412e-05,4.52244e-05,-1.26988e-04,-2.69124e-01,1.91701e-04,-2.56733e-02,-4.12096e-01,-2.91643e-04,-1.82484e-04,-9.17386e-05,-6.91924e-05,-6.82827e-04,2.10544e-04,
-1.42387e-04,-5.38202e-01,2.43750e-02,-1.41291e-04,-8.46973e-05,-2.16634e-04,4.13863e-03,1.09512e-04,8.78365e-05,3.49398e-05,3.29306e-05,-1.61286e-04,-3.37270e-05,1.08002e-04,-5.72317e-05,-1.19796e-04,-1.54912e-04,-6.47875e-05,-8.79352e-05,2.11913e-05,3.20267e-05,6.13048e-05,2.25292e-03,1.57602e-04,2.77698e-04,-7.06560e-03,-2.12078e-05,-3.93970e-05,3.92352e-04,4.59077e-04,-1.26132e-03,-3.37045e-05,
-9.06739e-05,-1.18292e-04,1.37367e-04,1.69875e-04,6.25037e-05,-1.12997e-04,-1.47214e-04,1.14748e-04,-1.46021e-04,1.81486e-04,1.21757e-04,-1.77353e-04,9.10926e-06,-5.69658e-05,-1.87275e-04,-6.72767e-05,1.55181e-04,-1.66783e-04,9.47509e-05,-6.44151e-05,1.86746e-04,8.39985e-05,1.24553e-04,1.54201e-04,8.43053e-05,4.17480e-05,7.49205e-05,-1.58519e-04,3.22096e-04,6.30013e-05,-8.83186e-06,-2.52246e-04,
-1.70410e-03,
9.23492e-02,
2.50367e-01,
-3.79179e-02,
-5.70263e-02,
-1.45700e-02,
1.54855e-01,
-1.61468e-01,
-1.33946e-01,
-1.61407e-03,
-4.79164e-02,
2.75060e-01,
-1.67120e-03,
-2.58620e-03,
-2.69140e-02,
-2.29730e-03,
-1.02306e-01,
-1.38521e-03,
-8.78602e-02,
-1.62598e-03,
-1.37336e-02,
-6.29841e-02,
1.09872e-01,
-1.36172e-03,
-1.68367e-03,
1.57288e-01,
-1.61501e-03,
-1.19205e-03,
-3.98214e-03,
-1.91226e-01,
2.69557e-03,
-3.06141e-02,
5.60274e-05,-1.16382e-04,1.58602e-04,8.58355e-05,-4.17978e-04,1.66390e-04,-1.03349e-04,-1.20823e-04,-1.25219e-04,4.49942e-05,2.30167e-06,-6.89568e-05,6.32920e-05,-5.90354e-05,-8.85032e-05,5.45952e-05,1.88011e-05,-4.17184e-05,2.53837e-05,-6.04599e-05,-8.74481e-05,-2.68252e-04,4.09515e-05,2.36630e-04,-5.11054e-05,-1.29534e-04,1.66529e-04,-3.23254e-04,2.07476e-04,-6.24343e-05,8.36493e-05,8.77084e-06,
1.24254e-03,-4.32599e-05,4.32880e-05,-3.69104e-05,9.37072e-03,-1.23655e-04,-2.17520e-05,-2.86772e-04,-6.35723e-05,4.72445e-05,5.00836e-05,4.31854e-05,-8.21677e-05,6.02090e-05,-6.55349e-03,-2.32411e-04,2.83012e-04,1.16981e-04,2.25092e-04,1.76438e-04,-1.29449e-04,8.28551e-05,2.19808e-03,1.75571e-04,1.81157e-04,9.05242e-05,9.00283e-01,6.14963e-06,-8.37648e-05,2.92799e-04,2.17725e-04,1.57527e-03,
-1.31340e-01,9.73909e-05,2.18744e-04,6.84701e-05,1.37621e-03,-8.96833e-05,7.61310e-06,6.35747e-05,9.73749e-05,1.46623e-04,5.06490e-05,3.18709e-05,2.30427e-04,-2.60830e-06,6.03112e-01,1.11969e-04,-1.51296e-04,-9.55252e-05,-1.97236e-04,-6.33929e-05,1.91583e-04,2.77787e-04,1.32521e-03,-1.44477e-04,-9.55084e-05,-1.86893e-04,-6.92680e-02,9.41414e-05,1.18005e-04,8.11372e-05,1.20717e-04,-3.14714e-01,
2.24936e-04,-4.01654e-04,6.96434e-05,8.76695e-05,-1.23751e-04,1.78504e-04,7.05547e-05,2.07495e-04,-6.83727e-05,8.58525e-06,-1.48525e-04,5.82196e-05,-1.60306e-04,-2.43611e-04,-6.79379e-05,1.65544e-04,-3.61556e-04,-1.92757e-04,5.55411e-05,2.97829e-05,-1.70787e-04,-2.97511e-05,-1.41729e-04,-1.21264e-04,-2.04163e-04,-9.46211e-05,1.08299e-04,1.62782e-04,-2.97274e-05,-7.42555e-05,-3.96423e-06,-1.07336e-05,
-1.86265e-04,1.16110e-04,-3.50847e-07,-4.21952e-04,-2.16759e-04,5.86396e-05,-8.88040e-05,-1.98732e-04,1.92944e-04,-2.77447e-05,-2.77090e-05,6.72007e-05,1.51122e-04,-1.67952e-04,-4.22816e-05,-1.54434e-04,-1.72636e-04,-1.88284e-04,8.08246e-05,1.80391e-04,1.59630e-04,1.26849e-04,2.00139e-06,-9.84881e-07,4.17167e-05,-3.49883e-05,-3.98645e-05,3.75248e-05,1.57654e-04,2.60751e-04,-4.99824e-06,-2.33897e-04,
1.49248e-04,-1.67731e-04,3.41762e-04,6.52599e-05,2.89885e-05,-9.70944e-05,-6.09504e-05,-1.10014e-04,1.83072e-04,-1.02690e-04,7.32632e-05,-4.16352e-05,-8.81877e-05,2.65923e-04,-9.32229e-05,9.16173e-05,-7.93007e-05,1.63973e-04,1.97043e-04,1.46740e-04,-2.89569e-05,4.21699e-05,-3.21814e-04,6.69287e-05,-8.38325e-05,-6.71527e-07,-1.65133e-05,-1.15998e-04,-1.65576e-04,-1.18989e-04,-5.10540e-05,1.23315e-04,
-3.64301e-03,-3.49755e-07,-2.51069e-04,6.95178e-05,-1.93424e-03,1.50875e-04,1.27845e-04,1.94777e-04,-6.10472e-05,3.69078e-05,7.20818e-05,-1.36473e-05,-1.36175e-04,-1.21700e-04,6.55971e-01,-1.94472e-04,-2.11173e-04,-7.58768e-05,8.78787e-05,3.25688e-05,1.69851e-04,-1.10334e-04,-8.46841e-04,-9.14569e-05,-2.28839e-04,-3.47740e-05,-2.45656e-03,9.67411e-05,4.17726e-05,2.29127e-04,-1.01357e-05,-1.83189e-01,
-1.51269e-04,-2.03587e-04,3.51837e-05,6.41453e-05,-5.04868e-05,-2.38740e-04,2.45883e-04,-3.80733e-08,-5.21608e-05,-4.08173e-04,5.18952e-04,9.86205e-05,-4.44900e-04,1.04909e-04,3.28241e-05,-1.77407e-04,-3.11280e-04,1.45125e-04,6.45009e-05,-7.28244e-06,-1.50561e-04,9.95724e-05,9.64859e-05,-4.71096e-05,1.31177e-04,2.97694e-04,-2.95973e-04,2.83442e-05,-3.02495e-04,-1.67688e-04,-2.88414e-04,-3.99190e-04,
-9.20272e-05,3.10825e-04,-1.60978e-04,7.57036e-05,2.15301e-04,5.33053e-05,-1.08118e-05,-3.92489e-05,8.47787e-05,1.34452e-04,-1.37982e-04,2.51602e-04,-4.08697e-05,4.58982e-04,1.66723e-04,-6.81138e-05,-2.31935e-04,-2.99697e-04,-2.00884e-04,-1.25616e-04,-4.44930e-04,5.67175e-05,-2.05414e-04,-2.10963e-05,5.77150e-05,-1.64811e-04,1.40687e-04,-1.01861e-06,1.40572e-04,1.41749e-04,-3.29058e-05,-1.82316e-04,
6.87632e-05,1.63549e-04,1.65596e-04,2.28430e-05,-1.26267e-04,1.22603e-04,2.02154e-06,6.22392e-05,5.36793e-05,-1.35700e-04,3.31116e-05,4.99743e-05,-1.96750e-04,1.36458e-04,1.37900e-04,-1.22942e-04,-6.28336e-05,8.95247e-05,-1.21804e-04,-1.57724e-05,-4.78340e-05,1.33583e-04,4.11470e-04,2.15463e-04,3.84534e-09,-1.39229e-05,-8.55147e-05,-3.57418e-05,-2.53127e-04,5.22263e-05,-3.78009e-05,-2.19382e-05,
2.03195e-04,2.61472e-05,1.07798e-04,4.82617e-04,-3.68690e-05,4.59271e-05,1.75277e-04,-1.70582e-04,3.31352e-04,-9.19405e-05,-1.39165e-04,-1.67430e-04,2.70059e-04,-1.52672e-04,-1.20339e-04,-1.28215e-04,-1.57590e-04,2.38615e-04,-9.61124e-05,8.48584e-05,-2.54997e-04,-2.10599e-05,-2.76135e-05,-3.48243e-05,-1.00184e-04,5.63817e-05,-2.85302e-04,3.21214e-05,-2.52956e-04,-3.28357e-04,-2.58938e-04,6.99827e-05,
-8.02005e-02,-2.77206e-04,2.07206e-04,-5.04095e-05,7.09006e-01,-1.04730e-04,-8.78993e-05,-2.13779e-05,2.20911e-04,-3.95673e-05,-1.18071e-04,-2.85890e-04,-8.99792e-05,1.93372e-04,9.76118e-03,-1.17403e-04,-8.05032e-05,3.69167e-04,-1.33672e-04,3.58300e-04,-1.38491e-04,-4.92015e-05,7.41370e-01,2.21118e-05,1.86227e-04,-6.13605e-05,-3.61593e-02,-2.00908e-04,2.59835e-07,6.60138e-05,-2.53214e-04,-8.53367e-03,
-1.94933e-04,4.39890e-05,-6.15464e-05,-1.87204e-04,8.26849e-05,1.40028e-04,8.99182e-06,-1.66363e-04,-1.72210e-04,-1.01961e-04,-1.07291e-05,-1.33729e-04,1.08331e-04,2.20235e-04,-4.01534e-05,-1.90567e-04,9.70146e-05,2.73748e-05,1.57153e-04,1.17054e-04,-7.23958e-10,-4.73812e-05,8.31715e-05,1.14285e-04,8.57601e-05,-7.79416e-05,9.70742e-05,3.64445e-04,7.79881e-07,-1.33993e-04,-7.03036e-05,2.41320e-05,
-9.34257e-05,-7.43079e-05,-7.75901e-05,2.15940e-04,1.13153e-04,-5.13741e-05,-3.09347e-04,-5.91510e-05,1.10797e-04,-1.35172e-04,-1.06961e-04,-1.35312e-05,2.29701e-04,-7.09208e-05,-9.32494e-05,8.57179e-05,6.70913e-05,-6.50554e-05,2.00257e-04,1.33351e-04,-1.36446e-04,2.80070e-04,9.20330e-05,3.69331e-06,1.34471e-04,-3.04328e-06,-1.53787e-04,6.16386e-05,-5.63967e-05,-1.49103e-04,3.71673e-05,-1.30874e-04,
9.83505e-05,-1.20930e-04,1.41854e-04,1.25296e-04,1.00666e-04,4.47885e-05,-7.25015e-05,-6.74259e-05,-4.17917e-05,-3.82300e-05,-7.80205e-05,-2.02926e-04,2.16673e-04,8.94677e-06,-3.30242e-04,-1.28561e-04,-1.45230e-05,-2.41440e-04,-5.25989e-04,5.91606e-05,-9.42365e-05,-4.53733e-04,3.31507e-05,-2.06678e-04,8.50319e-05,1.10500e-05,-2.51981e-04,5.18003e-05,-1.55177e-04,-1.18619e-06,1.06533e-04,1.30228e-04,
-3.88685e-05,-4.97063e-04,1.96253e-04,2.45408e-04,-4.56423e-04,-1.30639e-04,1.13670e-04,4.07214e-05,1.43212e-05,3.65395e-05,1.69247e-06,4.09919e-05,4.31097e-05,-1.22282e-04,2.38601e-04,3.96942e-04,-1.07976e-05,-7.90149e-05,-2.87803e-04,-9.54149e-05,9.12175e-05,-5.41895e-05,-7.62183e-05,-8.73540e-05,-1.80710e-04,7.23576e-05,7.58463e-05,1.19599e-04,-5.26240e-06,-2.76935e-04,1.10292e-04,-5.34126e-05,
-4.34532e-04,-7.57175e-05,-2.67563e-04,3.36874e-05,-2.61565e-04,-2.00607e-05,5.69033e-06,6.48371e-05,-3.78679e-05,-2.06608e-04,1.95541e-10,-6.61084e-05,9.56148e-05,-2.21519e-05,8.68541e-05,-2.04767e-05,-1.00504e-04,-8.21793e-05,-8.71555e-05,3.55065e-05,-9.03467e-05,-2.20343e-04,-7.68852e-05,-1.71000e-04,-2.43815e-04,1.44996e-04,-8.70526e-05,1.80170e-04,-1.43727e-06,-1.50231e-04,-4.08211e-05,1.27769e-05,
-3.78990e-05,2.55992e-05,2.22090e-04,9.46450e-05,-9.07427e-05,7.23120e-05,1.25991e-04,-2.04417e-05,-7.34274e-05,-2.69618e-04,1.66114e-05,2.10249e-04,-1.56826e-04,7.43145e-05,-1.49598e-04,8.75915e-05,4.39460e-06,-1.22029e-04,-4.15189e-05,-1.41970e-04,-1.40425e-04,1.34283e-05,6.48546e-05,1.84380e-04,6.61837e-05,-8.52119e-05,1.41600e-04,2.16237e-04,-2.65955e-05,-5.26441e-05,1.56318e-04,8.48738e-05,
3.43678e-04,2.55208e-04,3.31072e-05,-2.74696e-04,8.77670e-05,1.78670e-05,6.72012e-05,6.68019e-05,3.04927e-04,-6.86837e-05,2.39614e-04,-1.82802e-04,1.34210e-04,-9.60378e-05,1.42034e-04,1.32933e-04,1.26882e-04,2.50208e-05,-4.28964e-06,-4.68088e-04,1.17635e-04,2.61373e-04,-6.63291e-05,8.55797e-05,-9.31178e-06,-6.29897e-05,9.44631e-05,-1.74420e-04,2.48816e-04,1.17798e-05,5.83151e-05,-1.02030e-04,
1.92029e-04,-1.33801e-04,-1.21046e-04,-7.81207e-05,-2.38350e-04,-1.02602e-04,5.57241e-05,7.54392e-05,-9.75255e-06,-4.27920e-05,-1.47459e-05,-1.95734e-04,-6.47524e-05,5.94129e-06,-5.48095e-05,7.43647e-05,-1.19311e-04,-3.63146e-05,6.50162e-06,-1.51563e-04,2.16454e-05,4.08880e-05,-3.89431e-05,-1.02258e-04,-4.56480e-05,-6.26090e-05,4.95982e-05,2.09863e-04,-2.02482e-04,1.95682e-05,-1.93167e-04,1.99108e-04,
6.17717e-05,2.28293e-04,2.24693e-04,-8.08464e-05,-7.47333e-05,5.69975e-05,2.48394e-04,1.15747e-04,-1.24925e-04,5.56563e-05,-5.51105e-05,-1.16893e-04,-9.96241e-05,-2.67306e-04,2.38862e-04,-6.47658e-05,7.20451e-05,2.50215e-04,-2.82440e-05,-1.44423e-04,-1.24440e-04,-2.19556e-04,9.74647e-07,1.26805e-04,-5.00465e-05,1.11839e-04,7.53503e-05,3.64082e-05,-1.96012e-05,8.11014e-05,-1.21625e-04,2.38759e-04,
1.42037e-04,-2.10158e-04,1.07489e-04,-2.64722e-04,7.28796e-05,1.87559e-04,1.25838e-04,-8.55610e-05,-3.45071e-04,1.28292e-04,1.49182e-04,1.95773e-04,2.00650e-04,-7.77517e-05,1.20335e-04,-1.07146e-04,-5.47369e-05,-1.47252e-05,2.56882e-04,1.45655e-04,-1.21065e-04,1.18572e-04,-1.23709e-04,-6.76551e-05,1.33147e-04,-7.52554e-06,-7.78094e-05,3.32344e-04,-4.34179e-04,1.18095e-04,1.20175e-04,-8.28607e-05,
1.22539e-01,-2.68049e-04,1.60817e-04,1.00060e-04,-8.33564e-01,1.11912e-04,1.31185e-04,7.74671e-05,5.03368e-05,-3.93603e-05,-1.56111e-05,-1.90228e-04,-5.46196e-05,1.75604e-04,-1.56090e-01,-1.30400e-05,-1.28214e-04,-2.95633e-04,-7.96991e-05,7.82301e-06,-7.52333e-05,-3.52681e-05,6.67906e-04,-1.48077e-04,2.08686e-05,8.40262e-05,-7.83318e-02,-5.60717e-07,-1.21123e-04,-2.70060e-04,1.02005e-04,3.68676e-03,
1.41076e-04,2.63290e-04,-7.47007e-05,-1.95681e-05,-1.54943e-04,2.82873e-04,1.60083e-04,9.99888e-05,-1.67655e-04,6.97459e-05,-1.82065e-04,-4.14584e-08,-9.68476e-06,-1.64929e-04,1.31792e-04,2.40727e-06,-2.80290e-06,-1.34599e-04,-2.72714e-06,1.27587e-04,8.59852e-05,3.66041e-06,9.47524e-05,3.23224e-04,1.19786e-04,7.72151e-05,-1.68500e-04,-1.73986e-04,1.10846e-04,-4.48740e-04,1.25239e-04,8.47175e-05,
4.10347e-03,-9.21792e-05,9.31812e-05,-6.04662e-05,3.91265e-04,-4.82582e-05,-6.23262e-05,-1.43672e-04,4.23735e-04,6.46940e-05,-9.07581e-05,-6.15635e-05,-1.94614e-05,-1.64986e-04,-1.86507e-01,8.67511e-05,1.70865e-04,-1.80245e-04,-1.84217e-04,-7.65793e-05,1.76150e-05,-3.93755e-04,1.05320e-03,-3.46403e-06,-7.07414e-05,-4.49173e-05,1.08942e-03,-1.98684e-05,-2.93595e-05,1.26650e-04,-1.07920e-04,1.16540e-01,
4.00234e-01,2.38344e-04,-1.44506e-04,4.98393e-05,8.89811e-02,-1.08314e-04,5.66596e-05,-1.27224e-04,6.22713e-08,-1.29315e-04,4.21943e-05,2.38334e-04,-5.97950e-06,-1.43167e-04,-5.80103e-01,-1.23179e-04,-2.09374e-05,9.47239e-05,-1.31517e-04,7.85708e-05,-4.18427e-05,-8.52813e-05,9.16222e-03,1.38924e-04,-4.01745e-05,-2.93028e-05,-9.45367e-02,3.81424e-04,-1.40872e-04,-4.39338e-05,-1.25652e-04,2.61355e-01,
-3.91891e-05,-2.65900e-05,5.68932e-05,-8.42820e-05,-4.61171e-05,2.24989e-06,-1.87661e-05,2.52618e-04,-1.35618e-04,-1.87733e-05,-1.39521e-04,1.58795e-04,5.69442e-05,-5.74650e-05,-1.66857e-04,-2.05397e-04,1.08121e-04,1.54996e-04,-2.46400e-04,5.96094e-05,6.32045e-05,-1.46438e-04,-1.21270e-04,-1.27441e-04,6.82446e-05,-1.39825e-04,2.30570e-04,6.10304e-05,-7.65409e-05,6.36363e-05,1.01372e-07,5.86276e-06,
-2.35690e-04,7.24926e-05,1.42368e-04,-1.04704e-04,1.22473e-04,-4.16514e-05,9.28261e-05,2.05797e-04,1.28000e-04,-2.30134e-04,8.05895e-05,-2.72970e-05,2.04168e-04,-2.77602e-04,1.43386e-04,-1.59674e-04,3.60124e-04,-2.19565e-04,-2.51562e-04,8.26885e-05,-1.64249e-04,-2.22904e-04,1.71571e-04,3.73044e-05,-1.10226e-04,1.29672e-04,-1.20624e-04,-1.05471e-04,-1.01400e-04,-4.06488e-05,-2.38983e-04,-8.38351e-05,
-2.81907e-05,8.45254e-05,-2.41130e-04,2.28229e-04,-8.90526e-05,2.88924e-04,2.18959e-04,-7.09903e-05,-6.90272e-05,1.56009e-04,1.63381e-05,-4.35835e-05,-2.29481e-05,2.79260e-04,-8.34221e-05,-3.23985e-05,1.41616e-04,-2.99501e-05,1.86607e-04,1.79496e-05,-1.04220e-04,-1.42352e-05,1.80091e-04,-2.20184e-04,-9.96361e-05,1.04830e-04,2.17651e-04,5.15915e-05,-1.76531e-04,-1.55249e-06,4.81397e-05,3.60523e-04,
1.91513e-04,-8.66560e-05,4.70132e-05,8.09538e-05,5.13135e-05,-1.30643e-05,2.47016e-04,8.79249e-05,-1.46056e-05,4.19241e-05,-6.64386e-05,-2.31373e-04,4.29010e-05,-5.66834e-05,-2.99923e-06,-7.56666e-05,-7.23711e-05,7.19241e-05,-4.00917e-04,-9.99172e-05,-1.00021e-04,-3.15244e-04,1.23158e-04,1.70795e-05,-2.45737e-04,-7.47662e-05,2.55119e-05,-8.50318e-05,-4.66737e-05,-8.63105e-05,1.14213e-04,2.40071e-04,
1.91297e-02,-2.48444e-04,-7.37888e-05,-3.79165e-05,-2.67397e-01,-2.89148e-05,-5.79833e-05,1.65019e-04,4.01522e-05,-1.17506e-04,6.27796e-05,-1.74790e-04,1.14869e-04,2.06808e-04,7.09114e-04,-4.47058e-05,-1.52312e-04,-9.03660e-05,1.26139e-04,6.55306e-06,6.22510e-05,-3.70526e-05,-3.50807e-04,2.24161e-04,-4.64879e-05,-6.42981e-05,-3.93642e-04,-2.57025e-04,-2.84198e-04,-1.40023e-04,-4.63072e-05,6.33036e-04,
-2.17779e-04,1.06084e-04,-9.24183e-06,7.00123e-05,-9.95805e-05,7.14985e-05,-5.29359e-05,-1.58366e-04,-4.80681e-06,4.18339e-04,-8.60056e-05,5.13582e-04,-6.54838e-05,-2.21715e-04,-7.86232e-05,-4.43248e-06,1.87955e-04,-1.52610e-04,7.52313e-05,-3.25336e-05,3.64478e-05,4.17749e-05,8.70386e-10,2.76186e-05,-1.25864e-04,-5.64249e-05,1.62883e-06,4.31063e-04,6.53241e-05,-1.63869e-04,-9.97505e-06,-5.97017e-05,
-3.74292e-02,
-6.25951e-03,
-2.81987e-04,
2.10094e-02,
1.43047e-01,
-6.25229e-04,
-4.15369e-02,
-7.30768e-04,
-1.68015e-01,
-7.58963e-04,
-2.27213e-04,
-1.74050e-01,
-4.73419e-04,
-2.91471e-04,
1.93935e-01,
-3.78281e-04,
-2.03419e-02,
-8.11241e-02,
-1.66335e-01,
-1.28157e-03,
-7.22602e-03,
-8.58928e-03,
-7.54654e-02,
-7.78616e-03,
-6.68029e-04,
-1.60424e-03,
4.88387e-02,
-1.75548e-01,
-2.19425e-04,
-9.58943e-02,
-1.16315e-02,
6.22271e-02,
1.14601e-02,-5.67037e-01,-3.21482e-04,
7.67202e-05,-1.00020e-04,1.01821e-04,
-6.26885e-05,-1.80154e-04,-1.66409e-04,
-3.76956e-04,-1.43111e-04,-3.90332e-03,
-1.25615e+00,8.02516e-04,7.84363e-06,
-8.38042e-05,-2.34102e-04,-1.06645e-04,
1.71488e-04,-3.35492e-05,4.74738e-05,
5.58599e-05,1.20917e-04,1.40884e-04,
-6.49494e-05,-3.98162e-05,-5.40965e-05,
2.42828e-04,1.65822e-04,-4.40350e-05,
-5.89947e-05,3.68982e-05,-1.24702e-04,
-1.13375e-04,1.14831e-04,1.09701e-04,
-1.06909e-04,-5.54848e-05,-2.82253e-05,
4.24209e-06,-7.52166e-05,-1.47485e-04,
3.31008e-03,1.29951e+00,1.90946e-04,
4.91426e-05,2.05381e-05,9.85148e-05,
1.66631e-04,1.31441e-04,-1.28281e-04,
-1.07734e-04,1.44037e-04,-1.48442e-04,
1.98851e-05,-8.28426e-05,6.50457e-05,
-2.16888e-04,4.54800e-05,-1.21455e-04,
1.37875e-04,-1.95401e-04,6.02102e-05,
-2.14671e-04,2.92205e-06,8.68417e-05,
-4.74836e-01,1.27213e-03,-2.70033e-03,
2.98879e-04,-1.37010e-04,5.75615e-05,
-8.09483e-05,-6.57120e-05,1.10212e-04,
2.05632e-06,-1.36563e-04,-4.92410e-06,
-1.25825e-03,-4.04884e-05,-9.23751e-01,
-1.09443e-05,-1.21797e-05,1.53131e-04,
-4.71480e-05,5.55562e-05,4.65671e-05,
-1.74865e-04,1.48458e-04,1.00428e-05,
-4.86697e-05,1.37568e-04,8.80423e-05,
4.97761e-05,-7.02677e-01,-4.90575e-04,
3.12310e-01,
-1.55310e-01,
4.49282e-02,
