// Neural Network File Format by Kyle Julian, Stanford 2016
4,6,3,32,
6,32,32,32,3,
0,
-1.5,-1.0,-1.0,-1.0,-1.0,-1.0,
1.5,1.0,1.0,1.0,1.0,1.0,
0.0,0.0,0.0,0.0,0.0,0.0,0.0,
3.0,2.0,2.0,2.0,2.0,2.0,1.0,
-6.03912e-01,-1.07863e+00,-1.17979e+00,-6.93064e-01,2.07549e-02,-1.43523e+00,1.28069e-04,4.95053e-05,-8.86577e-01,-6.39251e-01,1.17499e+00,1.44063e+00,-9.24346e-01,-1.21946e+00,1.16465e-01,4.72931e-02,-9.23489e-02,-1.43712e-01,-6.53812e-01,3.29131e-01,-1.16385e+00,1.11070e+00,7.76367e-01,-1.74562e-01,2.08154e+00,-1.15832e+00,6.24462e-01,-5.20968e-02,1.84629e+00,-2.12910e+00,6.09154e-02,8.06309e-01,
4.87271e-01,7.82377e-02,1.30006e-01,6.97703e-01,-6.76145e-01,1.67611e+00,1.44389e-04,3.95067e-04,1.83950e+00,-1.39302e+00,-1.08006e-01,1.36066e+00,3.44419e-01,1.29406e+00,-3.98506e-02,2.85624e-01,7.26740e-02,2.13970e-01,-1.91681e+00,3.73291e-01,-2.52282e-01,-2.02500e+00,-1.15918e-01,7.45964e-02,2.62894e-01,-1.96670e-01,-9.32906e-01,1.45467e-01,1.23258e+00,-9.51193e-01,-2.09099e-01,1.22869e+00,
3.77968e-02,3.00486e-01,7.14431e-01,-2.25660e-02,-2.44056e+00,-1.75395e-01,-2.95370e-04,2.75126e-05,4.66968e-02,-1.05132e-02,-3.31041e-01,-7.10472e-01,2.09343e+00,9.42968e-01,-5.92550e-03,2.95098e-01,-4.60776e-01,-5.87408e-01,7.04117e-01,2.35710e+00,5.21647e-01,2.04970e-01,-1.54009e-01,2.36702e+00,-2.63340e-02,3.20045e-01,1.97673e+00,-2.58536e+00,7.54582e-01,-1.29218e-01,-2.37696e+00,-1.02156e+00,
-4.59344e-01,-1.41454e-01,6.33820e-02,2.62188e-02,-1.55746e-02,-1.04611e-01,6.61367e-05,3.35161e-04,-2.52138e-01,-1.92314e-01,3.38762e-01,2.94578e-01,7.67281e-02,-2.84488e-01,-3.99190e-01,2.85136e-01,-4.13470e-03,3.11586e-02,-1.22635e-01,-1.17281e-02,4.22584e-02,2.24844e-01,-4.15518e-01,-6.28924e-02,4.46470e-01,2.08334e-01,1.18540e-01,1.09895e-02,4.08947e-01,-4.49320e-01,3.77926e-02,1.70571e-01,
4.21533e-01,1.60904e-02,-5.13363e-01,-2.77143e-01,-1.15551e-01,2.90408e-01,-1.08211e-04,-1.26822e-04,4.67639e-01,2.37248e-01,-1.21133e-01,3.03512e-01,-3.75786e-02,2.46108e-01,3.44104e-01,8.90566e-02,1.66470e-01,3.45054e-01,-4.09308e-01,-5.23995e-02,2.69964e-03,-4.46871e-01,-1.10421e-01,-3.41827e-05,9.19745e-02,3.38543e-01,2.84278e-02,1.38496e-02,1.80017e-01,-1.57228e-01,-6.52400e-02,3.30913e-01,
8.48657e-02,-7.59371e-03,-1.36046e-01,4.49264e-01,-4.87946e-01,-1.08430e-01,-7.14407e-05,-4.71353e-05,7.02163e-02,6.21235e-02,-7.77741e-02,-1.28360e-01,3.68082e-01,2.05260e-01,-1.49491e-01,3.26730e-01,2.82679e-01,-4.60911e-01,2.08264e-01,4.29504e-01,8.28587e-01,1.59592e-02,-1.46471e-01,4.79767e-01,1.75715e-03,2.63524e-02,4.88064e-01,-4.70982e-01,1.69289e-01,-4.60575e-02,-5.67234e-01,-2.99403e-01,
-1.94316e-01,
9.03642e-02,
-7.18626e-01,
-4.30090e-01,
1.02128e-01,
-2.85166e-01,
-3.41528e-01,
-3.56812e-01,
-2.46527e-01,
-4.39450e-01,
1.67359e-01,
-2.88023e-01,
1.52976e-01,
1.19859e-01,
-3.15925e-01,
-9.10326e-02,
1.43547e-02,
-3.85124e-02,
-2.67261e-02,
1.30554e-01,
-3.08382e-01,
-1.58903e-01,
-3.55623e-01,
5.20587e-02,
-1.60420e-01,
-3.05917e-01,
1.34522e-01,
8.07955e-02,
-1.19429e-01,
-2.24982e-01,
-2.62138e-01,
-6.24745e-02,
1.29136e-04,1.05495e-02,7.20979e-02,1.44864e-04,-9.28400e-02,1.00081e+00,-1.49679e-02,-3.74265e-02,-1.42520e-02,-1.41714e-02,1.75848e-01,-3.29191e-01,-2.47043e-01,-6.19403e-05,-4.07173e-05,-1.77200e-01,-1.38245e-01,5.33872e-01,1.28497e-02,-1.22917e-02,2.38222e-03,-3.11670e-02,-1.38415e-02,-4.17550e-02,1.20736e-01,8.78967e-02,2.80730e-05,-5.98230e-01,-1.43170e-01,-3.01866e-05,1.45480e-01,1.50231e-03,
7.15414e-05,-8.02532e-05,-9.34364e-02,1.55848e-01,-7.59755e-02,-3.13733e-01,6.41819e-03,-1.30040e-02,-1.06186e-01,-1.30394e-01,-4.71745e-02,-1.06711e+00,-1.11295e-01,-1.57245e-04,8.70998e-05,3.02946e-01,3.25932e-01,1.17472e-01,5.62434e-02,-1.22169e-02,-2.07397e-01,9.74335e-02,-5.53782e-01,-1.59258e-01,8.32488e-02,-5.15601e-02,3.08881e-05,2.17561e-01,-6.65843e-02,1.11810e-04,1.77943e-01,3.25181e-03,
-1.19206e-04,2.19720e-02,-1.59127e-02,3.18680e-01,2.10477e-01,-1.34626e-01,2.27286e-02,-4.06470e-02,3.63541e-04,1.60629e-02,3.77011e-05,1.22741e-04,6.20772e-03,6.39852e-05,5.07411e-05,5.51975e-01,3.10682e-02,-8.43354e-01,5.06585e-03,6.63388e-05,2.95256e-02,-6.36931e-01,6.04791e-01,-1.82940e-04,1.78230e-02,-3.65302e-01,1.04311e-04,4.85503e-02,3.15452e-02,-1.56521e-04,-7.78539e-01,2.09161e-01,
-8.02190e-05,4.52846e-02,6.47544e-02,6.41811e-02,-6.96145e-01,-2.66436e-02,-5.46170e-02,3.64279e-01,-5.58650e-02,-1.56942e-01,-1.45133e-02,-2.02409e-01,-2.29558e-02,5.25705e-04,-2.47453e-04,5.05092e-01,4.44782e-04,-4.89055e-01,1.60317e-02,-9.53960e-03,-3.94235e-03,-6.54459e-02,-9.06527e-02,2.40517e-02,-3.11134e-01,1.40261e-01,4.18221e-05,1.23429e-01,4.84005e-03,-5.44904e-07,6.45624e-01,8.51951e-02,
7.90480e-05,-6.15722e-01,-6.44265e-01,-3.22266e-02,4.22026e-01,-1.39703e-01,1.48057e-02,2.28594e-01,6.99814e-01,-1.07641e-01,2.01244e-01,-1.90578e-02,-6.42055e-01,8.30684e-05,2.72419e-05,6.09536e-02,1.67093e-01,4.01165e-02,1.18324e-01,3.33995e-01,-4.55877e-01,2.72546e-01,1.85386e-01,2.35549e-02,-3.75842e-01,-6.16913e-01,1.58359e-05,-8.67429e-03,-5.44818e-01,-8.51033e-05,-8.18211e-01,6.25082e-04,
1.69935e-05,-3.72625e-01,-1.04452e-01,-3.41742e-01,4.41437e-01,-9.60982e-02,7.82312e-03,-1.80164e-01,-8.49431e-02,-1.00486e-01,-5.87039e-03,-7.05575e-02,-5.55441e-01,1.02120e-05,1.08048e-04,-2.79686e-01,4.49640e-02,1.07765e-01,8.15104e-03,9.52611e-03,2.13867e-02,7.44806e-01,-9.34949e-03,-1.85447e-02,-3.96321e-01,-1.16893e+00,-1.19619e-04,1.26062e-02,-7.02709e-01,2.38559e-06,-5.64135e-01,3.26394e-02,
2.35286e-04,-7.55128e-05,-2.29645e-04,1.57954e-04,2.50006e-06,9.22226e-05,-4.02737e-05,-1.03841e-04,1.32997e-04,2.30120e-04,-6.53855e-05,-1.11088e-04,1.10166e-04,-1.01899e-04,-3.33800e-04,-3.23740e-04,-4.57682e-05,3.72835e-04,2.83297e-05,-9.58007e-05,-1.84990e-04,2.82524e-05,-5.46432e-05,4.80051e-05,-2.30798e-04,-1.68726e-04,-1.53815e-04,2.09395e-04,7.24477e-05,1.57759e-04,-8.65790e-05,3.48302e-05,
6.54162e-05,-2.82571e-04,-1.70750e-04,3.45381e-05,1.77615e-04,-6.17262e-05,-6.01759e-05,1.08663e-04,-2.83473e-04,2.37282e-04,4.17169e-05,4.32256e-05,1.18671e-04,-6.49387e-05,-9.49489e-05,2.50106e-04,1.02263e-04,-5.10248e-06,6.74368e-05,6.16918e-05,2.28076e-04,-7.82611e-05,1.14708e-06,3.67754e-05,1.90539e-04,1.09249e-04,1.95377e-04,1.91447e-04,-2.10655e-05,8.05654e-05,-3.30783e-05,1.21545e-04,
-1.02211e-04,-8.58548e-01,-5.15408e-01,-3.96430e-03,1.00747e-01,-4.69183e-02,6.96411e-03,-1.78563e-02,2.26608e-02,-2.97375e-01,-1.32068e-02,-3.40298e-02,-6.05841e-01,-2.19515e-04,-2.27526e-04,-5.58135e-03,-9.56835e-02,9.12659e-02,9.73113e-03,-1.21558e-01,-8.86680e-03,7.50412e-01,-1.65474e-02,-8.83381e-02,-7.33562e-01,-5.05294e-01,-1.49346e-04,-2.17913e-01,-1.23219e+00,1.69103e-04,-2.54283e-01,-7.51659e-02,
-1.38094e-05,3.77595e-03,9.43041e-03,-4.52719e-01,2.07064e-01,-4.91056e-02,3.06502e-02,-2.24799e-02,-1.94745e-02,5.86436e-03,4.32846e-02,1.69687e-02,-7.05389e-03,-1.17646e-04,9.43454e-05,-6.82415e-01,2.38483e-02,1.43981e-01,-3.16332e-01,-4.67633e-04,-3.04174e-02,2.76464e-02,-2.60249e-01,-3.98692e-03,-1.42872e-01,-5.28443e-02,-1.11960e-04,4.32107e-01,2.18383e-02,3.97350e-04,-2.72266e-01,5.22287e-03,
-3.15447e-04,-1.92783e-02,4.44393e-03,-3.84221e-01,-1.88062e-01,4.44871e-01,-1.87980e-02,-1.53987e-01,1.45995e-01,1.23414e-01,6.75204e-02,6.16098e-01,5.48126e-03,1.96356e-04,1.89547e-06,-4.06452e-02,-1.22816e-02,-7.06412e-01,8.51373e-02,6.56297e-02,2.98372e-02,-2.10698e-01,5.36173e-01,-1.35043e-01,-3.73633e-01,2.21054e-01,-1.70923e-05,-5.99220e-01,1.74022e-01,-2.62355e-04,-1.29899e-01,1.29383e-01,
1.83165e-05,1.56925e-02,-3.29422e-01,2.67134e-04,-8.27728e-02,-2.19013e-01,-2.39396e-02,-6.26174e-02,2.30218e-02,-1.73412e-01,-4.79099e-02,-4.39259e-02,-5.86160e-01,-6.93713e-05,1.34714e-04,-3.16522e-02,2.40922e-03,-2.54860e-02,2.80285e-03,-5.05258e-01,9.70781e-03,7.45218e-01,2.82258e-02,-7.66224e-04,-6.07193e-01,-1.02608e+00,2.98942e-05,-3.15845e-02,-4.65902e-01,-2.60079e-05,-2.87837e-04,-2.14550e-03,
-1.50720e-04,-1.46918e-01,-9.83535e-02,3.13302e-01,-2.02820e-01,-7.52240e-03,-2.18386e-02,-6.91887e-02,-7.03835e-01,-4.83188e-02,-7.53459e-01,-1.17704e+00,-8.77128e-02,-8.34316e-05,-9.13057e-05,-4.82246e-02,-1.98715e-01,2.13044e-01,-4.03353e-02,-7.02699e-01,-1.19051e-01,1.16366e-03,1.98863e-02,-1.03081e+00,-2.03477e-01,7.26997e-01,1.89921e-06,-8.03230e-03,-2.25491e-01,1.52080e-05,3.19045e-01,4.79550e-02,
8.70538e-05,-4.03533e-01,2.17991e-01,-7.74722e-01,-6.22293e-02,7.82766e-02,-2.78670e-02,8.35045e-02,-9.62276e-02,-5.03173e-01,-4.86924e-01,-6.56634e-02,-6.73961e-01,-1.19049e-04,1.36183e-04,-3.36908e-01,1.02413e-02,3.83847e-01,2.29902e-02,-4.10282e-01,-3.63189e-01,7.24423e-01,-1.57152e-01,1.87921e-02,-3.24695e-01,1.13706e-01,-4.63333e-05,3.69053e-02,-4.93813e-01,7.52294e-05,1.82338e-01,-1.57083e-02,
-1.18037e-06,9.33934e-02,7.33652e-02,1.24987e-02,1.56531e-01,-1.50983e-02,-3.63809e-04,-7.46021e-03,-1.78022e-01,1.21729e-03,-3.60571e-01,-6.06741e-03,-3.84270e-02,-3.92430e-05,5.57875e-05,3.77197e-03,-6.39907e-02,-7.22871e-01,-9.75890e-02,1.57223e-02,-1.82219e-03,-6.55100e-02,-2.13776e-02,4.92418e-03,8.47545e-03,1.21107e-01,-1.85856e-05,3.86597e-01,4.44350e-02,-8.96542e-06,4.00583e-02,2.47701e-01,
2.08820e-04,1.20394e-01,4.35330e-02,4.70300e-01,-7.23790e-02,7.72946e-01,-1.43965e-01,-5.30852e-03,-6.34871e-02,-8.75369e-02,-3.92362e-02,6.11573e-01,1.38193e-01,5.49609e-05,1.71913e-04,-1.94315e-02,-7.03352e-02,-6.91076e-02,-6.34454e-02,1.39556e-01,1.39913e-02,-5.42907e-02,-1.37131e-01,5.36251e-03,1.21105e-01,1.89073e-01,-1.84467e-05,-1.14410e-01,-1.94235e-02,-4.02959e-06,2.81599e-01,-3.47243e-02,
-1.22648e-04,2.95510e-01,-2.90897e-02,-1.62618e-01,-1.58548e+00,-2.50655e-03,2.09143e-02,-6.34631e-02,-2.36178e-01,3.18806e-02,-3.90514e-02,1.90605e-01,-3.92496e-02,2.34506e-04,-6.56871e-05,-2.45502e-01,2.25645e-02,1.03982e-01,-1.93747e-01,5.98130e-02,3.02399e-02,8.90593e-02,2.64624e-01,-5.03144e-03,1.57943e-01,-1.76751e-02,1.09827e-05,2.49398e-01,2.24290e-01,-1.56794e-04,-1.45086e-01,-4.21881e-02,
1.10609e-04,-7.59250e-02,-1.93446e-01,-3.36946e-01,5.07890e-01,2.29968e-01,9.94197e-03,-3.55968e-01,1.33945e-01,-3.37548e-03,5.59774e-02,4.53049e-01,5.58930e-02,2.40765e-05,-9.62931e-05,7.10618e-02,2.74355e-01,4.59384e-03,1.31142e-02,1.75302e-02,-6.66203e-03,1.79899e-02,-8.90633e-04,-1.32427e-01,1.22342e-01,-3.47051e-01,-1.55416e-05,-8.75402e-02,1.49182e-01,-2.46891e-04,8.05488e-02,1.72664e-01,
2.28224e-05,-1.93264e-01,-1.19723e+00,4.20383e-01,-9.20825e-02,-1.44469e-02,1.36590e-02,2.21282e-01,2.21953e-01,1.35121e-02,-8.58499e-01,-4.71035e-01,-4.08842e-01,8.80938e-05,-2.13221e-05,4.35162e-01,-2.20966e-02,-3.83128e-01,4.63646e-02,-7.46301e-01,-4.50793e-01,5.31579e-01,-7.68660e-02,-2.38772e-01,-1.14770e-01,-9.44700e-02,2.52311e-05,-3.53102e-01,-4.01059e-01,1.73762e-04,1.46270e-01,5.16966e-03,
-2.80531e-05,-3.47482e-02,-2.43979e-02,9.34453e-02,2.54111e-02,-4.30882e-02,-2.05444e-01,2.84671e-01,-5.49098e-01,-4.36847e-02,-7.09714e-01,-4.53008e-01,-1.77745e-01,3.76314e-04,4.78509e-05,-6.89707e-02,-1.13276e+00,-5.41358e-02,4.54898e-02,-4.74109e-01,-7.32742e-02,3.00639e-01,7.35467e-02,-1.98234e-01,-1.13172e-02,7.43334e-01,5.02254e-05,-1.47768e-01,-3.32718e-03,-1.94004e-04,6.86324e-01,1.47499e-02,
1.35692e-04,9.51755e-03,5.30969e-03,5.16951e-01,-3.58746e-01,2.16667e-01,1.08434e-01,1.38059e+00,-1.90778e-01,-3.28155e-03,-1.84762e-01,-2.47240e-03,7.16591e-02,2.88856e-05,6.27711e-05,-6.26206e-01,-5.81231e-01,-4.33312e-02,1.64519e-02,3.83251e-02,-1.87527e-01,-1.96448e-01,-4.68179e-01,6.79265e-03,6.03581e-02,-1.50023e-01,4.58101e-05,1.14890e-01,-1.59524e-02,1.23442e-05,1.48168e-01,1.19811e-02,
1.95465e-05,-8.88813e-01,-1.72871e+00,-5.71727e-01,1.38950e-03,-8.20663e-03,4.88195e-03,3.78354e-02,-1.57762e-01,-4.84881e-01,-9.78779e-01,-1.59609e-01,-9.29267e-01,6.91444e-05,-1.68984e-04,7.62163e-02,-9.66028e-03,-2.03693e-02,8.65479e-01,-1.56014e-01,-3.66585e-03,1.07954e+00,-1.35836e-01,4.68260e-03,-7.34261e-01,-1.95200e-01,-7.98461e-05,-2.02385e-01,-9.85644e-01,2.20403e-05,-5.55958e-02,-7.34728e-03,
-4.82171e-05,4.39025e-03,-7.76939e-03,4.41311e-01,1.93651e-02,-1.97878e-01,-6.48369e-03,-7.03019e-03,5.36538e-02,1.04225e-01,1.54676e-01,-6.13258e-03,-1.79797e-02,-1.06091e-04,-1.93487e-04,7.41168e-01,3.24516e-03,9.77972e-04,2.43356e-02,1.95738e-02,-2.53189e-03,-5.41681e-02,-4.06620e-02,2.22452e-01,1.38785e-02,-5.06315e-01,-1.18763e-04,3.83687e-03,5.20874e-02,7.33376e-05,-1.70770e-01,-1.17439e-01,
-6.13223e-05,-4.42435e-02,2.62808e-02,-1.82198e-02,-1.68054e-01,-3.93715e-02,-3.62179e-01,1.63253e-03,-7.61441e-01,5.35717e-03,-4.12000e-01,-5.79861e-01,-8.52452e-03,-2.85102e-04,1.24819e-05,-1.16153e-01,-7.54546e-01,1.78823e-01,-2.23584e-01,1.99418e-02,-1.11211e-02,-1.13602e-02,-1.16454e-02,-2.33605e-01,-1.84061e-01,4.50535e-01,5.66382e-05,-2.49677e-02,-1.16348e-01,-2.69161e-04,2.62830e-01,-1.51043e-02,
-6.50930e-05,-8.39813e-01,-1.44963e-02,-2.00642e-02,4.42131e-02,8.26145e-02,-2.65270e-02,-2.32587e-02,-6.85182e-01,-1.76975e-02,-2.79036e-01,-1.74823e-01,-4.50664e-01,-1.29873e-04,-4.92923e-05,-3.05422e-01,3.32788e-01,-1.19922e-03,-2.54716e-02,3.03783e-02,-4.98082e-01,7.51127e-01,-1.26415e+00,-2.30752e-02,-6.57832e-01,-3.30126e-01,-5.95520e-05,-4.08036e-02,-9.00315e-01,1.77218e-04,-1.85807e-01,2.72896e-01,
-4.49359e-05,9.52539e-02,-9.11147e-02,4.36013e-03,3.59476e-01,5.73556e-01,1.95720e-02,-8.71459e-01,-7.42957e-02,1.05673e-01,-1.53934e-01,-7.82919e-04,-1.40221e-01,2.19802e-04,-3.06748e-06,-5.81148e-01,-1.55287e-02,3.87567e-01,6.30189e-02,-3.31235e-01,-1.35328e-02,-8.53738e-02,3.22026e-02,-2.68208e-05,7.15083e-02,1.07987e-01,1.75138e-05,4.94505e-01,1.75867e-01,1.41360e-04,-4.94611e-01,2.35658e-02,
9.59897e-06,-2.49853e-01,-1.07887e-01,3.95878e-01,-4.28468e-02,6.45907e-02,-2.77553e-01,2.73346e-02,-1.19550e+00,-7.43448e-02,-9.40379e-01,8.22543e-02,-2.43557e-01,-7.26011e-05,-2.35666e-05,-9.31201e-03,-2.58740e-01,-1.30875e-01,5.29034e-02,-9.13484e-02,-6.10611e-03,3.72533e-01,2.28426e-01,-6.97288e-01,-3.26064e-01,6.39086e-01,5.95246e-05,-4.53824e-02,-3.60984e-01,-2.60311e-05,-3.67735e-02,6.72323e-03,
-5.22240e-05,-1.06143e+00,2.72061e-01,-1.05188e-01,2.41248e-02,5.41258e-04,-5.55654e-01,-8.16145e-01,8.94035e-01,-3.62268e-01,3.51853e-01,-1.11705e-01,-5.35225e-02,-3.43252e-04,-8.22130e-05,1.31269e-01,6.81108e-02,2.84801e-01,6.94906e-02,2.71700e-01,-2.38587e-01,3.75132e-01,-2.94037e-01,2.47793e-01,-4.19645e-01,-1.44813e+00,3.93395e-05,1.14638e-01,-5.73152e-01,4.77130e-05,-1.56181e+00,-2.35727e-02,
2.36028e-05,-4.49142e-01,3.28655e-02,1.05362e-01,6.95834e-02,1.35543e-01,-1.63353e-02,-9.42144e-02,4.22219e-01,-6.45832e-01,-3.16912e-01,-6.38787e-01,-6.51206e-01,1.49533e-04,-3.81629e-05,-5.94054e-02,-4.97766e-01,-1.18487e-01,-1.34047e-01,-4.67837e-01,4.49379e-02,7.62217e-01,-2.39589e-02,-1.24719e-01,-4.86594e-01,3.80835e-01,-5.85799e-06,-9.34786e-01,-5.45289e-01,2.01243e-04,-8.05685e-01,6.30977e-01,
-1.74482e-05,-7.61732e-01,2.33706e-03,-3.13919e-02,-3.50608e-02,-4.44420e-01,-2.67825e-04,-2.30520e-01,-2.25544e-01,-3.10365e-01,1.15359e-01,-1.86465e-02,-1.83945e+00,-1.66147e-04,-4.90691e-05,6.03463e-01,6.40904e-02,-3.59209e-01,5.97743e-02,-1.75244e-01,-9.31556e-03,1.15999e+00,-1.00576e-01,-5.87513e-03,-9.15816e-01,-6.81948e-01,5.14113e-06,-4.30305e-01,-1.02293e+00,-1.18798e-04,-3.21701e-01,5.85232e-02,
-2.15195e-04,3.63840e-04,3.13899e-02,-3.95524e-04,6.38149e-03,1.40128e-01,-2.19232e-04,4.02002e-01,-2.12300e+00,-3.78014e-03,-1.38082e+00,-2.62216e-01,-5.38542e-01,4.35959e-04,-1.11761e-04,-1.09722e-01,-1.75983e+00,8.07925e-02,4.60870e-02,-1.17559e+00,1.10731e-02,7.62300e-01,6.31565e-02,-1.09220e+00,9.71514e-03,1.33694e-04,-3.63328e-05,-5.09185e-01,-4.37219e-01,3.59005e-05,-3.18821e-04,4.32657e-03,
7.38970e-06,-1.93205e-01,6.68444e-01,-2.07223e-01,1.34890e-01,-8.15733e-03,-1.01854e-02,-4.13411e-02,2.45222e-01,-4.73492e-01,-1.77292e-03,-3.80721e-02,-1.82428e-01,-2.42350e-04,1.08690e-04,3.75161e-03,-1.16057e-01,-3.42146e-02,-1.45245e-02,-3.25717e-04,-2.64569e-03,2.37218e-01,1.40603e-02,-3.55711e-02,-3.02773e-01,-9.92630e-01,1.23470e-04,-2.37037e-01,-1.55462e-01,3.21224e-05,-4.89661e-01,1.47552e-02,
-6.92822e-03,
6.15492e-01,
2.14574e-01,
-1.62954e-01,
-1.95133e-01,
8.21076e-02,
2.51162e-01,
-2.92776e-01,
2.39169e-01,
5.68021e-01,
4.98164e-01,
9.20089e-03,
8.15590e-01,
-2.24702e-01,
-6.92244e-02,
-1.74140e-01,
2.93004e-01,
-1.49063e-01,
-1.84739e-01,
1.29181e-01,
3.78843e-01,
-7.00141e-01,
5.60701e-02,
2.77305e-01,
8.59230e-01,
1.10938e-01,
-1.66021e-04,
2.99006e-01,
8.40773e-01,
-1.00773e-02,
1.19647e-01,
-3.06474e-01,
4.70603e-05,3.96207e-04,3.19777e-05,5.40310e-05,-3.36339e-05,1.46120e-04,-8.25944e-05,2.50442e-04,-8.21533e-05,1.73498e-04,2.32447e-05,8.72086e-06,3.81260e-05,1.17847e-04,4.83734e-05,-2.73217e-06,-9.08845e-06,-9.84992e-05,2.82048e-04,7.95985e-05,-3.42376e-04,-2.30962e-04,-2.35449e-04,-1.47295e-05,-1.50066e-04,9.87748e-05,8.02099e-05,9.91977e-05,-4.58208e-05,-2.40392e-05,-2.01387e-04,4.35063e-06,
2.52863e-02,4.45056e-05,3.14272e-04,-2.89947e-01,-9.48515e-05,-1.97750e-03,5.52895e-05,-1.02921e-04,-7.73558e-03,6.47771e-02,1.14267e+00,1.45198e-02,-7.83257e-03,1.09402e-04,-9.08086e-05,-9.76539e-01,-1.06080e-05,-9.72272e-05,1.47283e-04,1.17623e-04,-9.08247e-02,-7.59488e-02,-2.84403e-03,7.06010e-03,1.28287e-02,-1.79234e-01,1.15476e-01,-4.02033e-01,2.23027e-04,-1.50338e-02,1.81889e-05,-6.29054e-05,
-8.05564e-01,3.86939e-05,2.15076e-05,2.75773e-04,-8.92805e-05,1.36503e-02,8.66705e-05,6.87026e-05,-1.58059e-01,4.12448e-01,-5.66049e-03,-2.13644e+00,4.87151e-03,3.27854e-06,1.82563e-02,1.69314e-04,-3.06550e-02,-8.02393e-05,1.87010e-04,4.69959e-05,-9.60849e-03,-9.68601e-03,-1.96463e-02,1.81807e-02,1.43581e-01,-1.38608e-03,3.36950e-03,-8.36361e-02,3.98235e-04,-2.89708e-04,-4.64005e-05,7.95366e-05,
-1.21183e-01,1.68993e-04,-1.82074e-04,3.36276e-02,-1.47986e-04,4.46746e-02,-1.58112e-04,2.70458e-04,-1.53959e-01,-1.42080e-01,-7.99505e-01,5.05931e-02,1.93029e-03,-5.18067e-05,2.20085e-03,4.68631e-03,2.28180e-02,1.34762e-04,-7.25645e-06,-7.57681e-06,1.22489e-01,2.47043e-02,-8.11423e-01,2.84294e-02,1.69097e-02,-1.07591e+00,-5.70926e-01,2.74254e-02,-2.06643e-05,7.21831e-02,1.12948e-05,9.55147e-05,
-2.07290e-01,4.93596e-05,4.66553e-05,-7.91696e-03,-1.04890e-05,8.78945e-01,3.08852e-05,-3.27159e-04,-1.11590e-01,-2.94475e-02,-1.22967e-02,4.54160e-02,1.45717e-02,1.74124e-04,9.67338e-02,2.23630e-03,-9.78268e-03,1.94417e-04,9.64544e-05,-5.55015e-06,5.21809e-03,-1.04203e-02,-1.13105e-02,7.17899e-01,-8.46720e-03,-5.65430e-03,-8.25623e-01,-1.56364e-03,-7.09145e-06,-2.76578e-03,1.62903e-04,5.89862e-05,
-5.33432e-01,-5.44324e-05,1.50814e-04,2.43853e-02,1.31786e-04,7.02786e-01,9.77944e-05,9.16797e-05,-1.72744e-01,-1.90424e-02,-8.40727e-03,2.52489e-02,-2.81065e-03,-1.79500e-04,5.94739e-02,8.19580e-02,-1.71312e-01,2.31148e-04,-1.94104e-04,8.37711e-05,7.66822e-02,-2.59553e-01,-7.02119e-02,5.82384e-01,-7.65335e-02,-9.33224e-02,7.00863e-02,9.95209e-02,-2.27283e-05,1.30535e-01,1.79043e-04,2.93818e-05,
-1.57056e-01,2.43252e-06,2.71678e-04,6.98864e-02,1.58980e-05,-2.36827e-04,6.73121e-05,-9.45225e-05,-2.22395e-01,-4.87086e-02,-4.02242e-01,-6.75850e-02,-1.29531e-02,7.79841e-05,1.44039e-04,3.42934e-02,1.88184e-01,2.95306e-04,2.30959e-04,2.35080e-04,1.47301e-02,2.85529e-03,-2.57467e-03,-8.76988e-03,3.70759e-02,-8.17315e-03,-2.25763e-01,-9.49610e-02,-2.00555e-04,5.51469e-02,-2.97447e-05,-5.73290e-05,
-1.77559e-01,-4.88171e-05,9.62177e-05,1.91054e-02,1.03536e-04,8.56168e-01,4.17169e-05,-2.00256e-04,-3.35626e-02,2.73266e-03,-4.11924e-01,1.00553e-01,-5.09354e-03,3.51331e-05,1.80223e-02,-2.55243e-02,2.06370e-02,2.68261e-04,-1.83665e-04,-9.69370e-05,8.36828e-02,7.77301e-03,-4.53742e-01,6.88423e-01,1.63463e-01,-6.77945e-01,-1.89778e-01,3.48921e-02,-2.45578e-04,-2.18060e-02,-1.48827e-05,1.83410e-04,
-4.58033e-02,1.33095e-04,5.75333e-05,1.99617e-01,-1.18235e-04,-8.75337e-03,5.55393e-05,-5.17337e-04,-6.63713e-02,-2.14269e-01,-3.52089e-02,6.72441e-02,-4.32075e-03,-1.57310e-04,1.12752e-02,-5.85891e-01,2.03659e-01,1.24697e-04,3.30469e-04,-1.55042e-04,-2.12831e-01,4.29358e-02,-4.24915e-02,-1.32951e-02,-8.05844e-02,-7.14890e-02,-2.88898e+00,6.56734e-03,8.11779e-05,-9.15888e-01,1.37794e-05,1.28790e-04,
3.49505e-01,3.83517e-05,8.96586e-05,4.54466e-02,-1.50358e-04,1.68131e-03,-1.27585e-04,-8.45448e-05,-1.89583e-02,-7.15903e-01,1.79662e-01,8.36381e-01,-4.02505e-01,3.78171e-05,-9.37847e-03,-2.15223e-01,-1.82271e-01,3.16556e-05,-6.82532e-05,-2.64281e-04,1.24318e-02,1.46579e-01,3.90587e-02,4.75545e-02,1.56574e-02,2.65308e-02,2.70406e-01,-2.49230e-03,-1.27484e-04,-4.49428e-01,-3.62321e-05,-1.26372e-04,
-1.59897e-02,2.37610e-04,-1.07543e-04,-2.83498e-02,4.20220e-05,3.03216e-03,-1.44425e-04,4.30021e-04,4.58005e-03,2.80293e-01,-9.37928e-02,-5.94645e-03,-1.96559e-02,1.73968e-04,2.54221e-05,-4.62293e-01,-1.78371e-01,-5.07188e-06,-2.32061e-04,-1.21781e-06,1.82017e-02,1.55392e-03,-2.15747e-02,2.45972e-02,-3.78541e-02,2.00495e-01,-1.93981e+00,3.28258e-03,2.02716e-05,-7.73921e-01,-2.43647e-04,2.31897e-05,
-7.77344e-03,-1.67735e-04,1.38569e-04,4.77045e-01,6.95763e-05,6.60892e-03,1.86486e-04,-1.15959e-04,-1.01271e+00,-1.90429e-01,6.70965e-02,1.82613e-02,-7.39408e-02,2.66607e-04,6.97464e-05,-4.42007e-03,6.88001e-01,3.44704e-04,-1.29333e-04,1.26048e-04,6.37231e-03,3.38648e-02,1.43921e-02,-1.52452e-02,2.01363e-02,3.90460e-02,-1.54638e+00,-1.55959e-02,3.71454e-05,-9.22084e-02,-7.64617e-05,-7.89968e-05,
-6.18028e-03,-6.79411e-05,-1.37542e-04,-8.35270e-02,-2.14773e-05,-3.23451e-03,6.97791e-05,7.33085e-05,3.51581e-02,-8.03781e-03,1.88868e-01,-1.71789e-02,-7.89747e-01,6.01879e-05,-2.52149e-05,-2.25331e+00,-1.44554e+00,-7.76307e-05,1.16667e-04,-1.55089e-04,-1.00734e+00,-1.46237e-01,1.30662e-01,4.43964e-02,-5.04017e-02,6.69429e-02,1.14295e-01,-3.00885e-01,-1.16176e-05,-2.54283e-01,-3.37117e-04,6.30967e-05,
3.95362e-05,6.87711e-05,-3.29446e-07,-1.00250e-05,4.71053e-05,-1.71055e-04,3.74566e-07,-1.26340e-04,2.13574e-05,-4.50152e-04,-9.84792e-06,1.09711e-05,-6.03523e-05,-1.20451e-04,-7.24125e-05,-8.46205e-07,-2.52916e-05,1.43779e-04,-1.03289e-04,-8.47715e-07,-3.74770e-05,-4.78052e-06,-8.89409e-05,6.59868e-05,2.12669e-04,-3.66375e-05,1.72193e-04,-6.85473e-05,1.43293e-07,-1.56092e-04,4.11894e-06,1.88252e-04,
-1.26756e-04,3.38562e-04,4.17010e-05,-6.31709e-05,-2.54833e-05,-4.76733e-05,1.62662e-04,-3.81776e-05,-1.24241e-04,-5.85553e-05,-6.06491e-05,7.82435e-05,-1.32974e-04,1.33131e-04,2.61599e-05,-6.27261e-05,7.79361e-05,1.06530e-04,4.51347e-05,3.74102e-05,2.69422e-05,2.59728e-05,-4.59101e-05,4.32170e-05,-6.02342e-05,-1.25882e-04,-5.10772e-05,1.95739e-05,-2.79430e-04,-1.46012e-04,3.15733e-04,-8.96648e-05,
-2.49543e-01,1.93846e-04,8.18012e-05,-2.89919e-02,-1.49979e-04,4.81415e-01,-6.23759e-05,8.99003e-06,-6.68400e-02,-3.29284e-01,-2.54598e-03,-4.59827e-02,-2.93286e-03,3.47168e-05,4.75289e-02,1.49414e-02,9.27542e-03,-2.21907e-05,2.45434e-04,1.15983e-04,-6.56840e-04,-3.22208e-02,-2.03134e-02,3.97382e-01,-2.96502e-03,-2.59018e-02,-1.04059e+00,-4.23843e-01,4.86683e-06,5.71062e-03,-3.07243e-06,1.01332e-04,
-3.40583e-02,-6.21782e-05,7.50673e-05,8.59753e-02,-9.75613e-05,1.21012e-03,-5.41869e-05,1.18562e-04,-4.93956e-02,-2.55400e-03,-1.06958e+00,2.69006e-03,-5.22403e-04,5.94491e-05,2.60921e-04,-2.87911e-01,8.18118e-02,-1.58706e-04,1.03954e-04,-5.02903e-06,-1.15435e-01,4.04276e-03,3.14698e-02,2.59911e-03,1.20517e-01,1.59084e-01,-1.08227e+00,7.95292e-04,-5.06617e-05,-4.55305e-01,-1.24992e-04,-2.49542e-04,
-7.51559e-01,1.80211e-04,1.04895e-04,-1.66441e-02,2.16882e-04,4.95488e-02,-1.38944e-05,1.34453e-04,-3.64010e-01,1.21281e-01,-2.05686e-01,-5.81635e-01,2.21730e-04,1.51855e-04,3.78614e-03,1.65079e-03,2.96971e-01,-7.99225e-05,-1.05049e-04,1.03221e-04,-4.20382e-03,4.95433e-03,-1.09529e-02,3.78437e-02,5.46298e-02,-2.34518e-02,-6.61806e-01,-3.89478e-02,1.28910e-04,-2.29796e-03,7.43153e-05,-4.96428e-05,
-2.46806e-01,4.59665e-05,1.10640e-04,-1.66097e-03,1.69481e-04,1.33289e-02,2.10387e-05,-1.33289e-04,-1.73907e-01,-4.48901e-02,-1.30496e-02,-2.04831e-01,2.29306e-03,5.15531e-05,-4.70846e-03,-2.64738e-03,-9.15254e-03,-1.05042e-04,-1.62870e-05,1.10671e-05,1.03389e-03,-5.84612e-03,1.35468e-03,7.33245e-03,6.33488e-02,1.80914e-03,-1.19751e+00,1.05066e-02,-2.85556e-04,-2.80980e-03,1.38569e-04,-5.37099e-05,
-1.85486e-02,4.59835e-05,-1.05593e-04,1.72353e-01,9.92884e-05,1.37817e-03,1.12662e-04,6.06446e-05,1.37053e-01,2.20938e-03,3.03328e-02,2.84468e-03,-3.68329e-02,1.51076e-04,1.07200e-05,-1.16148e-04,-2.35483e-01,5.08627e-05,1.37581e-05,5.15551e-04,4.49029e-02,1.89158e-02,1.15825e-01,-2.03550e-02,-7.42919e-01,3.81299e-02,-1.04387e+00,1.60840e-01,-9.92466e-05,-9.75309e-02,-2.25642e-06,7.62830e-05,
-8.00867e-03,2.07706e-05,-4.72871e-05,-1.76765e-02,1.62791e-04,1.75451e-04,-7.58473e-05,1.01831e-04,-1.07086e+00,1.64922e-02,3.12419e-01,1.01777e-03,-2.09266e-02,8.80725e-05,-8.39654e-03,1.07299e-03,1.85118e-04,-1.91100e-04,-7.67975e-05,2.78307e-05,-1.18864e-02,-1.49195e-02,-8.51060e-03,2.03722e-01,-4.47681e-02,1.39305e-02,1.30524e-01,-9.06843e-02,1.71334e-04,3.84090e-03,1.80878e-04,-2.91435e-04,
-4.45980e-02,-3.30280e-04,-2.88568e-04,-1.32037e+00,5.42904e-05,9.24873e-03,5.89880e-05,1.46218e-04,-1.00517e-01,-3.95395e-01,-1.08783e+00,-3.45104e-01,1.85762e-03,-2.24799e-04,1.17252e-04,-2.33073e-02,-7.67953e-01,1.10441e-04,-1.23912e-04,1.66318e-04,-1.59186e-02,-4.46622e-01,-1.88065e+00,9.29265e-03,-2.54554e+00,-2.66560e+00,-1.55926e+00,-2.23180e+00,-7.38626e-05,-4.08524e-02,-1.75050e-04,1.94024e-04,
-6.58854e-02,2.12333e-04,5.49209e-05,-1.35060e-02,1.91604e-04,7.75413e-01,-1.37790e-04,3.31952e-05,-1.13864e+00,-2.80304e-01,-2.43475e-02,3.34201e-03,-2.89861e-02,4.22222e-04,-7.87495e-03,5.70370e-02,1.98447e-01,-1.26537e-04,9.42389e-05,1.20487e-04,-5.31928e-03,-1.55345e-02,-5.10843e-04,5.66330e-01,1.82112e-01,-1.24161e-03,4.90583e-02,-8.56322e-02,-3.58472e-04,4.14216e-02,-5.75770e-06,-1.71350e-04,
-2.25099e-02,-7.22027e-05,1.44650e-04,7.47622e-02,-4.71740e-05,-7.65833e-04,-1.84517e-04,-8.51344e-05,-1.55874e-02,1.87835e-02,-1.93371e-02,-2.58118e-02,-3.69606e-03,7.55164e-05,2.35343e-04,-3.56214e-02,3.04936e-02,-1.29616e-04,1.39242e-04,-6.64605e-05,6.63282e-03,8.13046e-03,1.40610e-01,1.77025e-02,-4.92818e-02,1.79017e-01,-1.32757e+00,5.07064e-03,4.59814e-05,-3.64607e-01,-3.04180e-05,-1.19228e-04,
-4.34559e-03,-1.49867e-05,2.84762e-04,-7.35600e-03,3.03982e-05,-7.66403e-03,8.21540e-05,1.70061e-04,1.38580e+00,-4.48840e-02,3.18555e-01,2.16205e-03,-7.55885e-01,-2.13864e-04,-5.76982e-03,-1.25117e-01,-3.85687e-01,-9.13367e-05,-5.13165e-05,3.17459e-04,-2.51359e-02,4.83262e-03,1.05744e-01,-1.04948e+00,4.75431e-02,2.62943e-01,4.98524e-01,-2.25073e-02,-1.66560e-04,8.13179e-02,-1.34573e-04,3.12523e-04,
3.22482e-03,-1.23106e-04,8.19043e-05,-1.21084e+00,-1.35210e-04,-4.29834e-02,-3.95404e-05,1.77008e-04,-1.19761e-02,1.13457e-02,3.44203e-01,-6.52525e-02,1.37708e-01,1.73083e-04,4.24077e-02,2.27878e-01,-9.35969e-02,-6.46897e-05,-1.06444e-04,-2.19603e-04,-9.09753e-03,-7.43760e-01,-1.39868e+00,-4.79826e-02,-2.16704e+00,-1.96348e+00,1.20582e-01,-1.81798e+00,2.49857e-06,4.22951e-01,3.06257e-05,6.42308e-05,
-7.22656e-05,8.95846e-05,3.03036e-04,1.38476e-06,7.69399e-05,3.53973e-05,1.41200e-04,6.97531e-06,-6.52486e-06,1.51623e-05,7.20699e-06,-2.48137e-05,-6.70193e-05,-2.48413e-04,1.46410e-04,-1.15044e-04,3.39817e-05,-1.81772e-04,-1.28841e-05,2.14458e-04,5.79432e-05,-1.56465e-05,3.52468e-05,2.08563e-04,-5.87177e-06,4.90839e-06,-6.33429e-06,-5.38039e-06,7.87099e-05,2.08402e-05,-1.12632e-04,8.88597e-05,
3.49360e-02,1.02132e-04,2.10335e-05,2.54035e-01,1.89081e-05,-5.76318e-01,1.01116e-04,-8.34478e-05,5.71874e-01,1.76892e-01,-3.10412e-01,9.71932e-02,-1.56257e-01,7.63383e-05,-2.02829e-03,-3.10702e-02,9.18297e-02,1.46940e-04,1.95003e-04,3.02912e-05,2.36418e-01,2.31553e-01,4.25161e-03,-4.77903e-01,-4.42484e-01,-8.88782e-02,4.60779e-02,1.59257e-01,-1.06305e-04,1.06128e-03,-2.25344e-05,1.12741e-04,
-5.93776e-03,1.19344e-04,6.78473e-06,-3.96791e-02,-1.18431e-04,-8.92876e-04,-1.04942e-06,2.64104e-04,-7.88245e-01,-2.38011e-02,6.79361e-01,-1.37340e-01,-8.44933e-01,-5.81067e-05,-4.18262e-04,-2.00487e+00,-1.46784e+00,2.74406e-04,-1.26470e-04,2.83906e-04,-9.68800e-01,-1.68043e-02,3.01648e-02,6.10907e-01,-4.94029e-03,3.26747e-02,3.69042e-01,-2.35708e-01,1.25108e-04,-7.86553e-02,4.99329e-05,-1.85689e-05,
-4.23783e-06,2.32787e-05,1.08733e-04,-6.79377e-05,6.94748e-06,-8.87067e-05,2.10526e-05,-3.56870e-05,9.18225e-06,2.78160e-04,3.01094e-06,2.07408e-04,-2.84428e-04,2.38442e-04,1.47958e-04,2.11683e-05,-1.32010e-04,1.22048e-04,1.29536e-04,2.25361e-04,3.72642e-05,-2.63835e-04,2.81773e-05,-1.17914e-04,-1.45396e-05,-8.35886e-05,6.32907e-05,-7.25585e-05,1.02140e-04,-1.67564e-04,2.57150e-05,1.29390e-04,
-2.12525e-02,6.85885e-05,4.44494e-05,-8.38573e-01,7.41660e-05,5.03610e-02,-2.66480e-04,2.00238e-04,2.96944e-02,-7.52852e-02,1.84273e-01,1.51396e-02,2.15184e-01,1.27422e-06,1.43169e-02,1.39537e-01,-1.18308e-01,-9.05561e-05,1.53450e-04,6.09403e-05,1.36398e-01,-1.23979e-01,-9.60670e-01,-3.16616e-03,-1.35142e+00,-1.43927e+00,-7.95603e-02,-1.51551e+00,-1.03050e-04,4.40633e-01,-3.16119e-04,5.14657e-05,
4.77737e-02,-4.57828e-05,1.23696e-04,-1.61505e-05,-1.92034e-05,7.62171e-03,-2.66618e-04,-1.55509e-04,1.14999e-05,-2.61156e-01,-1.08657e-02,-2.75504e-02,-2.87225e-03,2.43377e-04,2.91276e-02,-3.54435e-03,-7.25999e-06,-2.29528e-04,2.56047e-04,-6.97359e-05,-6.49062e-03,5.68261e-06,-1.24254e-05,2.04098e-03,-4.91052e-02,-1.76520e-03,-7.80862e-01,3.72019e-04,-4.11656e-05,-5.06874e-03,2.51928e-04,-1.44237e-04,
2.51771e-01,
-1.14928e-01,
-2.08400e-01,
5.20862e-01,
-5.80593e-03,
-3.48889e-01,
-7.52724e-02,
-1.25957e-01,
1.28104e-01,
3.31508e-01,
-4.77559e-01,
2.13272e-01,
1.29888e-01,
-1.15697e-01,
-8.04878e-02,
3.28557e-01,
2.93846e-01,
-1.43418e-01,
-2.76523e-01,
-1.89747e-01,
1.35537e-01,
3.85992e-01,
2.89105e-01,
1.74499e-01,
4.12096e-01,
3.68710e-01,
4.57706e-01,
5.45153e-01,
-2.82690e-02,
5.40788e-01,
-2.27310e-01,
-3.41760e-03,
2.94686e-04,4.73981e-01,2.83596e-02,
5.21752e-05,-7.66170e-05,-4.31968e-05,
2.99708e-04,2.78615e-04,-2.97203e-05,
1.01119e-02,2.96804e-03,-5.56182e-01,
5.10233e-05,7.65336e-05,1.07926e-04,
-3.07909e-01,-2.95621e-02,-6.27163e-04,
-1.26474e-04,1.19279e-04,7.41480e-05,
-3.30344e-05,-3.41042e-05,-6.04261e-06,
-9.23333e-01,4.04854e-03,4.17857e-02,
-4.09032e-02,-7.15386e-01,4.02397e-02,
9.74796e-04,-8.79845e-02,-1.19109e+00,
-7.39654e-03,7.91776e-01,-1.36582e-02,
7.70003e-02,4.47206e-02,-4.79692e-01,
2.32543e-05,-7.20837e-05,-1.29698e-04,
-9.38992e-03,-5.06691e-03,-7.22913e-02,
1.44762e-03,6.05338e-02,-8.24341e-01,
1.79124e-02,2.08416e-03,1.05442e+00,
4.56038e-04,2.22774e-04,3.65287e-06,
1.51184e-04,-6.80334e-05,9.54362e-05,
1.55915e-06,2.11983e-05,-6.23433e-05,
4.84231e-02,2.29732e-02,-3.31890e-01,
6.22404e-02,-8.86037e-02,-2.71151e-01,
1.38113e-01,-1.07758e-01,-6.55487e-01,
3.73670e-01,3.62862e-02,2.16113e-02,
8.43349e-03,-7.09925e-03,-1.31445e+00,
5.88800e-03,-1.17245e-01,-1.12087e+00,
8.80016e-02,-3.36348e-02,2.20944e+00,
1.29479e-02,1.04883e-01,-1.00103e+00,
-1.81086e-05,-7.46106e-05,6.91712e-05,
-1.40569e-02,-4.62515e-02,6.04843e-01,
1.13336e-04,6.51640e-05,-2.66290e-04,
8.90091e-05,1.18631e-04,5.74561e-05,
1.32354e-01,
-2.11770e-02,
5.09114e-02,
