// Neural Network File Format by Kyle Julian, Stanford 2016
6,6,3,32,
6,32,32,32,32,32,3,
0,
-5.5,-5.5,0.0,-1.5,-1.5,-1.5,
10.0,5.5,5.0,1.5,1.5,1.5,
2.25,0.0,2.5,0.0,0.0,0.0,0.0,
15.5,11.0,5.0,3.0,3.0,3.0,1.0,
8.06074e-01,-9.07782e-02,-4.99310e-01,-1.63103e-01,8.00799e-01,1.35203e-01,2.59096e-01,-1.61027e-01,-6.09072e-01,3.67905e-01,3.41496e-02,-3.25471e-01,2.02853e-01,1.39263e-01,5.31015e-01,-4.84354e-01,-8.95089e-02,6.44932e-01,2.76865e-01,1.11291e-02,-2.96798e-02,7.12914e-01,-1.74426e-01,4.21345e-01,-1.95509e-01,-5.46802e-01,3.24739e-01,7.33824e-01,-6.42028e-01,-1.20569e-01,-1.47680e-01,-3.48607e-01,
-4.97330e-01,-1.92015e-01,-6.17714e-01,-5.32569e-01,-5.25166e-01,2.68347e-01,6.95982e-01,-2.16126e-01,2.17004e-01,6.66506e-01,1.02186e+00,6.47238e-01,6.54316e-01,1.30796e-02,1.04481e+00,-1.56890e-01,-1.66782e-01,-1.00727e+00,-1.28559e-01,-5.38179e-03,-6.73386e-01,3.88280e-01,-5.64556e-01,8.57096e-01,-3.84060e-01,7.92518e-01,6.26875e-01,-4.92208e-01,3.83771e-01,-7.46010e-01,7.83175e-01,-7.07728e-01,
2.74247e-01,1.52893e-01,-5.78793e-01,4.14191e-01,-9.77243e-02,2.74133e-01,-3.27081e-01,-2.28704e-01,1.55613e-01,-2.46598e-02,1.63654e-03,1.23991e-01,-3.58211e-01,-3.38996e-01,-2.40351e-01,-6.66668e-02,-2.96123e-01,-3.12695e-01,4.54720e-02,3.07303e-02,-3.00105e-05,4.65730e-02,2.72759e-01,5.35059e-01,-3.91818e-01,-7.29594e-02,2.63977e-02,-1.10439e-01,-1.99166e-01,2.39311e-01,-3.24503e-01,1.42994e-01,
3.71782e-01,-2.29636e-01,-3.56864e-01,-6.28332e-02,3.80360e-01,1.21663e-01,1.52804e-01,5.01179e-01,-3.49860e-01,-1.51073e-01,9.65297e-02,-1.86129e-01,-3.17551e-01,2.42148e-01,3.56588e-01,-4.35899e-01,-5.03996e-02,2.65046e-01,-2.24791e-01,-1.91875e-02,-7.23565e-02,3.04208e-01,-8.05308e-02,4.40074e-01,-2.36647e-01,-5.90306e-01,-1.52932e-01,3.56613e-01,-4.54714e-01,-1.29834e-01,3.79514e-01,-1.56614e-01,
3.13123e-01,2.73990e-01,-3.36202e-01,-4.04272e-01,-2.00739e-01,-3.26444e-01,3.81889e-01,-8.31624e-02,2.93814e-01,3.92942e-01,1.25621e+00,3.98636e-01,8.80302e-01,8.79448e-02,1.13954e-01,1.79889e-02,-2.30444e-01,-2.31239e-01,-1.52287e-01,4.36693e-01,-8.44568e-01,2.06672e-01,-3.21974e-01,5.51646e-01,4.84010e-01,8.49774e-01,-1.94769e-01,6.87967e-01,-2.95272e-01,-3.18035e-01,5.62024e-01,-5.51657e-02,
1.11561e-01,2.12450e-01,-3.98805e-01,4.54319e-01,1.29104e-01,2.21081e-01,3.87373e-01,-2.35846e-02,4.78281e-02,-3.91976e-01,2.64882e-02,8.14090e-02,1.31574e-01,-8.41894e-02,-3.65413e-01,6.88298e-01,-4.53707e-01,-6.02650e-02,-2.10439e-01,-5.59741e-03,-3.01396e-02,1.23525e-02,-3.55535e-01,3.88789e-01,-3.58135e-01,-1.78402e-01,3.31653e-01,4.17056e-02,-1.22849e-01,9.09965e-02,2.82017e-01,2.95855e-01,
1.08897e-01,
-6.85980e-01,
7.84159e-01,
-6.97584e-01,
8.49724e-01,
-3.19821e-01,
5.46876e-01,
4.36393e-01,
-7.56108e-01,
-1.21936e-01,
4.08175e-01,
-3.32733e-01,
3.78182e-01,
7.68235e-01,
5.68988e-01,
-6.03033e-01,
9.92979e-01,
-9.99427e-03,
7.93332e-02,
6.08700e-01,
-2.33411e-01,
-1.08778e+00,
-5.54070e-01,
-7.02013e-01,
4.74732e-01,
-1.90829e-02,
-3.34437e-01,
3.50157e-01,
-3.16379e-01,
-8.80772e-01,
-1.32886e-01,
-3.75142e-01,
3.80549e-01,3.59217e-01,7.91481e-02,3.49450e-01,-6.92527e-01,2.22634e-01,-6.85531e-01,1.63477e-01,7.80417e-02,1.00473e-01,-4.10344e-01,3.78111e-01,-5.51276e-02,6.43320e-02,3.95313e-01,-2.72389e-01,2.25071e-01,3.96402e-01,9.18523e-02,2.93645e-01,-3.81873e-01,-5.81005e-02,6.45077e-01,2.63008e-01,-3.98153e-01,-1.06515e-01,-4.90974e-02,-1.35429e-01,-2.40630e-01,-3.23333e-01,8.02896e-02,2.73587e-01,
3.08511e-01,-1.89637e-01,-7.76583e-02,-2.95564e-01,4.67270e-02,2.18084e-01,-2.04534e-01,5.40359e-01,4.90905e-02,-1.42609e-01,-1.20366e-01,4.67643e-01,-1.19397e-01,2.24306e-01,-2.11507e-02,-5.99806e-02,-1.30761e-01,-1.36631e-01,-5.83024e-01,-5.18015e-02,9.33147e-02,1.05035e-01,6.63338e-02,-9.02169e-02,-4.96446e-02,-6.00638e-01,-1.90374e-01,3.73052e-01,1.59282e-01,-2.51529e-01,-9.79480e-02,-2.26448e-01,
-2.63696e-01,5.78991e-01,-2.45970e-01,1.12217e+00,-3.16645e-03,8.86013e-02,-1.26693e+00,2.91750e-01,1.79260e-02,-1.41717e-01,-4.44161e-01,-7.97190e-01,1.13106e+00,1.73538e-01,5.50302e-02,7.78783e-01,3.83351e-01,-7.87880e-02,-3.54069e-01,-2.29559e+00,1.30176e-01,1.59920e-01,-1.15739e+00,7.15262e-01,3.22824e-01,8.92602e-01,-3.31904e-02,8.96431e-02,-3.63207e-01,4.61234e-01,-8.17610e-02,2.73780e-01,
1.28895e-01,2.17798e-01,-6.55076e-02,-1.48227e-01,-2.63657e-01,1.03835e-01,2.65029e-01,-6.18741e-02,-3.19852e-02,4.33142e-01,3.65668e-01,6.21492e-01,-5.87179e-01,-3.15011e-02,2.46187e-01,-9.10353e-01,1.76750e-01,5.79111e-01,6.99749e-02,-3.89925e-01,-4.72945e-01,-1.99952e-02,-4.70973e-02,2.80978e-01,2.23765e-01,-6.00808e-01,-2.03650e-01,2.23353e-01,6.69933e-01,-9.58154e-01,-1.99843e-01,-2.14351e-01,
-2.00691e-01,4.47148e-02,-1.68789e-01,7.11434e-01,-3.53771e-01,1.24827e-01,-2.58365e-01,1.33609e-01,3.43560e-02,-3.15743e-01,5.69119e-02,3.54907e-01,7.53225e-01,1.91701e-01,4.40280e-01,-6.76501e-01,4.82733e-02,-2.29023e-01,7.77453e-02,-6.76608e-02,-3.33417e-01,1.97329e-01,8.01183e-01,-1.10503e-01,-8.68358e-02,5.73593e-01,-2.07183e-01,-3.40142e-01,-3.84892e-01,7.09372e-02,-3.09159e-01,-3.69246e-01,
2.31368e-01,1.91799e-01,-6.04948e-02,-9.39449e-01,1.19487e-04,-2.52247e-01,2.84188e-01,2.04129e-01,-3.02254e-01,-1.33586e-01,1.90060e-01,1.44452e-01,-2.31789e-02,3.66576e-01,-2.75502e-01,-6.70694e-02,-5.20018e-01,1.63043e-01,1.81729e-01,-9.71025e-01,-6.04519e-01,7.64214e-02,2.06972e-01,3.89157e-02,4.55379e-01,-5.69564e-02,-3.70639e-03,2.41703e-01,-1.90347e-01,-5.19404e-01,2.14287e-01,-1.15884e-01,
2.79772e-02,-7.97700e-01,4.59577e-01,5.93012e-01,-3.43105e-01,-1.32412e-01,9.52837e-02,-1.15100e-01,6.57959e-03,1.74961e-01,-2.65570e-01,-4.06960e-01,5.75202e-01,5.44747e-01,-1.61048e-01,-2.16648e-01,8.23269e-01,-3.37984e-01,7.76101e-02,-7.16760e-01,-2.24536e-01,-1.94090e-01,7.05943e-03,5.05870e-01,-1.02151e+00,-2.62991e-01,-9.62160e-02,-1.57190e-01,-1.35618e-01,7.28190e-01,-4.99342e-01,-5.53007e-01,
-4.19557e-01,-1.38849e-01,1.29290e-02,8.27284e-02,-8.12979e-03,1.73789e-01,1.59056e-01,2.93743e-01,-2.56863e-02,3.18272e-03,-3.35968e-01,8.19783e-02,3.41680e-01,-1.27424e-01,5.64940e-01,2.46915e-01,2.86028e-01,-2.00698e-01,1.21318e-01,1.34541e-01,-1.61125e-01,-2.99160e-01,-3.84396e-01,-4.00198e-02,-1.98112e-01,1.26467e-01,-5.52567e-02,-4.77841e-01,4.49406e-02,2.93050e-02,-8.02341e-01,-2.04319e-01,
2.77837e-01,5.64833e-01,-5.79350e-02,1.27217e-01,3.49613e-01,2.49086e-01,-5.70620e-01,2.08206e-01,-2.74807e-02,6.68478e-01,6.66774e-02,2.10671e-01,-1.73550e-02,1.12233e-01,-1.23165e-01,-8.44619e-01,1.22841e-02,2.70594e-01,-2.91705e-01,-2.19485e-01,5.18838e-01,4.75138e-02,-9.46953e-01,-1.32052e-01,7.76424e-02,1.26388e-01,-8.53552e-02,4.31865e-01,-4.21859e-02,4.59620e-02,-1.33730e+00,-1.37465e-01,
2.37255e-01,-1.03038e-01,-3.18663e-01,6.35216e-01,-3.83656e-01,-5.30799e-02,-7.24890e-01,-1.09271e-02,1.41288e-02,-4.85703e-01,-3.83528e-01,-2.96997e-01,1.76377e-01,-1.93785e-02,-2.15394e-01,9.44489e-02,-7.52358e-01,1.38855e-01,-2.41022e-01,-1.27209e-01,-6.14951e-01,1.62239e-01,2.39253e-01,-4.76421e-01,-8.46875e-01,1.78936e-01,-1.07626e-01,1.47582e-01,-2.95221e-01,-4.01873e-01,4.22537e-01,-2.61694e-01,
-3.39344e-01,-1.45342e-01,9.12494e-01,-1.30887e-01,1.48251e-01,2.79380e-01,-6.74241e-01,1.37199e-01,2.17185e-01,-3.12652e-01,-1.34204e-01,-2.86723e-01,-4.41561e-02,-3.55366e-02,-7.12808e-01,-5.85031e-01,-6.17456e-01,1.24426e-01,-8.29967e-01,2.64682e-01,1.11403e-01,-3.91710e-02,4.46534e-02,-1.18797e+00,-1.64840e+00,3.20250e-01,1.33300e-01,2.91215e-02,-5.90810e-01,3.46133e-01,1.24806e-01,-3.03717e-02,
1.28063e-01,1.84135e-01,5.68458e-02,-5.30234e-01,3.30565e-01,1.32379e-01,-2.93154e-01,3.25039e-01,7.59969e-04,4.77856e-01,1.45807e-01,1.03920e-01,-1.23466e-01,7.32181e-03,-5.76467e-01,-2.20128e-01,-7.31864e-02,-1.23435e-01,-7.24594e-03,-2.50457e-01,-4.30142e-02,-1.13478e-01,-4.18050e-01,-2.08435e-01,1.27265e-01,1.00818e-01,-4.14953e-02,3.13492e-01,-4.16346e-02,-6.11403e-02,-1.29184e+00,-2.12156e-01,
-1.23232e-01,-7.30541e-02,-5.62900e-01,-6.74800e-02,1.83578e-01,-1.44737e-01,6.39751e-01,-1.98836e-02,1.89189e-02,-2.41521e-01,-1.76929e+00,-4.53567e-01,4.01185e-02,-3.65480e-02,-3.45243e-01,-7.93305e-01,-5.78665e-01,4.05856e-01,-5.81865e-01,1.60736e-01,5.21350e-01,-1.39284e-01,6.05002e-01,-1.17640e-01,-1.00434e+00,1.59537e-01,1.77791e-01,-5.22363e-01,2.29566e-01,-1.09823e-01,-1.08919e+00,-4.65502e-01,
-4.31524e-02,-8.79583e-01,1.28317e-01,4.49222e-01,-1.59887e-02,2.46962e-01,-5.99108e-01,-7.54069e-02,-3.34147e-02,2.58968e-01,-5.66587e-01,-1.09079e-01,6.22895e-01,8.69463e-02,-1.27134e-01,-1.61714e-01,1.49388e-01,-3.28885e-02,-2.68576e-02,2.69058e-01,4.34384e-01,1.95009e-01,2.09686e-01,3.09539e-01,-3.75198e-01,2.11243e-01,1.39139e-01,-5.71871e-01,1.40869e-01,3.83985e-01,2.56438e-01,4.84329e-02,
3.00168e-01,-7.05470e-01,5.97879e-01,3.08611e-01,4.95856e-01,1.19960e-01,2.34946e-01,3.52572e-01,-6.81165e-02,-5.30004e-01,-1.69790e-01,-6.68337e-01,2.85229e-01,-2.12769e-01,-1.10046e+00,4.33627e-01,-7.25770e-01,4.91298e-01,-8.71878e-01,-2.00107e-01,-6.27301e-01,2.68339e-01,3.49194e-02,-1.56460e+00,1.90201e-01,1.97737e-01,-2.23250e-01,2.25452e-01,-1.73753e-01,4.82855e-01,-1.79120e-01,-7.73481e-02,
5.09559e-02,3.03695e-01,8.87356e-02,-3.79436e-02,5.56913e-01,-2.34543e-01,1.57214e-01,-1.35841e-01,7.51544e-02,-5.27407e-02,9.44093e-01,4.91068e-01,-1.23614e+00,9.15600e-02,2.14844e-01,-8.49908e-01,9.85049e-02,2.97460e-01,4.16303e-01,-4.50440e-01,2.11323e-01,2.04804e-01,-1.57059e-01,-2.49920e-01,3.29998e-02,1.38353e-01,1.87031e-02,3.04096e-01,4.62153e-01,-5.22833e-01,-4.00901e-01,2.96226e-01,
-2.32640e-01,-3.02952e-01,-1.17028e-02,3.76622e-01,7.81239e-02,-7.77870e-02,-3.85880e-01,-1.22483e-01,-2.87445e-02,-1.59019e-01,-7.41621e-01,-1.31691e+00,6.25491e-01,-1.09329e-01,1.69070e-01,3.03189e-01,2.32347e-01,-5.78915e-01,3.43355e-01,2.59182e-01,-1.20399e-01,-1.25691e-01,-8.50304e-02,1.98225e-02,2.15768e-01,3.43767e-01,-2.49771e-01,-8.24820e-01,-5.41148e-01,6.23219e-01,3.14832e-01,7.29149e-02,
3.76567e-01,-7.41310e-01,-6.96644e-01,9.59313e-02,1.34680e-01,-9.03844e-02,3.75525e-02,-3.65284e-03,1.82039e-02,-2.77085e-01,-2.01791e+00,-1.29082e+00,-1.86197e-01,-2.98223e-02,-1.45588e+00,-1.63245e+00,1.58043e-01,-1.65527e+00,-2.15687e+00,-1.01873e+00,7.98969e-02,-4.08731e-02,-9.13083e-01,-5.98904e-01,3.21012e-01,-1.04164e-01,7.48172e-02,-4.21797e+00,-2.19791e-01,5.44905e-01,-1.65357e+00,4.08663e-01,
1.92430e-01,1.99603e-01,-4.62041e-01,-1.63943e-02,2.15990e-01,-7.91861e-02,3.29216e-01,-2.67010e-01,-6.05235e-02,-2.94510e-01,-1.07386e-01,-2.16955e-01,8.79053e-02,-9.60734e-02,2.32217e-01,4.25661e-01,-6.65052e-01,1.70398e-02,1.58802e-01,-4.49647e-01,-2.93167e-01,-1.35965e-03,1.74378e-01,-1.39420e-01,-1.10662e-02,1.43925e-01,1.51813e-02,3.23205e-02,-1.44479e-01,-3.91112e-01,4.30020e-01,-3.07147e-01,
-1.07303e-01,-1.34927e-01,1.45739e-01,-5.08059e-02,4.83649e-02,6.24654e-01,-3.72377e-01,-4.64826e-01,1.17939e+00,8.77806e-02,-1.75571e-01,-1.24535e-01,-1.05615e-01,-8.18222e-02,5.95270e-02,1.91821e-02,-2.18247e-01,-3.77573e-01,-6.49313e-02,2.33786e-01,1.59986e-01,-2.02867e-01,-5.01610e-02,-1.93137e-01,1.51689e-01,-1.45335e-01,-1.34679e-01,-9.37389e-03,7.73544e-02,-1.03851e-01,1.33273e-01,1.85514e-01,
-1.51478e-01,1.64986e-01,-3.59010e-01,4.62929e-01,-3.08364e-02,-2.34253e-01,2.34242e-01,2.97398e-02,-3.49208e-01,-2.42787e-03,2.91988e-01,-1.36752e-01,-2.94300e-01,4.47348e-02,8.23529e-01,-1.92740e-01,-4.86507e-03,5.56838e-01,3.02288e-02,-5.95803e-01,8.82628e-01,-8.26879e-02,-7.43317e-02,1.81575e-01,-1.29676e+00,3.25137e-01,-1.14831e-01,2.72503e-02,-3.46041e-02,-6.43980e-01,3.05801e-01,-9.08291e-03,
-9.63007e-01,-3.11052e+00,-2.13598e+00,-9.75402e-01,-1.81435e+00,-9.09985e-02,-9.55040e-01,-2.47128e-01,-3.77029e-02,-1.11776e-01,-1.53601e+00,-4.70615e+00,-6.66403e-01,-1.69667e-01,-6.69665e-01,-8.21828e-01,-1.90858e+00,-1.56556e+00,8.35683e-02,-2.00682e+00,-3.24380e-01,-1.97116e-01,-2.36431e+00,-2.38702e+00,-1.15830e-01,-3.37410e+00,-2.33579e-01,-4.49434e-01,-5.73754e-01,-3.60629e+00,-2.17221e+00,4.52003e-01,
4.10406e-01,3.67439e-01,-2.03834e-01,-1.21550e-01,4.86476e-03,2.04802e-01,-2.46698e-01,3.75333e-01,4.14788e-02,3.14451e-01,-2.99956e-01,-3.29254e-01,-3.14743e-01,-5.33435e-01,4.52764e-01,9.26957e-02,-8.31946e-02,1.70678e-01,1.83258e-01,-3.76956e-01,2.84956e-01,3.05018e-01,1.15067e-01,3.95407e-01,-1.81688e-02,-1.37523e+00,-2.84104e-01,1.07938e-01,2.14979e-01,1.93179e-02,-2.36062e-01,1.37790e-01,
4.84693e-01,6.46773e-01,6.07070e-01,-8.15133e-02,1.09921e-02,-1.49710e-02,1.98142e-01,4.39790e-02,3.82156e-02,-4.32195e-01,5.07600e-01,2.20780e-01,-3.09994e-01,2.45569e-02,-2.44005e-01,1.50873e-02,-1.64950e+00,1.54640e-01,-7.31911e-01,-1.91199e-01,-2.51048e-01,-4.46066e-04,6.46882e-01,-1.83897e-01,-6.50027e-01,-1.02003e-01,-1.44767e-01,7.65676e-01,1.69997e-01,-7.49721e-01,-2.15707e-01,2.51728e-01,
-1.48467e-01,-1.73403e-01,-8.81776e-01,7.26064e-03,-2.61916e-01,1.66340e-01,-1.06553e-01,3.45310e-01,2.85951e-01,-2.15492e-02,-1.42872e-01,5.52184e-02,4.28192e-01,-5.30440e-02,-9.74748e-02,-9.61760e-01,-2.53466e-01,-7.25453e-01,-3.74105e-02,-2.21108e-01,4.19149e-01,1.81044e-01,-3.05145e-01,2.25353e-01,4.40922e-02,3.39465e-01,1.25698e-01,1.49085e-01,-2.87150e-01,4.53656e-01,1.43587e-01,8.23115e-02,
2.83519e-01,1.64488e-01,3.88510e-01,-3.19277e-01,6.97362e-01,-1.15341e-01,-1.32651e-01,-1.24022e-01,2.29544e-02,1.34051e-01,-2.52353e-01,-9.68525e-05,7.29683e-02,1.68849e-02,-1.38371e+00,-8.50533e-02,-5.65584e-01,-1.75893e-01,-4.83303e-01,5.80525e-02,4.54743e-01,1.29274e-01,-3.07768e-01,-1.64425e-01,-1.86091e-01,-7.76839e-02,-1.43716e-01,2.70671e-01,-7.97655e-01,5.06388e-01,-2.22758e-01,-2.55398e-01,
4.13014e-01,1.19147e-01,-2.79569e-01,5.17507e-01,2.41968e-01,9.10498e-02,4.57797e-01,-2.26194e-01,-5.34000e-02,-8.70826e-02,1.31858e-01,-1.77859e-01,-7.49263e-01,1.68791e-02,-2.58054e-01,2.18540e-03,-3.65264e-02,2.65339e-01,-4.37466e-02,-1.54568e+00,-8.67276e-01,3.35919e-02,-1.21189e-02,-2.49079e-01,-7.63294e-02,-5.26962e-01,2.13111e-01,2.99599e-01,-8.41479e-01,4.03848e-01,2.44527e-02,-3.82743e-01,
2.25179e-01,2.29165e-01,-8.06594e-01,3.28886e-02,-1.82025e-01,-6.09675e-02,2.43615e-01,1.63953e-01,2.44967e-02,4.03138e-02,-1.91899e+00,2.53124e-01,-4.74413e-02,-3.10469e-02,6.05873e-01,4.03205e-01,4.73368e-01,5.44089e-01,5.39808e-01,6.84179e-02,1.36139e-01,-7.39420e-02,1.24356e-01,8.03653e-01,-1.56490e-01,-1.55143e-01,8.83517e-02,-2.82134e-01,3.97722e-01,4.70243e-02,9.82396e-03,-2.00108e-01,
4.59448e-01,4.49011e-01,-6.77753e-01,-2.65603e-02,1.04724e-01,-2.48670e-02,6.87447e-02,2.28243e-01,-9.91706e-02,3.25111e-01,6.00745e-02,3.89580e-01,3.72331e-01,-4.55382e-02,2.37839e-01,6.41163e-02,5.26350e-01,1.50025e-01,3.17653e-01,-1.15313e+00,1.75812e-01,-7.29814e-02,-6.18786e-01,4.84109e-01,3.58242e-02,1.67112e-01,5.97951e-02,-2.77866e-01,-1.75458e-01,2.12251e-01,-4.13511e-01,-1.70621e-01,
5.00613e-01,-1.90092e-01,-4.23784e-02,1.85473e-01,1.23830e-01,4.56537e-03,-7.78081e-01,1.33748e-01,3.43456e-02,1.72055e-01,4.79600e-01,-6.55381e-01,2.80054e-02,2.53950e-01,-1.34572e-01,-2.24031e+00,-2.83451e-01,8.59138e-01,-6.95233e-01,-1.91391e+00,-5.25027e-01,3.67783e-01,-2.51979e-02,5.55101e-01,4.09637e-01,-2.05987e-01,-2.45532e-01,6.30925e-01,3.50213e-01,2.71232e-01,7.12088e-01,-8.24186e-01,
-1.65327e-02,-5.40055e-01,1.39776e-01,-9.80041e-02,4.17180e-01,1.47470e-01,-2.49450e-01,1.67416e-02,-2.11952e-02,-2.06413e-01,5.90823e-02,-1.45143e-01,8.48677e-02,5.20693e-02,5.47107e-02,4.40693e-01,-3.53993e-01,-4.46874e-03,1.91225e-01,-3.82476e-01,2.45379e-01,5.89045e-02,-4.56344e-01,-9.09173e-01,-3.35788e-01,7.90670e-01,-1.77856e-01,5.24637e-01,5.84550e-02,-9.26137e-02,9.47848e-01,-4.60597e-01,
-1.83745e-01,8.51994e-02,-8.84231e-02,-2.77502e-01,-2.43259e-02,2.05433e-01,-5.81709e-01,1.91259e-01,1.13732e-01,2.16679e-01,-1.16114e-01,5.39150e-01,-3.19192e-01,4.20395e-01,2.65694e-01,-6.27570e-01,3.61178e-01,2.87950e-01,-2.35414e-01,-7.73879e-02,-4.16435e-01,-4.76641e-01,-5.71239e-01,2.59132e-01,1.98813e-01,-3.98505e-01,-1.92543e-01,2.78003e-02,5.28929e-01,-4.30540e-01,-1.01750e-01,-1.17977e-01,
-6.97681e-01,
-6.59861e-01,
-9.25437e-02,
-2.12271e-04,
-2.55826e-01,
-3.68715e-01,
-2.37268e-01,
-3.09308e-01,
4.67739e-01,
-2.52047e-01,
-2.68217e-01,
-1.44633e-01,
6.53244e-02,
2.59869e-01,
8.64116e-02,
1.93678e-01,
-8.29746e-03,
-7.93574e-01,
7.29348e-01,
2.73053e-01,
-7.16967e-01,
2.89103e-01,
-7.14437e-02,
-3.84227e-01,
4.93733e-01,
3.14735e-01,
-1.45467e-01,
-8.56880e-01,
-2.08980e-01,
1.05376e-01,
2.79900e-01,
5.84362e-02,
-6.56131e-02,-2.23990e-01,-1.87031e-01,4.37972e-03,-4.22987e-01,-1.23767e+00,-8.80869e-01,1.28939e-01,-2.18329e-01,-5.33313e-01,8.90719e-04,-5.26153e-02,-4.23530e-01,-2.92094e-01,-4.05969e-02,-1.81011e-01,1.50361e-02,3.39045e-02,4.42962e-02,1.78275e-02,1.08359e-02,-1.45505e-01,-8.83489e-01,-2.13625e+00,-1.26997e-01,2.45441e-01,-1.79272e-02,-8.95027e-03,7.75368e-02,-8.90484e-02,1.34864e-02,-9.90211e-01,
4.00250e-04,-5.18481e-01,6.19793e-02,7.03577e-02,3.27826e-01,-1.28857e+00,-5.90799e-01,6.33149e-01,-5.14322e-01,-6.34176e-01,-3.64015e-01,3.68694e-01,-1.35639e-01,-4.07106e-01,1.32464e-02,3.30601e-02,7.25309e-03,1.24620e-01,4.79289e-02,-5.02992e-02,-1.72697e-01,9.85598e-03,-5.25930e-02,-2.10662e-01,-7.50154e-02,-5.24010e-01,-1.67261e-02,2.95112e-01,1.64582e-01,-1.20089e-01,9.85405e-02,-1.14725e+00,
-3.55808e-02,7.66929e-02,-7.65063e-02,-7.83007e-02,6.98700e-02,-7.83320e-01,-5.58461e-01,-3.46500e-01,2.99702e-02,-3.33862e-02,9.38593e-02,5.25399e-02,-1.92311e-02,2.00793e-01,6.11038e-02,-3.33843e-02,-2.05586e-01,1.83098e-01,9.13196e-03,-2.78261e-01,-9.02251e-01,-1.42260e-01,-9.84803e-01,4.09497e-01,-5.59995e-02,-7.72577e-01,-9.68569e-01,5.11785e-01,3.41347e-02,-7.71443e-02,7.78201e-02,-1.22974e-01,
-1.60295e-01,-4.76321e-01,-1.08678e-01,1.80674e-02,-3.79167e-01,5.78030e-02,-3.30008e-01,-8.95826e-01,-5.93260e-01,-3.66789e-01,-1.24401e+00,-1.60981e+00,-1.94174e-01,-1.39774e+00,-3.46207e-01,-4.24799e-01,-1.61263e-01,2.67327e-02,-1.55192e-01,-6.38848e-01,-2.12218e-01,-3.87110e-01,-7.04790e-01,-1.01312e+00,2.53187e-02,-9.75653e-01,-1.93275e-01,1.66709e-01,8.98832e-03,-1.99469e-01,4.14048e-02,-2.98313e-01,
6.68234e-02,-3.56503e-01,-1.52725e-01,5.02365e-02,1.62342e-01,-2.61856e-01,-1.29004e+00,-5.66239e-01,-4.07189e-01,-1.97903e-01,1.95785e-01,2.99711e-01,1.02560e-01,-2.78943e-01,2.27910e-01,-2.23249e-01,2.51171e-02,-4.82106e-02,5.26757e-03,4.51129e-02,5.98872e-03,-1.07521e-01,-1.51224e-01,-6.53344e-01,-1.97612e-02,-1.00270e-02,2.29703e-01,-2.02836e-02,2.53755e-03,-9.57184e-02,7.21361e-03,-3.36809e-01,
-2.01326e-01,1.21753e-02,-4.45941e-02,-1.93681e-02,7.03603e-02,2.64006e-02,2.25126e-01,3.04332e-01,-8.95912e-02,-4.96448e-01,-1.43150e+00,3.80686e-01,-8.37435e-01,8.47519e-02,-4.61240e-01,6.19335e-02,-1.54750e-01,2.18872e-01,-5.54598e-02,1.16482e-01,3.50700e-02,6.94475e-02,-2.97521e-01,-3.98693e-02,-1.57627e-01,-1.46392e+00,-3.21618e-01,-3.02242e-01,-1.21342e-01,-3.24107e-02,3.68302e-02,-1.41619e-01,
-2.90384e-01,2.10939e-02,1.46186e-01,-1.14255e-01,1.28939e+00,7.19006e-01,-4.42522e-01,-2.64933e-01,3.42429e-01,5.83180e-01,3.50515e-01,3.49585e-01,3.49249e-01,1.82326e-01,5.60160e-02,4.15933e-01,1.53221e-01,5.43308e-02,-1.53097e-01,-3.10171e-01,-2.42121e-01,-3.15419e-02,-3.59219e-01,2.58347e-01,-6.90560e-02,6.62041e-01,-5.66536e-02,-1.53539e-01,1.05683e-01,-1.09117e-01,-4.06065e-02,1.43697e-01,
-4.86046e-01,-1.50772e-01,-1.23494e-01,-1.45154e-01,2.69149e-01,-3.46573e-01,-8.64640e-02,-6.65768e-02,-8.81495e-01,-4.88014e-02,6.88158e-01,-8.45578e-03,1.43767e-01,-1.14311e+00,-2.29930e-01,-4.33896e-01,-1.44185e-01,-3.30379e-02,-1.66685e-01,1.77183e-01,-1.16272e-01,-1.03422e-01,-1.44250e-01,-3.25014e-01,-8.64093e-02,-7.74631e-01,-6.63987e-02,-1.55982e-01,1.44493e-01,-2.15931e-02,1.29624e-01,-4.33738e-01,
5.97806e-02,3.00192e-01,2.34168e-03,5.65047e-01,1.68744e-01,1.60826e-01,4.53523e-01,2.37648e-01,3.19368e-01,2.95648e-01,-9.72403e-02,4.39470e-01,-4.14114e-01,1.85146e-01,-3.57711e-02,1.81645e-01,9.40610e-02,7.12033e-01,-1.40583e-03,2.01341e-01,2.49616e-01,4.16371e-01,3.12719e-01,-1.61816e-01,-1.27374e-01,-7.79087e-02,2.22106e-01,-2.39814e-01,-4.33297e-01,-1.92205e-01,7.70410e-02,-1.75344e-02,
3.91706e-03,-9.75735e-02,3.14506e-02,-8.58955e-02,3.02188e-01,-8.31065e-01,-4.77816e-01,1.42050e-01,-9.09600e-01,-1.24085e-01,-5.58371e-01,2.82517e-01,-2.36553e-02,-1.99723e-01,1.35316e-01,1.59742e-01,-9.94695e-02,1.33920e-01,-9.99720e-02,2.90844e-01,1.12669e-01,1.12800e-01,-5.22954e-02,-8.93015e-01,-1.36867e-01,-1.40195e+00,-3.22520e-01,7.29900e-02,9.87782e-02,1.07415e-01,4.53593e-02,-2.00415e-01,
-3.30624e-01,3.45835e-01,3.27343e-02,1.45519e-01,-6.78022e-01,-6.17317e-01,1.71002e-01,-2.61518e-01,-2.58619e-01,7.26150e-02,1.71021e-01,-4.90102e-01,-3.53876e-01,4.37085e-01,2.04616e-01,1.70119e-01,-3.43813e-01,4.42546e-02,-1.88442e-02,-4.44172e-01,1.97393e-01,5.56204e-01,-1.96531e-01,4.99099e-01,-4.94683e-02,1.56206e-02,-4.89351e-01,8.98298e-02,1.61621e-01,-1.39488e-01,6.27633e-02,-6.43742e-01,
-4.48438e-01,-3.82128e-01,-1.36154e-01,-3.77564e-02,-6.18415e-02,5.43741e-01,2.02023e-01,-4.21025e-01,-7.80231e-02,-8.48148e-02,6.09730e-01,7.93728e-02,7.10086e-01,3.31919e-01,6.25942e-02,1.05198e-01,-1.25284e-01,2.71629e-01,-6.72442e-02,-4.41768e-01,1.23240e-01,-4.02089e-01,-6.37561e-02,4.74331e-01,-1.33442e-01,1.42334e-01,-6.50766e-02,4.95403e-01,2.15459e-01,-8.85987e-02,1.39931e-01,-3.39061e-01,
-1.73978e-01,-2.07400e-01,-8.27926e-02,3.84779e-02,2.86796e-01,-5.10316e-01,-2.93921e-01,-1.00772e-01,-2.80094e-01,-2.29216e-01,-3.09179e-01,-4.02389e-01,8.11484e-02,-1.21475e+00,9.71102e-02,-6.55655e-01,-2.41850e-01,8.96022e-02,-4.00574e-02,-4.60452e-01,-1.81042e-02,-7.96757e-01,-3.59117e-02,-3.87268e-01,-1.07715e-01,3.15383e-01,-1.21577e+00,1.91888e-01,1.14103e-01,3.01461e-02,7.19197e-02,1.00698e-01,
3.63521e-01,3.03094e-01,-1.21487e-01,8.03353e-03,-2.37569e-01,1.76637e-01,2.20954e-01,-3.26740e-01,-4.39423e-02,2.02737e-01,-1.12887e-01,1.09451e-01,2.17356e-01,-2.37677e-01,-3.09874e-03,-5.79735e-01,-1.48709e-01,5.60852e-02,-2.54796e-02,2.46102e-01,3.57751e-02,-1.47748e-01,3.81027e-01,2.10496e-01,-7.02556e-02,-3.82506e-01,1.66783e-01,5.78626e-02,1.15397e-01,-4.25083e-02,-6.90634e-01,6.02841e-01,
-1.94746e-01,-1.08668e+00,-9.86834e-02,1.30317e-01,-1.35700e-01,1.52235e-01,2.25843e-01,-6.35178e-01,-6.27976e-01,-1.37878e+00,-8.21039e-02,-5.43456e-01,1.44539e-01,-3.10160e-01,-3.11983e-01,1.24026e-01,-6.85265e-02,1.26910e-01,-2.69626e-02,1.70763e-02,3.16369e-01,-5.91837e-01,-1.64227e-01,-4.56320e-01,-1.47324e-01,1.04572e-01,1.45044e-01,2.77712e-01,2.11564e-01,-1.17725e-02,1.41489e-01,-4.06133e-01,
-4.83013e-01,1.74457e-01,-1.65547e-01,-1.70648e-01,8.33263e-01,1.52751e-01,-3.10883e-01,4.45088e-02,4.15715e-01,3.70942e-01,-8.13531e-02,-1.90244e-01,3.10469e-01,5.97568e-01,2.11812e-01,-2.79744e-01,-5.34156e-02,9.76267e-02,4.29096e-02,-4.83138e-01,-5.66287e-01,2.55525e-01,-1.26283e+00,6.02744e-01,1.45333e-01,5.93472e-01,-1.61631e-01,1.01134e-01,3.40335e-02,-1.54000e-01,1.50676e-02,1.07355e-01,
1.47265e-01,-7.10796e-02,-4.45981e-02,1.43400e-01,-7.22243e-02,-3.41977e-01,-7.64144e-01,-4.83285e-01,-8.25951e-01,-2.32343e-01,-5.42330e-01,-9.90577e-01,-6.02503e-01,-5.00737e-01,-1.52539e-01,3.58649e-01,8.28152e-02,2.13604e-02,-7.50825e-02,1.00597e-03,3.58057e-01,-4.63420e-01,2.15575e-01,-3.75528e-01,3.78784e-02,-4.16593e-01,-5.98581e-01,2.29614e-02,1.60439e-01,-5.53936e-02,6.82139e-02,-2.90094e-03,
-9.20274e-03,-6.50037e-01,-8.86465e-02,1.86501e-02,-5.12330e-01,-3.97243e-01,-1.72419e-01,-3.89518e-01,-9.23543e-01,-5.36133e-01,-4.81299e-01,-6.41635e-01,-5.20185e-01,-1.67487e-02,-3.17152e-01,-3.57289e-01,-2.17734e-01,-5.47161e-03,9.27942e-02,-4.99584e-01,-5.07666e-01,-4.22723e-01,-9.94601e-01,-7.86584e-01,1.33716e-01,-2.53296e-01,-1.27875e+00,3.79476e-02,-9.13802e-03,5.05291e-02,-7.93308e-04,-7.41014e-01,
2.03047e-01,-3.39032e-01,-1.67185e-01,3.02220e-01,-7.38981e-01,4.36479e-01,5.68665e-01,-2.34591e-02,3.71622e-01,-1.70301e-01,2.44571e-01,-5.13364e-01,4.97962e-01,2.49774e-01,1.87216e-01,-2.47450e-01,-1.48114e-02,-2.82083e-01,2.56044e-02,3.61477e-01,4.71609e-01,-1.45833e+00,2.67937e-01,-2.18913e-01,-7.71247e-02,7.55649e-01,4.46840e-01,2.66863e-01,-1.91311e-01,-3.57974e-02,1.76151e-02,-2.22688e-02,
3.02603e-01,4.17223e-01,-5.78572e-02,-3.55487e-01,-1.12881e+00,3.94186e-01,9.15126e-02,4.35558e-01,3.32565e-01,2.49581e-02,-5.72987e-01,2.16157e-02,-2.56488e-01,7.51505e-01,3.05810e-01,-2.95661e-01,6.22127e-02,7.39450e-02,-1.17716e-01,1.43446e-01,-1.85224e-02,-9.03584e-02,-7.19283e-01,-2.02596e-01,1.01969e-01,5.28638e-02,-1.52285e-02,4.78589e-01,-4.03792e-01,-1.28992e-01,-9.80319e-02,6.11871e-01,
-7.45488e-02,-7.72263e-01,6.12834e-02,1.46053e-01,-2.17531e-01,-1.90160e-01,-7.49504e-01,-9.25734e-01,-6.57812e-02,-4.25693e-01,-1.29636e-01,-1.17558e-01,2.73033e-01,2.52555e-01,1.38549e-03,-7.45000e-01,-1.34680e-01,-1.35438e-02,-4.84696e-02,-4.78980e-01,-1.85700e-01,-3.38043e-01,-1.42048e+00,-8.30301e-02,1.47786e-01,2.61621e-02,-4.94145e-01,2.71508e-01,1.44429e-02,1.21830e-01,4.93775e-02,-1.14763e-01,
-1.17042e-01,1.13878e-01,8.72428e-02,1.94020e-01,1.75523e-01,9.42203e-02,1.21719e-01,-1.59226e-01,-1.01342e-01,1.69375e-01,3.12484e-01,-1.09108e-02,-3.02003e-01,2.43673e-01,2.08782e-01,2.41710e-01,1.79722e-02,-8.96105e-02,-1.60568e-01,4.67826e-02,2.73770e-01,1.60347e-01,1.26959e-01,-8.31836e-01,-1.53275e-01,5.17474e-02,3.50529e-01,1.96342e-01,1.67152e-01,-1.36691e-01,5.25907e-01,3.05023e-02,
8.36617e-02,-1.38331e-01,-4.43471e-02,6.56481e-02,-8.41593e-01,-1.22971e-01,-2.27603e-01,-3.56347e-01,-9.42512e-01,5.32706e-02,-1.33771e-01,-5.11484e-01,-1.07305e+00,-1.11226e+00,4.65197e-01,3.97975e-03,-1.37681e-01,1.41301e-01,3.69539e-02,-2.47721e+00,-2.13272e-01,-1.14985e-01,-8.55905e-01,-3.02848e-01,4.19295e-02,-1.49645e+00,-3.08947e-01,5.68607e-01,9.67655e-02,-9.83946e-02,1.21498e-01,1.70946e-01,
7.95903e-02,3.45654e-01,-9.60394e-02,-8.91370e-02,-1.52273e+00,-9.54785e-01,-4.44463e-01,-9.53621e-01,-4.53066e-01,-2.58181e-01,-3.72179e-01,-6.45759e-01,-2.88009e-01,-1.13959e+00,-3.34253e-01,-9.11300e-02,-2.37546e-01,1.49334e-02,-5.88059e-02,-3.79593e-01,-3.37888e-01,1.75630e-02,-6.39340e-01,-1.49332e-01,1.31983e-01,-2.48275e-01,-1.05224e+00,2.70796e-01,-1.46504e-01,7.34147e-02,-2.01950e-02,-1.57523e-01,
6.95898e-01,-4.68696e-01,-3.81726e-01,-1.32725e-01,-7.81791e-01,4.29335e-01,-3.23039e-01,-3.27034e-01,-2.57718e-01,-2.85351e-01,6.72677e-02,-7.24322e-01,2.29016e-01,-4.25411e-02,-5.24384e-01,1.94950e-01,-8.88670e-02,2.91883e-01,-1.45766e-01,4.04232e-01,3.35256e-01,-7.40491e-01,7.82442e-02,-9.87542e-02,-1.74790e-01,2.35307e-01,1.20942e-01,2.19352e-01,2.22712e-01,-1.33337e-01,1.16481e-01,-1.67736e-01,
3.47839e-02,2.34243e-01,-5.80247e-03,-9.57684e-02,1.12047e-02,-1.92596e-01,-9.05063e-01,-2.16985e-01,-5.48158e-01,-1.13242e-01,-1.11928e+00,-3.65380e-01,7.58728e-02,-5.27534e-01,-4.20311e-01,1.86805e-02,-1.95356e-01,1.55025e-01,-2.56430e-02,2.21317e-01,-1.41773e-01,1.21032e-01,-2.86064e-01,2.06373e-01,-1.32852e-01,-1.34636e-01,-1.12762e+00,-3.17069e-02,1.43408e-01,-1.85963e-01,1.41211e-02,2.92004e-01,
-3.19718e-02,-2.14254e-01,-1.66037e-01,3.41898e-02,6.62620e-02,1.08295e-02,-6.89324e-02,2.01589e-01,-2.18154e-01,1.13623e-01,2.28734e-01,2.98242e-02,6.04689e-02,-8.89704e-02,-6.00243e-02,-3.65742e-02,-5.00181e-02,-4.81113e-02,-1.45939e-01,9.07051e-02,3.97521e-02,1.58929e-01,-1.09335e-01,-9.42772e-02,1.67082e-01,1.41832e-02,9.82798e-02,1.91830e-01,-9.50744e-02,1.59297e-01,1.75251e-01,-3.10875e-01,
-9.70647e-02,-9.32848e-01,-2.96347e-02,8.72058e-02,-4.03779e-01,-9.68975e-01,-6.16645e-01,-7.45401e-01,-8.87947e-01,-4.37338e-01,-6.79735e-01,-3.62566e-01,-9.35772e-01,-1.11250e+00,-1.88720e-01,-3.82296e-01,-4.36270e-02,2.69245e-02,-1.40647e-01,-5.55590e-01,-7.35539e-01,-7.70168e-01,3.53267e-02,-7.02150e-02,-3.34168e-02,-4.35232e-01,-3.74632e-01,1.77131e-01,5.85025e-02,-7.58812e-03,5.71771e-02,-1.30967e+00,
-1.87605e-01,-8.43876e-01,-1.66543e-01,-3.26474e-02,-4.97131e-01,-4.01850e-01,-3.90304e-01,-3.99858e-01,-9.66441e-01,-3.95490e-01,5.69305e-02,-1.13949e+00,1.25834e-01,-2.06378e-01,-3.24269e-01,-2.73380e-01,-3.67444e-02,-5.52347e-03,-1.74051e-01,-4.20918e-01,-6.26169e-02,-8.13984e-01,-8.24792e-02,-4.46597e-01,-3.97769e-02,3.55453e-01,4.48724e-01,-1.13926e-01,1.80370e-03,-1.57602e-01,-2.10966e-02,2.75295e-01,
-2.52144e-01,-1.32434e+00,-1.83415e-02,1.22791e-01,-7.24416e-02,-5.92613e-01,-3.38329e-01,3.23860e-01,2.22164e-02,-5.47747e-01,-5.50392e-01,1.17309e-01,-4.43838e-01,-3.15028e-01,-3.67017e-02,-7.94701e-01,-2.97475e-02,2.57889e-02,2.58273e-02,-4.39291e-01,2.53956e-01,-2.35944e-01,-5.34480e-02,-4.54288e-01,4.77654e-02,-5.24521e-01,-9.43680e-01,1.72281e-02,1.36237e-01,-1.35174e-01,7.13806e-02,-3.33111e-01,
1.91971e-01,-4.30353e-01,2.75030e-01,3.67003e-01,1.94964e-01,3.47401e-02,2.89745e-01,-4.33367e-01,-3.14139e-01,5.01750e-02,-3.79384e-01,2.18174e-01,-4.59622e-01,1.28583e-01,5.34063e-01,1.51608e-01,-8.78946e-02,-9.42505e-02,1.36606e-01,7.83435e-02,6.94157e-01,6.74454e-01,-7.04139e-01,2.57337e-01,-1.63812e-01,1.89129e-01,4.82746e-01,4.26406e-01,1.02562e-01,1.51520e-02,1.49064e-01,9.74846e-01,
5.71679e-02,9.74487e-02,4.51076e-02,3.39643e-02,1.16128e-01,-2.10409e-01,1.14886e-01,-3.85512e-01,4.44109e-01,1.79983e-01,4.11804e-01,-1.46792e-01,1.01425e-01,4.46726e-01,-1.48664e-01,-3.64420e-02,4.71905e-02,6.68976e-02,-5.62530e-03,-2.56610e-01,-2.80016e-01,-4.20061e-01,-1.77392e-01,-2.54233e-01,-1.36207e-01,-2.02813e-01,-8.70218e-02,4.42985e-01,-7.64984e-03,9.86567e-03,4.59382e-02,3.43091e-02,
-1.32049e-02,
6.72358e-01,
-1.48540e-01,
-1.16491e-01,
9.92331e-02,
1.15086e-01,
5.11854e-01,
8.09772e-02,
4.84364e-01,
7.46840e-01,
4.41749e-01,
-2.88334e-01,
1.43434e-01,
3.46194e-01,
1.19095e-01,
6.28396e-01,
-2.42563e-01,
-4.91263e-01,
-2.42433e-01,
7.25762e-01,
-3.08938e-01,
5.64270e-01,
4.34699e-01,
1.78712e-01,
-5.63239e-02,
1.10854e-01,
6.01029e-01,
-1.58702e-01,
4.80745e-01,
-9.54322e-02,
9.31090e-02,
5.00721e-02,
1.38618e-03,5.87459e-02,1.82506e-01,-2.88529e-01,4.88386e-02,-2.62054e-01,8.01374e-02,-2.41638e-01,-1.31508e-01,-8.94526e-02,1.95253e-01,1.52825e-01,-5.27718e-03,-2.93297e-01,-2.70659e-01,-7.75313e-02,-1.94400e-01,-2.44342e-01,-3.17545e-01,1.79309e-02,2.46185e-02,-1.20873e-01,-6.41239e-01,5.68156e-02,7.95212e-02,1.06917e-01,-6.25000e-02,-9.12371e-02,-2.34778e-02,-2.26975e-01,3.81563e-02,-2.24410e-01,
1.50308e-01,-8.72198e-02,1.94443e-01,-5.98455e-01,1.48370e-01,1.21466e-01,1.34220e-01,-1.29765e-01,9.96007e-02,-2.13967e-01,-9.05577e-01,-7.88789e-01,5.56703e-01,-3.75405e-01,-1.75745e-01,1.46003e-01,-5.79047e-02,-3.81704e-01,1.44220e-01,7.92212e-03,-3.58011e-02,1.86162e-01,5.17623e-01,5.49371e-01,-9.60000e-02,4.23472e-02,-3.00676e-01,1.40302e-01,4.92446e-01,2.34307e-02,2.12409e-01,-2.75330e-01,
-1.26098e-01,3.50475e-02,-4.04718e-02,-1.16066e-01,-5.05173e-02,1.06897e-02,-3.60283e-02,-1.96334e-01,5.92117e-02,-3.35087e-01,-3.50802e-02,5.75187e-03,-1.60537e-01,-2.28811e-01,9.35068e-03,2.04240e-02,5.57077e-02,9.38443e-02,-1.77948e-01,-2.36286e-01,3.08937e-02,-1.53820e-01,7.73288e-02,1.14196e-02,-5.22774e-02,1.09512e-01,8.29355e-02,-2.31712e-01,6.66197e-02,-1.37137e-01,-2.15265e-02,1.44154e-01,
-1.86107e-01,-1.73354e-03,1.00999e-03,-1.98718e-02,-1.90461e-01,-1.78081e-01,-5.51686e-01,-1.63574e-01,-1.13214e-01,-1.50402e-01,2.20984e-01,-2.63157e-02,-6.16307e-02,-1.43363e-04,-5.67526e-02,-3.72630e-02,3.46375e-02,-2.89489e-02,-3.97486e-02,-8.96735e-02,-1.51021e-01,-2.47282e-01,-1.24922e-01,7.03952e-02,3.79093e-02,2.79902e-02,7.56437e-03,-3.96668e-01,3.57417e-03,-5.19664e-02,-3.12206e-01,8.93840e-02,
-2.82672e-01,1.35000e-01,-1.22430e-01,-5.11689e-01,6.22808e-03,-7.77969e-03,-6.66212e-01,-1.69494e-01,-1.88641e-01,-1.23872e-01,-2.20756e-02,3.88717e-02,-6.50097e-01,1.44123e-02,-1.78191e-01,8.77317e-02,-5.58872e-02,1.87124e-01,-1.51710e-01,-9.66517e-02,8.37992e-02,2.35778e-01,-5.38438e-01,-1.06277e-01,-3.44262e-02,8.04983e-03,-9.76660e-02,-1.20092e-01,3.37585e-01,-1.81349e-01,-7.10448e-02,4.90304e-01,
1.48812e-01,2.23522e-01,-1.18795e-01,-3.14985e-01,7.34120e-02,-1.91725e-01,4.01917e-01,9.75274e-02,1.41487e-01,-9.96921e-02,4.45853e-01,-4.54531e-02,-1.80707e-01,-8.99842e-02,-4.81066e-01,7.04283e-02,-1.60654e-01,-7.99030e-01,1.29507e-01,-1.10295e-01,4.43268e-02,-3.13436e-01,-4.12528e-01,-1.05690e+00,3.16370e-01,1.58467e-01,-3.45560e-01,-1.68998e-01,-3.44670e-01,1.22037e-01,2.36183e-02,1.25072e-01,
-3.13377e-01,5.32373e-02,1.21331e-01,3.49067e-01,-1.31315e-01,2.04679e-01,4.52940e-01,8.61928e-02,-1.24289e-01,-6.22806e-02,6.00057e-01,6.16441e-01,3.42949e-01,5.38133e-01,1.56271e-01,-3.41858e-01,-1.28516e-01,5.10942e-01,-1.98297e-02,-6.91373e-02,7.99921e-02,-1.55762e-01,-1.30402e-01,-4.43928e-01,-2.15825e-01,2.43972e-01,1.24602e-01,4.82009e-02,-3.84909e-01,3.13892e-02,4.83138e-02,7.39191e-01,
-4.38566e-01,-2.90457e-01,-6.15665e-02,-4.40278e-01,1.56764e-01,5.09833e-01,-6.42167e-01,-1.80324e-01,-1.66657e-01,8.14465e-02,-8.39459e-02,-1.66492e-01,3.34949e-01,-2.93524e-01,5.18518e-01,3.17245e-01,7.45090e-02,-3.15616e-01,1.62102e-01,-9.02602e-03,-1.49353e-01,-3.26944e-01,-3.50336e-01,2.99492e-01,1.35716e-01,3.32829e-01,-1.89635e-02,1.15106e-02,3.16852e-01,1.27297e-02,-7.63397e-02,5.83953e-01,
-5.39479e-01,-3.53232e-01,5.00079e-01,4.00885e-01,7.86202e-03,-5.61538e-01,3.43154e-01,-8.27751e-02,2.61729e-02,-1.44823e-01,1.88825e-01,-7.20889e-02,1.07666e+00,-1.72696e-01,2.96974e-02,5.28167e-01,-2.31282e-02,1.97171e-01,-6.94766e-02,1.00846e-01,4.96941e-02,1.06340e-01,-6.61181e-01,-2.68646e-01,-3.94776e-01,1.83975e-01,1.34143e-01,2.49404e-02,-6.91778e-02,-5.29082e-02,2.27872e-01,-5.56098e-01,
7.81321e-02,-9.88069e-02,3.27233e-01,-2.73181e-01,-1.60567e-01,-3.98912e-01,7.91911e-01,-1.51655e-01,-2.08457e-01,5.58293e-02,-4.78226e-01,-3.83641e-01,-4.21899e-01,-4.32149e-01,2.35133e-02,4.22910e-01,-1.90310e-03,-1.30744e-01,-1.30239e-01,4.76353e-02,-9.87849e-03,4.28848e-01,1.10410e-01,8.80684e-01,2.88426e-01,3.19559e-02,3.43929e-02,2.44998e-01,5.16845e-01,7.82541e-04,-1.36713e-01,-3.81468e-01,
1.45105e-01,-1.58806e-01,-2.43085e-01,-6.53608e-02,-2.81428e-02,3.74555e-01,-7.12972e-02,-1.31254e-01,7.91117e-03,2.95952e-01,-2.43904e-01,-2.50913e-01,6.85380e-01,-1.41527e-01,2.31695e-02,1.08737e-01,8.30852e-02,-1.46374e-01,3.49583e-02,1.37094e-01,6.75642e-02,-1.08724e-01,-3.81712e-03,3.72912e-01,-3.56006e-02,3.27185e-02,-4.46483e-02,3.55391e-01,3.71162e-01,-1.66829e-02,-5.38559e-02,2.36620e-01,
-2.15465e-01,8.65061e-02,-4.84844e-02,-3.42830e-01,-5.80686e-02,4.45140e-02,-3.09113e-01,-2.09730e-01,-1.43575e-01,-1.18954e-02,-1.15528e-01,-3.64555e-02,3.06846e-02,-2.58658e-01,3.63052e-02,9.36596e-02,8.50791e-03,-2.72381e-01,-1.37725e-01,6.75272e-02,-1.80343e-01,-8.10680e-01,1.68919e-01,-3.15213e-01,-5.68369e-02,-1.71582e-01,-2.69550e-02,1.18774e-01,2.82526e-01,-1.43359e-01,-1.86233e-01,5.25554e-01,
-2.82212e-01,-3.38770e-01,-5.97906e-01,-4.96143e-01,4.66301e-02,1.04958e-01,-3.55821e-02,-1.09580e-01,-9.31437e-02,1.68249e-01,-3.48663e-01,-1.10120e-01,2.10887e-01,-3.00530e-01,-2.77332e-01,1.41998e-01,-1.83031e-01,1.65157e-01,5.39436e-02,-1.27990e-01,1.25058e-01,2.66916e-04,-1.64570e-01,-2.74177e-01,-5.07252e-02,2.09753e-01,-4.92763e-02,-2.73227e-01,-4.26822e-01,-1.48017e-01,-1.19076e-03,-1.61846e-01,
-9.05507e-02,-7.56741e-01,-3.42415e-02,-2.08041e-01,-1.75107e-01,1.80607e-01,2.10224e-01,1.33369e-01,1.02595e-01,-1.71958e-01,-9.70866e-02,-2.90418e-01,8.90840e-01,-2.59823e-01,1.23026e-01,2.62729e-02,-2.85075e-02,2.22878e-01,-1.26517e-01,-4.29340e-02,7.41426e-02,2.41129e-02,6.57504e-01,4.71114e-02,-1.82560e-01,-4.46487e-01,2.80191e-02,8.04560e-02,1.77513e-01,-2.37264e-02,2.79241e-01,-2.43656e-01,
-1.43476e-01,-4.14534e-02,-1.95352e-01,-1.73580e-01,4.04507e-02,-4.93044e-01,-7.54576e-01,-2.44796e-01,-2.16520e-01,-3.86377e-02,8.09512e-02,-4.11581e-02,-3.54845e-01,-7.29723e-03,1.34359e-01,2.38254e-02,-3.41474e-02,-3.55232e-02,-3.93021e-01,-1.39595e-01,-1.81202e-01,4.71749e-02,-5.35254e-01,2.24700e-01,4.29021e-02,-8.48990e-02,-2.04866e-03,-1.33929e-01,1.50510e-01,5.74062e-02,-5.44964e-02,1.33600e-01,
-1.21499e-01,-1.68490e-01,-1.40789e-01,3.73333e-01,3.99187e-02,2.20434e-01,3.75739e-01,-1.41874e-01,6.49785e-02,-1.17829e-01,3.51913e-01,3.10037e-01,-2.41494e-01,4.84415e-03,6.38143e-01,-5.09219e-02,-7.73232e-02,4.62555e-01,1.28115e-02,-1.03226e-01,9.89139e-02,4.01148e-01,4.02768e-01,3.64750e-01,5.58974e-01,-7.50903e-01,-2.70030e-01,-4.72946e-02,2.05835e-01,1.84564e-02,-2.47031e-01,-7.82806e-02,
9.62307e-02,-1.30925e-01,1.15538e-01,1.33495e-01,-1.71468e-01,-1.44651e-01,3.61918e-02,-4.66500e-02,-1.36763e-01,3.73102e-02,-9.22304e-02,-1.16213e-01,3.11354e-02,1.60534e-01,1.78753e-01,-1.26583e-01,2.89340e-02,-7.71476e-02,7.36311e-02,1.09103e-02,-7.37762e-02,4.40552e-02,-2.72782e-02,6.95225e-02,2.07158e-01,-1.40430e-01,7.64704e-02,1.55345e-01,-7.95925e-02,9.36262e-02,-1.28507e-01,-9.28317e-02,
-1.14581e-01,1.05035e-01,-1.20208e-01,-3.86837e-01,-2.44408e-01,-4.22715e-01,-1.48259e-01,-5.98335e-02,-1.47280e-01,-5.85020e-01,7.73234e-02,4.61859e-02,-1.42843e-01,2.43692e-02,-4.27141e-02,-1.32697e-01,-1.57807e-01,-4.81690e-02,-1.80503e-01,-1.36984e-01,1.37484e-02,-3.74815e-01,-5.21050e-02,-2.63501e-01,-9.98112e-02,-2.05398e-01,-1.09104e-01,-5.27402e-01,-1.62036e-01,-1.08032e-01,-1.35332e-01,5.52605e-02,
1.68615e-01,-1.01258e-01,5.62050e-02,-1.34981e-01,1.31957e-01,1.39323e-01,-1.27522e-01,-1.77222e-02,-1.59637e-01,-1.37628e-01,-1.16223e-01,-2.27486e-02,5.44791e-02,6.40750e-02,-9.74365e-03,-1.11682e-01,7.61996e-02,-7.95555e-02,-4.25597e-02,-1.64846e-01,9.10028e-02,-4.69421e-02,-6.29762e-02,-1.79839e-01,6.76959e-02,-9.37885e-02,1.66909e-01,-1.27858e-01,-1.82183e-02,-5.15661e-02,-1.47146e-01,5.97796e-03,
-2.82542e-01,-1.35966e-01,-1.32820e-01,4.03569e-01,3.74817e-03,1.17627e-01,-2.22398e-01,9.70725e-02,4.84990e-02,-9.56113e-02,-1.13416e-03,-1.07815e-01,1.24756e-01,-3.03244e-01,-3.61730e-01,-1.59697e-01,-1.56208e-01,-1.49154e-02,9.26758e-03,-1.63709e-01,-9.13099e-02,-7.03326e-01,2.87914e-01,-2.88627e-01,4.79723e-03,2.40336e-01,-1.65029e-02,-5.29775e-01,-2.95461e-01,-4.11535e-02,-1.27245e-01,-1.09330e+00,
-1.83676e-02,-2.18832e-02,-7.90550e-02,-4.94180e-02,-1.03069e-01,2.07564e-01,-6.10418e-01,-1.53389e-01,5.13354e-02,-4.32850e-01,1.84135e-01,-9.88349e-02,-3.17680e-01,-1.42013e-01,-4.65908e-01,-7.13306e-02,-1.19857e-01,-8.34965e-02,-9.44102e-02,-1.81347e-01,-4.57234e-02,-4.48116e-01,-3.10727e-01,-3.50389e-01,5.29144e-02,1.00110e-01,-1.41001e-01,-2.25305e-01,-4.01284e-02,-1.76099e-01,-2.12226e-02,-1.85998e-01,
2.02716e-01,6.35105e-04,-6.81672e-01,-5.77185e-01,-3.93439e-02,7.90638e-02,-1.12774e-01,-1.75803e-01,-5.05064e-02,-2.18292e-01,-7.28698e-01,-4.97365e-01,-1.18634e-01,-5.08229e-01,1.54208e-01,2.94605e-01,7.34090e-02,-1.72512e-01,6.73571e-02,-6.25032e-02,-3.99020e-02,2.47865e-01,2.70939e-01,4.30721e-01,-2.75824e-01,3.01567e-01,-1.48654e-01,-3.27534e-01,5.95217e-01,-6.22056e-02,-1.25752e-01,2.70781e-01,
1.19340e-01,9.80299e-02,1.82791e-01,4.57102e-01,-1.72012e-01,2.43111e-01,7.12614e-03,-1.00223e-01,-5.56059e-02,-1.84036e-02,9.97117e-01,1.01041e+00,-4.10971e-03,3.16435e-01,-5.40970e-01,-5.36315e-01,-1.35136e-01,5.82631e-03,-5.12075e-02,-2.09626e-01,-4.71598e-02,-7.01686e-02,-2.23431e-01,1.31008e-01,-4.30084e-02,3.99401e-01,-2.14907e-01,-7.72421e-02,-4.96062e-01,1.11719e-02,2.38819e-02,4.32855e-01,
-9.58595e-02,-2.11029e-01,-1.04986e-01,6.11056e-02,1.39019e-02,2.18144e-01,-7.85926e-02,-3.72635e-02,-1.83651e-01,-2.35778e-01,-4.52497e-01,-2.61215e-01,6.60482e-01,-1.74643e-01,4.17834e-01,-1.18887e-02,1.52651e-01,4.78211e-01,-3.45870e-02,-1.47243e-01,-1.58819e-02,2.38523e-01,1.13315e+00,1.86065e-01,-3.28188e-01,-6.97616e-01,-1.33407e-01,-6.02932e-02,-4.42012e-01,-1.84788e-01,-2.36356e-01,2.39296e-01,
1.71567e-02,5.89719e-02,-1.11412e-01,3.55125e-02,2.99588e-02,-6.43136e-02,-8.03343e-02,3.81308e-02,1.59734e-01,-6.48149e-02,1.29487e-02,-1.12304e-01,1.31629e-01,-1.72867e-01,-7.81592e-02,1.23272e-01,1.27048e-01,-3.48093e-02,2.65238e-02,1.30016e-01,-1.22222e-01,-1.49311e-01,3.39065e-02,6.33424e-02,-1.24409e-01,-5.14382e-02,-1.15738e-04,-1.03877e-01,1.58486e-01,7.42190e-02,-9.80647e-02,-5.47189e-02,
-3.74095e-02,2.83275e-02,1.53587e-02,-7.55253e-01,-9.03051e-02,3.69348e-01,2.25095e-01,4.45673e-03,1.16395e-01,-5.50618e-01,-3.56370e-01,-7.79744e-02,6.06192e-01,3.26555e-01,3.38888e-01,2.01846e-01,-1.43411e-01,1.26861e-01,1.11797e-01,-1.85811e-01,-7.02886e-02,-1.68272e-01,1.78936e-02,6.99503e-01,-3.02689e-01,4.01135e-01,1.99213e-01,-1.21033e-01,5.77340e-01,-1.15480e-01,-1.20118e-01,1.11002e+00,
-3.04896e-01,-1.50147e-01,-3.00151e-01,3.10377e-01,2.61499e-02,4.11472e-02,4.33081e-03,-7.89651e-03,-1.21397e-01,-2.28728e-01,2.63116e-01,4.44425e-01,2.70537e-01,3.08050e-01,4.99928e-01,-7.09170e-01,-1.35788e-01,-2.54482e-01,-1.20200e-01,1.37304e-01,-4.60639e-02,-7.02392e-01,-4.76707e-01,-2.76218e-01,-4.98582e-01,-2.28061e-01,8.40753e-02,3.81623e-02,-9.11361e-01,1.86577e-02,7.79618e-03,2.30782e-01,
-2.80984e-02,3.45520e-02,-1.55400e-01,-8.36809e-01,-1.60439e-01,-5.18789e-02,-8.91636e-01,-1.40513e-01,7.49154e-02,-2.34387e-01,-1.47365e-02,-4.86667e-02,-5.13136e-01,-2.04794e-01,-9.33285e-02,6.86302e-02,-2.40572e-02,-1.13110e-02,1.82529e-02,-1.51125e-02,4.45193e-02,1.28830e-01,-3.52469e-01,-3.95380e-01,-3.05001e-02,-2.08542e-01,-2.79527e-01,-2.60017e-01,5.19671e-02,-1.83971e-01,-2.22823e-01,6.85785e-02,
-1.25950e-01,7.03031e-02,-8.34627e-02,8.98444e-02,2.04923e-03,-4.93778e-02,-2.97955e-02,-7.50175e-02,-2.06568e-01,-1.36337e-01,8.70298e-02,-4.57293e-02,-1.68732e-01,-2.55304e-01,-6.08972e-02,1.17190e-01,-1.22225e-01,-4.12614e-01,-1.39169e-01,-2.07038e-01,-1.73768e-01,-2.62407e-01,-6.75682e-01,-1.03877e-01,-3.11033e-02,-2.29014e-01,-1.06780e-01,3.56247e-02,1.80868e-01,-1.17484e-01,-3.75335e-01,-2.10968e-02,
-6.13449e-02,-2.04115e-02,1.64626e-02,-2.58377e-02,1.01407e-02,-5.56876e-02,-1.50878e-01,7.55490e-02,1.41111e-01,9.20105e-02,5.93708e-02,1.20370e-01,3.01454e-02,-8.68916e-02,-1.82589e-01,1.43622e-01,-1.53820e-01,9.15967e-02,1.37303e-02,-9.13418e-02,-1.71480e-01,1.60988e-01,6.78292e-02,9.68154e-03,-1.25883e-01,8.21844e-02,-9.35251e-02,-1.16849e-01,-8.51838e-02,1.39795e-01,-1.43796e-01,-6.73796e-02,
-8.15848e-02,-3.89094e-01,-2.21705e-02,3.45301e-02,6.24635e-02,3.16850e-02,-2.16702e-01,-1.09410e-01,-6.54505e-03,-3.16991e-01,-7.70616e-02,2.56419e-01,-3.76101e-02,-4.05184e-03,-1.14865e-01,-7.57273e-02,7.98750e-03,1.54741e-02,-1.33189e-01,-3.12471e-01,-2.34047e-01,-7.20851e-03,-3.92334e-01,-1.37368e-01,3.65235e-01,-1.72019e-01,-1.95602e-01,-2.42813e-01,5.97673e-02,-2.48274e-01,-6.20269e-02,-4.84685e-02,
8.92862e-02,6.07731e-01,2.25646e-01,-2.84304e-01,-2.17165e-01,-6.39348e-01,-4.01987e-01,-1.04399e-01,-1.26063e-01,-3.80113e-01,6.22910e-02,1.54807e-01,-7.39782e-01,-1.13773e-01,-7.00160e-01,-1.30557e-01,-7.41815e-02,-3.49319e-01,-2.33043e-01,-2.29922e-01,-2.08395e-01,-3.23180e-01,-6.59225e-01,9.13680e-02,-2.40420e-01,5.03670e-01,9.46416e-02,-4.20667e-01,1.48133e-01,-1.31401e-01,-1.18149e-01,-6.76464e-04,
-1.56147e-01,
3.28080e-01,
2.32253e-01,
2.55495e-01,
-2.56869e-01,
-2.03698e-01,
2.16632e-03,
6.20377e-02,
-5.18733e-02,
1.33262e-02,
6.19104e-02,
1.25190e-01,
-2.15308e-02,
-1.31160e-01,
1.16608e-01,
4.34623e-01,
-2.66155e-02,
1.42389e-02,
1.24526e-02,
-4.39188e-02,
-2.67255e-01,
-1.34190e-01,
-2.06484e-01,
3.83478e-01,
1.92475e-01,
3.83802e-01,
-2.63154e-01,
9.91299e-02,
3.51050e-01,
2.32790e-02,
-2.40054e-01,
1.48404e-02,
-2.22073e-01,-1.26842e-02,9.20098e-03,-1.67727e-01,1.92311e-01,-1.09818e-01,-6.67353e-02,-2.51797e-01,-9.27383e-02,1.36657e-01,1.14609e-01,-1.44189e-01,1.13793e-01,-2.52296e-02,-1.33321e-01,-8.21821e-03,1.46811e-01,1.31863e-01,-1.42450e-03,6.58280e-02,2.91138e-02,-5.26342e-02,-1.05643e-01,1.51938e-01,-1.67187e-01,-1.03921e-01,-5.09886e-02,-6.39329e-02,-3.56365e-03,-1.92114e-01,1.03848e-02,1.17505e-01,
-6.58380e-02,1.10207e-01,-8.28662e-02,-3.05266e-01,2.55379e-01,-1.65656e-02,-1.01376e-01,-2.14768e-01,-3.81656e-02,-1.05592e-01,-1.92013e-01,-1.70580e-01,4.21135e-01,-2.02209e-01,2.78914e-01,-1.21913e-01,1.62496e-02,7.00871e-02,-1.33593e-01,-1.95531e-01,-2.15714e-01,1.88921e-01,5.14281e-02,-6.91584e-02,-3.20618e-01,1.25679e-02,1.36552e-01,-6.21180e-02,2.96668e-01,-2.92172e-01,9.44936e-02,4.53426e-01,
-1.18101e-01,2.40357e-01,1.41526e-03,-2.01363e-01,2.64553e-01,7.82830e-02,-1.07620e-01,-1.14692e-03,-4.88616e-01,1.11522e-01,3.47562e-02,-8.52963e-02,-1.84051e-01,2.56421e-01,-3.24201e-02,-5.13437e-02,-1.37030e-01,5.12423e-02,-1.60445e-01,2.15179e-02,-1.34570e-01,2.84982e-02,-1.14650e-01,4.83521e-02,3.41025e-01,1.86476e-01,-1.25766e-01,1.45332e-03,2.37140e-01,-1.71241e-01,4.45218e-02,3.81253e-02,
6.09902e-02,-7.79064e-01,-4.03612e-01,-2.98778e-01,1.86859e-02,-1.49634e-02,-1.11913e-02,8.89464e-02,-7.57217e-02,-1.16307e-01,5.40887e-02,-2.91889e-02,-1.60733e-01,1.51770e-01,-4.36319e-03,1.43882e-01,-6.51118e-02,-2.81869e-01,-1.38496e-01,-4.23094e-02,-5.00670e-02,-1.34103e-01,1.63424e-02,3.99258e-02,-2.10423e-02,4.09720e-01,-1.03301e-02,-1.22377e-01,-1.15739e-02,-1.19482e-01,-4.49224e-01,-1.15359e+00,
8.21546e-02,-1.03144e-01,1.58446e-01,3.91277e-02,1.07570e-01,-1.08659e-01,1.20933e-01,4.14665e-02,-5.67391e-02,9.64622e-02,1.25522e-01,-7.65036e-02,1.11575e-02,1.04987e-02,5.98985e-02,-7.15667e-02,-5.41572e-02,1.35336e-01,1.02798e-01,1.25392e-01,3.75014e-02,-5.97438e-02,-1.06534e-01,-9.96856e-02,1.56152e-01,-5.16351e-02,9.27644e-02,1.11980e-01,-4.88715e-02,7.10365e-02,4.06032e-02,-1.08754e-01,
-1.12455e-01,-2.01720e-02,1.64961e-02,-1.20173e-01,1.02462e-01,-8.02602e-03,-1.42602e-01,1.56795e-01,-7.75399e-02,6.30572e-02,-1.23110e-01,-2.25107e-02,4.91104e-02,-2.68102e-01,-2.58650e-01,1.35853e-01,-1.81756e-01,-2.00771e-01,1.27283e-02,2.86815e-02,3.41357e-02,1.08568e-01,3.56145e-02,-1.90630e-01,-7.79176e-02,3.72062e-01,-2.78020e-01,1.03144e-01,-3.33990e-01,6.60497e-02,7.77120e-02,-1.71968e-01,
-1.41913e-01,-2.11625e-01,-6.07817e-01,-9.91077e-02,2.94373e-01,3.95479e-01,-1.54546e-01,-2.19966e-01,3.97933e-01,2.01592e-01,1.35743e-02,-6.84825e-02,5.01386e-01,1.77812e-01,7.39152e-01,-2.11057e-01,-1.41283e-01,-4.53697e-01,1.40638e-01,-2.07195e-01,4.84240e-03,-2.77311e-01,-9.17109e-02,-6.12152e-02,-6.40861e-02,3.02707e-01,-1.85705e-01,-3.60760e-01,5.83142e-02,-2.19139e-01,-2.23108e-01,-3.97677e-02,
1.41477e-01,-1.36785e-01,1.61813e-01,3.99016e-02,8.40752e-02,3.87463e-02,-7.65058e-02,1.35581e-02,6.65272e-02,3.98510e-02,1.97240e-01,-2.14254e-02,-1.24996e-01,-1.34834e-01,2.55583e-02,2.57971e-02,-1.19920e-01,7.76329e-02,1.48288e-01,-7.66011e-02,1.26508e-01,-3.14901e-02,1.23279e-01,-7.74416e-02,5.90255e-03,-1.49199e-01,3.91463e-02,4.55660e-02,1.36903e-02,-8.77378e-02,-9.93260e-02,1.19455e-01,
1.05323e-01,-5.32843e-02,-1.20435e-01,-1.65777e-02,-8.29130e-02,1.93999e-01,1.37157e-01,-4.76980e-02,8.41108e-02,2.22279e-02,5.90508e-02,5.81186e-03,5.37206e-02,5.06258e-02,-1.47124e-02,1.04859e-01,2.70495e-02,2.51404e-02,4.16072e-02,-5.99029e-02,1.50901e-01,5.97529e-02,5.30795e-02,-1.23176e-01,6.41617e-02,-1.18585e-01,-5.98189e-03,1.11908e-01,1.79923e-01,2.79660e-02,8.54558e-03,4.49623e-02,
6.68356e-02,1.11614e-01,-4.90708e-02,-1.84224e-01,5.60682e-02,-4.95239e-02,-8.26965e-02,-2.52961e-02,7.57450e-02,1.06557e-01,1.58212e-01,1.35656e-01,-8.90753e-02,-5.27732e-02,-2.73545e-01,-1.33467e-01,-7.46153e-02,9.41869e-02,-1.25769e-01,1.06773e-01,-1.13008e-01,1.36624e-01,-6.14486e-03,-8.69115e-02,-1.78197e-01,1.21659e-01,8.05333e-02,-9.62472e-02,2.74412e-02,-1.84298e-02,-1.32650e-01,-3.26717e-03,
-7.12155e-02,-1.58172e-01,-2.66736e-01,5.35081e-02,1.33645e-01,-9.17769e-02,-6.18822e-02,-1.79047e-01,-1.53741e-01,-9.03884e-02,-1.39765e-01,-9.23966e-02,5.45511e-02,-5.59308e-02,6.76638e-02,-9.68814e-02,-2.08217e-01,-1.87408e-01,-8.81244e-02,-1.38587e-01,2.83174e-02,-1.50862e-02,-1.75457e-01,1.96522e-02,-1.41808e-01,-1.57752e-02,7.40496e-02,-6.83642e-01,1.13778e-01,-9.02163e-02,-1.59725e-01,-9.79589e-01,
-2.62607e-01,-8.57605e-02,-6.40689e-01,-2.46895e-01,2.96498e-02,1.59950e-01,-1.45470e-01,5.96092e-04,1.12814e-01,-3.38580e-02,-1.21074e-01,-7.24758e-02,1.34075e-01,3.53403e-02,-1.22122e-01,-1.24486e-02,-7.13456e-02,4.52943e-02,-1.39282e-01,-1.99071e-01,-1.91692e-01,-9.81405e-02,6.51403e-02,-3.53082e-02,-4.28366e-01,2.22140e-01,-1.20468e-02,-8.43695e-01,-1.12265e-01,-1.53452e-01,-7.16720e-02,-4.95705e-01,
-1.48289e-01,2.40552e-02,-3.54319e-02,-2.81188e-01,-2.31537e-01,-2.11943e-01,-1.40437e-01,2.98143e-02,-6.54099e-01,-4.02897e-01,-2.65905e-01,9.62906e-02,1.92794e-01,-5.60768e-01,3.84753e-01,-1.06764e-02,-1.35679e-01,-2.20856e-01,-3.74622e-02,1.98466e-01,-3.71091e-02,-4.64124e-02,2.63465e-02,-9.53221e-02,-1.14238e-02,-3.45977e-02,-3.90204e-01,2.05248e-02,-2.61703e-01,3.21943e-02,3.70286e-02,1.35393e-02,
8.12721e-02,1.38890e-01,-1.00893e-01,-1.14931e-01,-1.63038e-01,-2.71228e-01,-1.50787e-01,-1.77605e-01,-1.20030e-01,6.00999e-02,1.58530e-01,-1.22022e-01,9.53506e-02,-1.89623e-01,-2.11775e-02,-8.55599e-02,-4.13175e-02,6.91878e-02,-4.65084e-02,-1.66397e-01,-6.39560e-02,-1.72278e-01,-1.45039e-01,4.77518e-03,2.77003e-02,-3.85548e-01,7.96273e-02,-5.29368e-02,-1.30637e-01,-6.09547e-02,-2.61130e-03,-5.68833e-02,
-1.31059e-03,4.64339e-02,2.65512e-01,-1.01140e-01,8.96428e-02,2.37581e-01,8.08899e-02,-5.62777e-02,3.25293e-01,4.31619e-02,2.02718e-01,-2.19231e-01,5.12183e-01,3.73243e-01,1.40244e-01,-1.45123e-01,-4.31015e-02,-9.73995e-02,-7.57862e-02,-1.81821e-01,-1.64292e-01,-1.52643e-02,-2.88976e-02,-1.24937e-01,1.68000e-01,2.01961e-01,1.12453e-01,2.19961e-02,-4.73803e-02,-1.84375e-01,2.09959e-01,-1.12770e-01,
-1.12450e-01,2.24334e-01,8.18350e-02,2.92910e-01,-8.43786e-02,-1.28983e-01,-1.00287e-01,2.47096e-02,-2.35505e-01,-7.46091e-02,-5.20701e-02,-2.26864e-01,-3.08467e-02,-2.08183e-01,7.73705e-04,2.91488e-02,-1.26709e-01,1.12369e-01,-2.24485e-01,-2.61157e-02,1.29524e-02,-1.50198e-03,-1.44126e-01,-1.07635e-01,1.22153e-01,-6.48280e-02,7.78516e-02,-1.21854e-01,4.85517e-02,-8.96586e-02,8.11597e-02,-2.13819e-02,
-5.67435e-02,-2.56795e-02,1.41103e-01,-1.81470e-01,-1.19742e-01,-1.15412e-01,6.86859e-03,-6.73205e-02,1.64610e-01,3.47488e-02,-1.74377e-01,6.90656e-02,-7.55854e-02,-1.83014e-01,7.37113e-02,1.66202e-01,1.51408e-01,-9.10169e-02,1.03273e-01,1.24474e-01,-3.67176e-02,5.84207e-02,-1.12728e-01,7.99247e-02,7.46469e-02,4.45992e-02,5.96877e-02,-1.19746e-01,-1.93720e-02,1.52404e-01,1.18831e-02,9.99933e-02,
-1.02830e-01,7.08266e-02,8.92369e-02,4.11808e-02,2.52503e-01,1.61908e-01,-4.33502e-02,-1.36903e-01,-1.39156e-01,-3.21792e-01,-1.78217e-02,-1.03570e-01,-1.32527e-01,2.45396e-01,-5.44621e-02,-1.06367e-02,-1.42663e-01,-3.91259e-01,-6.23647e-02,-4.15586e-02,-1.26491e-01,2.21509e-02,3.89772e-02,-2.90312e-01,3.62448e-02,2.05460e-01,-6.93360e-02,2.06694e-01,-2.27259e-02,3.92409e-02,-4.59232e-03,-5.10424e-01,
-1.13062e-01,-1.37404e-01,1.11363e-01,-1.06356e-01,-1.57518e-01,6.16968e-02,-1.37243e-02,1.04146e-01,1.20415e-01,-5.95123e-02,2.14102e-02,-4.50407e-02,-1.11186e-01,-4.60528e-02,7.96681e-02,-8.61458e-02,-4.49465e-02,-6.34554e-02,1.15092e-01,4.49805e-02,-8.09698e-02,-1.47130e-01,1.66126e-03,9.23052e-02,-6.91138e-02,1.97477e-02,1.55571e-01,1.80297e-01,-3.68125e-02,5.65208e-02,-3.90864e-02,-1.36889e-01,
-1.10526e-01,-8.78159e-02,2.15435e-01,-1.42212e-01,9.34670e-02,-2.29796e-02,-6.49429e-02,1.17040e-01,-4.07086e-02,1.17328e-03,7.38101e-02,-2.21499e-02,-4.02714e-02,2.00283e-02,1.29281e-02,5.28312e-02,2.81365e-02,9.84132e-02,5.68719e-02,-1.00585e-01,-2.63656e-02,-1.47771e-01,2.82232e-02,3.83620e-02,8.07095e-02,7.44378e-02,-6.27980e-02,2.58696e-03,-7.39376e-02,-1.20825e-01,1.46580e-01,-1.56990e-01,
-7.30822e-02,5.83971e-02,-9.72876e-02,-1.55683e-01,-1.30917e-01,-1.62885e-01,-1.57729e-01,1.19027e-01,1.18930e-01,9.16963e-02,-1.21020e-01,1.05743e-01,-4.09656e-02,4.57291e-02,3.37716e-02,-6.70303e-02,3.30888e-02,-2.60519e-02,-1.73446e-01,4.84246e-02,-2.44884e-02,8.60120e-02,-1.46754e-01,-1.87479e-01,1.01798e-01,-1.66297e-02,6.47637e-02,-8.48622e-02,9.58888e-02,1.21945e-01,-2.43774e-02,-1.57452e-01,
3.06433e-02,-9.02617e-02,-1.48446e-01,-2.03661e-01,-1.16313e-01,2.91458e-01,6.55801e-03,8.35488e-03,2.50832e-02,1.93596e-02,-1.80816e-02,-1.06588e-02,2.29347e-01,-4.26089e-01,2.80649e-02,-7.13055e-02,9.88381e-03,-3.21136e-01,-1.30694e-01,-1.39992e-01,-7.80235e-02,4.10932e-01,-1.57131e-01,-3.43710e-01,-3.42012e-01,-7.68978e-01,-1.14381e-01,2.19746e-01,2.92423e-01,1.57506e-01,-2.19198e-01,-4.65430e-02,
-1.07935e-01,-1.17959e-02,-1.56147e-01,-1.37878e-01,-5.43896e-01,-4.54395e-01,6.29596e-02,-9.42702e-02,-1.86591e-01,-1.81876e-01,2.65293e-02,3.49408e-02,9.65407e-02,-5.40229e-01,-3.38819e-01,7.17150e-02,2.95308e-01,-1.29767e-01,-1.70244e-01,-2.61282e-01,-4.43195e-02,-2.24219e-01,-7.59429e-02,-7.74204e-02,-1.94294e-01,-5.39798e-01,-2.18628e-01,-6.69029e-02,-1.30469e-01,1.08295e-01,1.57291e-01,2.21311e-01,
-1.29811e-01,6.14864e-01,4.16391e-01,-1.00795e-01,-4.42234e-01,-5.64631e-01,-5.50733e-02,4.77591e-02,5.25100e-02,4.75509e-02,-2.39538e-01,-2.58746e-02,1.29446e-01,7.13289e-02,-2.11013e-01,-1.28260e-02,-2.28070e-01,1.54169e-01,9.81236e-02,1.30707e-01,-2.34773e-01,-1.48877e-01,-1.76557e-01,8.77533e-03,-3.26450e-01,-5.12537e-01,1.32436e-02,3.48540e-02,1.19880e-01,2.03326e-02,4.49302e-01,4.59572e-01,
-2.86985e-01,-7.26670e-02,3.14188e-01,2.02967e-01,1.35715e-01,-3.41805e-02,9.48596e-03,-2.03843e-01,9.41024e-02,-1.38512e-01,8.39004e-03,6.82569e-02,3.14366e-01,-8.97356e-02,3.33066e-01,-8.03093e-02,-7.20232e-02,1.54598e-01,-1.41561e-01,-2.82018e-01,-2.58880e-01,-1.04209e-01,-5.83310e-02,-8.75498e-02,-2.17900e-01,1.08982e-01,2.45503e-01,1.52354e-01,6.57406e-03,-1.66894e-01,-1.06873e-01,-3.58755e-01,
-9.22250e-03,-8.66388e-02,2.08218e-01,-3.68604e-01,-1.53912e-01,-1.42253e-01,7.16116e-02,5.19355e-02,1.33235e-01,4.81503e-02,9.90769e-02,-1.06847e-01,-2.53813e-01,-1.21798e+00,5.85793e-02,-1.12704e-01,-2.77800e-02,-8.78020e-02,-1.19355e-01,8.79750e-02,-7.82424e-02,8.63279e-02,-3.21361e-02,-4.74785e-02,-5.01429e-02,8.33897e-02,-1.05515e-01,6.25241e-01,4.86504e-01,-9.66905e-02,-1.42780e-01,-9.72318e-02,
-1.45718e-01,5.58661e-02,1.58954e-01,-1.04362e-01,-6.85151e-02,7.09338e-02,-7.08137e-03,-5.87383e-02,9.78654e-02,-1.99658e-01,-3.83922e-02,-8.11986e-02,6.32246e-02,1.65500e-02,-5.81117e-02,7.73187e-02,-7.52359e-02,1.12207e-01,-4.48608e-02,-2.02892e-01,-1.78300e-01,1.62738e-01,-1.04770e-01,1.90121e-01,8.45321e-02,4.51181e-02,-1.57962e-01,-3.90684e-02,7.72621e-02,1.26554e-02,-4.97913e-02,-5.43047e-01,
1.16025e-02,1.57740e-01,6.17304e-02,-5.30805e-02,-1.29427e-01,-1.27309e-01,-1.73395e-01,2.18386e-01,-1.11303e-01,2.91702e-01,2.47026e-01,7.98793e-02,-5.01217e-01,-6.12836e-02,-1.21945e-01,-1.79104e-01,1.62533e-01,-2.79578e-02,1.06453e-01,-7.80163e-02,-1.60410e-01,-1.10140e-01,1.61742e-01,9.09048e-02,8.05176e-02,-6.74432e-02,-3.48551e-02,-5.45090e-02,1.08079e-01,8.41059e-03,-5.87580e-02,1.78324e-01,
-2.52092e-01,1.88246e-01,1.86453e-01,-3.45466e-01,-2.35446e-01,-9.52589e-02,3.97857e-02,3.00456e-03,7.53724e-02,-1.15179e-01,-9.63936e-02,-1.00116e-01,1.43061e-02,1.13897e-01,4.84624e-02,-3.93375e-02,-6.54602e-02,1.05336e-01,-5.76172e-02,-3.35446e-01,-8.81866e-02,-1.48430e-01,6.03510e-02,2.96450e-02,-1.84423e-01,-2.55706e-01,6.45140e-02,-1.27599e-01,-1.79122e-01,-9.26778e-02,1.30017e-01,3.22777e-01,
5.06913e-03,-7.34375e-02,2.48555e-02,1.35652e-01,1.31615e-01,-9.63657e-02,4.72089e-02,1.65968e-01,2.00383e-01,-1.04194e-01,1.04979e-01,-6.27038e-02,9.50970e-02,1.23479e-01,5.03093e-02,3.31847e-02,-6.66056e-02,-1.46777e-01,-1.67453e-01,2.64495e-02,4.51293e-02,-8.48287e-02,1.12774e-01,-1.37932e-01,-7.92341e-02,-5.34303e-02,1.24272e-01,5.16156e-02,-2.33901e-02,7.50877e-02,6.62277e-02,-6.11351e-02,
1.41496e-01,2.74054e-02,1.24219e-02,2.27508e-02,-1.31609e-01,2.20722e-01,1.39812e-01,8.44488e-02,8.04217e-03,-1.39787e-01,3.39623e-02,-2.72347e-02,-4.98444e-02,6.32223e-02,1.95974e-01,1.48744e-01,-1.57426e-01,-1.66295e-03,8.86225e-02,-7.44031e-02,-9.02073e-02,-3.40314e-02,-1.76034e-01,2.11357e-02,-5.70237e-02,-3.04946e-01,1.47800e-01,1.01328e-01,1.27261e-01,-1.61484e-01,1.51226e-01,-1.66450e-01,
-9.18710e-02,-1.70208e-01,-2.24381e-01,-3.37839e-01,1.69565e-01,5.46593e-02,1.22045e-02,-2.14195e-02,3.89896e-02,-5.74111e-02,1.28853e-02,-5.35515e-02,-1.61202e-02,6.44115e-02,9.60274e-02,2.51905e-02,-1.24452e-01,-1.72424e-01,3.08182e-02,-2.23415e-01,-1.50968e-01,6.53335e-02,-1.83053e-01,-4.65927e-02,1.03528e-01,1.98992e-01,2.31540e-02,-1.04500e-01,3.96955e-02,3.96238e-02,-1.59301e-01,-3.92520e-01,
-3.10474e-02,
2.65903e-01,
-5.13589e-01,
2.82952e-03,
2.84817e-01,
2.40973e-01,
-2.00642e-01,
-2.01977e-01,
1.71836e-01,
5.99474e-02,
-6.56759e-02,
-2.07620e-01,
-2.14542e-01,
1.91961e-01,
-1.57546e-01,
-1.85408e-01,
6.69233e-02,
3.43128e-01,
-1.33519e-01,
-1.92541e-01,
-6.79948e-02,
2.73418e-01,
-1.88727e-01,
-7.55380e-02,
-1.26335e-01,
1.93993e-01,
4.12259e-01,
1.52992e-01,
2.25595e-01,
-1.41205e-01,
2.46352e-01,
-2.34407e-01,
-7.27708e-02,-6.13668e-02,1.86614e-01,
1.10462e-02,-2.45542e-01,-5.79711e-02,
-3.96216e-02,2.70738e-01,7.00612e-02,
1.15889e-03,2.02340e-01,6.70426e-03,
1.03571e-01,1.35330e-01,-3.51536e-02,
5.82731e-02,3.55330e-02,7.61568e-02,
4.13872e-02,8.54321e-02,-1.61476e-02,
7.14958e-03,-5.93043e-02,1.01402e-01,
6.95564e-02,-1.47365e-02,8.61229e-02,
5.93360e-03,-1.18360e-02,2.28695e-02,
-4.43638e-02,-4.29694e-05,2.86864e-02,
-8.86052e-02,5.44244e-02,5.69211e-02,
-1.02196e-01,-2.15437e-02,4.13435e-02,
6.44577e-02,1.25485e-02,4.15190e-02,
-1.47159e-01,-3.63275e-02,-3.18966e-02,
3.37573e-03,3.84474e-02,1.35948e-01,
8.90674e-02,-2.13310e-01,-5.77781e-02,
8.85305e-02,-1.73813e-01,-8.60512e-03,
-4.87269e-02,-4.93624e-02,8.87565e-02,
1.99075e-01,-1.27476e-01,-6.02989e-02,
3.65272e-02,5.43466e-02,3.17149e-02,
4.76942e-02,3.24095e-02,-3.80997e-02,
-6.27828e-02,1.21832e-01,6.45729e-02,
2.05151e-02,2.30786e-02,-2.73891e-02,
-2.60586e-02,6.79499e-02,-1.16976e-01,
-7.66886e-02,1.06241e-01,7.54761e-03,
3.10454e-01,-3.80524e-02,9.21888e-03,
7.15528e-02,-2.31535e-01,-1.83861e-02,
8.39526e-02,7.32017e-02,-1.05982e-01,
9.87737e-02,-2.38740e-02,-1.17805e-01,
-2.50574e-02,-1.19731e-01,5.14208e-02,
-1.23415e-02,2.10295e-01,-1.37599e-02,
2.49074e-02,
8.29965e-02,
3.24924e-02,
